%YAML:1.0
---
myHogDector: !!opencv-object-detector-hog
   winSize: [ 128, 128 ]
   blockSize: [ 16, 16 ]
   blockStride: [ 8, 8 ]
   cellSize: [ 8, 8 ]
   nbins: 9
   derivAperture: 1
   winSigma: 4.
   histogramNormType: 0
   L2HysThreshold: 2.0000000000000001e-01
   gammaCorrection: 0
   nlevels: 64
   signedGradient: 0
   SVMDetector: [ -2.45063193e-03, -3.11921840e-03, 4.06517927e-03,
       -9.56480764e-03, -6.41195429e-03, -1.64176058e-02, 1.98252476e-03,
       4.90022451e-03, -1.29971346e-02, -1.08264294e-02, -6.47427095e-03,
       4.32236260e-03, -3.72743444e-03, 5.06004971e-03, 2.49453355e-03,
       -4.52106178e-05, -9.72044014e-04, -1.62684340e-02,
       -3.10341176e-03, 9.40566976e-03, 1.27351442e-02, -5.97141171e-03,
       5.82950469e-03, -1.08409598e-02, 1.01227527e-02, 7.26554962e-03,
       -7.13706156e-03, 1.21503358e-03, 9.60184541e-03, 1.34619735e-02,
       1.16835032e-02, 2.25426089e-02, 1.37497382e-02, 2.07377821e-02,
       1.04727894e-02, 3.11557436e-03, -1.21056195e-02, -6.15000352e-03,
       -4.77379514e-03, -4.66215145e-03, 4.47220076e-03, 1.98069494e-03,
       -4.12791921e-03, -7.53592886e-03, -1.75611563e-02,
       -6.02706277e-04, -3.29337851e-03, -5.63825306e-04, 3.22075840e-03,
       8.98766611e-03, 1.58401474e-03, -8.63714330e-03, -7.03914370e-03,
       -5.66565292e-03, -1.25905145e-02, 1.84686098e-03, 4.84196190e-03,
       -6.31025818e-04, 4.03955951e-03, 4.02259827e-03, 1.34219415e-03,
       1.79150281e-03, -1.39093939e-02, 1.01737427e-02, 3.16932052e-03,
       3.39914020e-03, 3.17240343e-03, 5.42265084e-03, 6.19734591e-03,
       3.72131378e-03, 5.41454507e-03, 2.44297693e-03, 5.24920702e-04,
       -3.91623424e-03, -1.40705716e-03, 2.01561465e-03, 7.24809617e-03,
       6.82245940e-03, -1.96672673e-03, -4.10362752e-03, -2.26476719e-03,
       1.08323281e-03, 3.10943602e-03, -2.28387676e-03, -2.48760305e-04,
       -3.71448952e-03, -9.05213598e-03, -1.32808555e-02,
       -8.66130926e-03, -7.21752224e-03, 6.76732697e-03, 9.28576570e-03,
       1.33905746e-02, 4.73659299e-03, 2.23310571e-03, 1.31094344e-02,
       7.73677276e-03, -1.98560534e-03, -3.24513880e-03, 4.25537676e-03,
       7.60346092e-03, 3.78377130e-03, 7.52662309e-03, 1.07877161e-02,
       1.47278374e-03, 1.50910381e-03, -9.45241482e-04, -3.98921873e-03,
       -1.68823078e-03, -2.27734586e-03, -7.03215878e-03, 5.19687263e-03,
       -4.11081966e-03, -1.35437762e-02, -9.30304267e-03,
       -6.07620459e-03, -6.41052099e-03, -2.99115223e-03,
       -2.85514951e-04, 3.16430186e-03, 3.72288097e-03, 2.18202895e-03,
       -7.55399140e-03, -5.40195778e-03, -4.65843640e-03,
       -7.10201636e-03, 7.04988185e-03, 1.40167987e-02, 1.68683974e-03,
       1.47392843e-02, 7.86307082e-03, 1.18241005e-03, -1.65490573e-03,
       1.50787702e-04, 1.36894430e-03, 7.68116722e-03, 1.96576640e-02,
       1.15089780e-02, 6.63211895e-03, 3.30107822e-03, -2.20681564e-03,
       -1.57474761e-03, 1.35668844e-03, 7.15099508e-03, -6.17853552e-03,
       1.62897957e-03, 6.97332993e-03, 1.43893412e-03, 2.61527166e-04,
       2.83111673e-04, 1.23091706e-03, -2.67720479e-03, -7.93125760e-03,
       -9.10955574e-03, -9.03876871e-03, 1.32180459e-03, -4.55438579e-03,
       -1.10531729e-02, -7.12236902e-03, -4.02851077e-03, 8.85161629e-04,
       -7.76702631e-03, 1.59799326e-02, 1.98728684e-02, 1.53757390e-02,
       -8.34162274e-05, -1.03100843e-03, -4.26834682e-03, 5.27729467e-03,
       1.31535865e-02, 1.66280232e-02, 1.48798581e-02, 7.77145056e-03,
       4.98938235e-03, 4.42257943e-03, -1.55483810e-02, -5.03086206e-03,
       5.53542934e-03, 1.06541840e-02, 1.57006122e-02, -2.85102404e-03,
       -8.25373642e-03, -3.23565607e-03, -1.29367004e-03,
       -1.27071887e-02, -1.43906418e-02, -3.59018217e-03, 3.10391397e-03,
       -1.00394699e-03, 1.71916578e-02, 1.71643347e-02, 2.35639326e-03,
       1.57095562e-03, -8.05534050e-03, -8.42339080e-03, 6.07469538e-03,
       2.07034242e-03, 1.99541193e-03, 7.77615560e-03, 1.53593002e-02,
       -1.30366557e-03, 4.21739044e-03, -1.00239329e-02, -1.10877994e-02,
       1.43087609e-03, 3.42774275e-03, 7.04624271e-03, 9.17318184e-03,
       3.34111899e-02, 6.95064105e-03, 3.04253330e-03, -3.10753542e-03,
       -4.33836877e-03, 7.16031669e-03, 2.73803156e-03, 6.41803723e-03,
       1.22170262e-02, 1.46388803e-02, 2.97110900e-03, -2.18605594e-04,
       -6.83843438e-03, -8.88745673e-03, 1.42280513e-03, -8.89528077e-03,
       -5.89191541e-03, 6.64622756e-03, 1.34160463e-02, 1.12501346e-02,
       2.60968856e-03, -1.37256831e-02, -1.91484950e-02, -1.68182086e-02,
       -1.64332576e-02, -8.22132919e-03, 9.53248795e-03, 3.13258693e-02,
       7.68276164e-03, -2.08472393e-05, -4.81936149e-03, -7.44236028e-03,
       1.86578161e-03, 4.45650518e-03, 5.57801733e-03, 1.77272782e-02,
       2.74231639e-02, 1.33787915e-02, 6.24450017e-03, -5.49197802e-03,
       -1.14657599e-02, -3.54703725e-03, 1.05841074e-03, 1.08297616e-02,
       7.89363869e-03, 6.55790977e-03, 1.39453262e-02, -1.15642999e-03,
       -1.98850278e-02, -2.04069503e-02, -1.43073862e-02,
       -1.08372746e-02, -3.63808661e-03, 6.19060686e-03, 1.03690848e-02,
       1.19702630e-02, -8.94944556e-03, -1.90867353e-02, -1.05774635e-02,
       -2.08799331e-03, 8.66482314e-03, 3.54660954e-03, 2.15082951e-02,
       9.77466349e-03, 9.08585638e-03, 6.65350410e-04, -1.56050073e-02,
       -1.63623169e-02, -5.26854303e-03, 3.18305613e-03, 1.59928668e-02,
       1.59947257e-02, 6.75495295e-03, 2.28473986e-03, -5.89172775e-03,
       -1.19575392e-02, -7.32323667e-03, 4.70162323e-03, 1.55999959e-02,
       1.78403873e-02, -1.35183590e-03, 3.02855601e-03, 3.79219581e-03,
       -9.95818712e-03, -1.47499889e-02, -7.56506715e-03, 3.63738713e-04,
       5.63265104e-03, -2.18191766e-03, -1.51383912e-03, -3.58773279e-03,
       1.90305791e-03, -8.34016129e-03, -9.05587245e-03, -7.96940550e-03,
       7.63451401e-03, -3.24151549e-03, -4.23902413e-03, 9.18375142e-03,
       8.40137899e-03, 9.57811158e-03, -6.42977841e-03, -8.01600330e-03,
       1.02779001e-03, 1.01690907e-02, 1.72112677e-02, 2.00243890e-02,
       1.63529068e-02, 1.62585415e-02, 1.35871936e-02, 8.96054413e-03,
       7.31150620e-03, 8.37930478e-03, 1.19512780e-02, 1.48427114e-02,
       1.72939822e-02, -6.88901404e-04, -4.73629590e-03, 1.78822014e-03,
       -3.69774201e-03, -7.29532260e-03, -7.09116459e-03, 5.31198271e-03,
       -3.15251923e-03, -6.64232299e-03, 3.63986380e-03, 1.79065554e-03,
       5.06904116e-03, -9.61787626e-03, -1.21132396e-02, -8.27806257e-03,
       -6.29698450e-04, -3.74353374e-03, 2.63963215e-04, 1.68730095e-02,
       8.61787703e-03, 7.70392269e-03, 1.98222999e-03, 1.82361237e-03,
       1.24010555e-02, 1.22925034e-02, 5.94187109e-03, 1.26818391e-02,
       1.82366166e-02, 9.23692808e-03, 7.83904828e-03, 2.01792433e-03,
       3.17588705e-03, 8.62729549e-03, 2.06978060e-02, 1.40095390e-02,
       1.62734594e-02, 1.80250057e-03, 5.36403013e-03, 5.66548202e-03,
       -8.49846471e-03, -8.84041842e-03, -8.60576238e-03, 7.72783416e-04,
       4.03125910e-03, 7.36081786e-03, 2.77140760e-03, -7.37613533e-04,
       -5.31378435e-03, -1.78216789e-02, -1.49644287e-02,
       -7.41532119e-03, 2.50248215e-03, 6.80557173e-03, 1.44381076e-02,
       1.01226987e-02, 1.28326742e-02, 1.31368842e-02, 1.84270914e-03,
       3.23407329e-03, 8.03762674e-03, 1.58433076e-02, 1.46195292e-02,
       1.71057507e-02, 7.13231182e-03, 2.49263784e-03, 5.04399231e-03,
       -2.35273968e-03, -2.64848786e-04, 4.67572175e-03, 1.55467177e-02,
       1.20414244e-02, 1.73193198e-02, 6.95843855e-03, -2.91345944e-03,
       -4.78617614e-03, -1.46031072e-02, -1.80163253e-02,
       -8.22265632e-03, 3.02563910e-03, 5.31510590e-03, 8.61090887e-03,
       7.33547239e-03, 4.49986523e-03, 1.04739266e-02, -7.80441845e-03,
       -1.90338921e-02, -1.46718584e-02, -3.52812838e-03, 1.30169292e-03,
       3.71922692e-03, 7.07045710e-03, 3.17472103e-03, 2.66595697e-03,
       3.63827776e-03, 6.17052428e-03, 2.43702228e-03, 5.92652475e-03,
       4.87240148e-04, 7.20153982e-03, 9.90038272e-03, 1.11081237e-02,
       1.12698646e-02, 8.31982866e-03, -1.52980443e-03, 5.58980601e-03,
       7.54982838e-03, 1.86913903e-03, 7.59292580e-03, 8.82205926e-03,
       1.05869630e-02, 1.17676165e-02, 9.71192552e-04, -1.31793916e-02,
       -1.35264089e-02, -7.30031636e-03, 2.01112707e-03, 1.13131001e-03,
       6.70949556e-03, -1.37082883e-03, 6.45553367e-03, -5.68911340e-03,
       -1.99213102e-02, -1.43943066e-02, -1.26001975e-02,
       -9.27243661e-03, 3.04850691e-04, 1.20467609e-02, 5.02754562e-03,
       5.05689159e-03, 5.80842094e-03, -4.69160872e-03, 6.45034760e-03,
       1.01530347e-02, 1.62257534e-02, 2.12737881e-02, 7.51083763e-03,
       1.43010716e-03, 6.25798304e-04, -9.43697058e-03, -1.35815591e-02,
       -1.14603003e-03, 9.41228704e-04, 1.63623802e-02, 1.67571418e-02,
       9.57649853e-03, -1.33375765e-03, -1.23622071e-04, -1.16064278e-02,
       -1.50671536e-02, -9.14553832e-03, -4.98511316e-03,
       -9.11866373e-04, 1.32378628e-02, 8.81365314e-03, -7.19842268e-03,
       -1.12824328e-02, -1.52359381e-02, -1.45552959e-02,
       -7.17385765e-03, -1.85718440e-04, 4.01585223e-03, 1.03149610e-02,
       1.43753253e-02, 2.40001269e-03, -6.44681510e-03, -1.07979216e-02,
       -4.96718613e-03, 4.93662991e-03, 5.87473670e-03, 1.46955829e-02,
       1.67409983e-02, 1.21402433e-02, -1.83761236e-04, -6.29349658e-03,
       4.42536548e-04, -3.32546094e-03, 1.84788753e-03, 9.15481523e-03,
       8.37957021e-03, 1.81100182e-02, 1.00402134e-02, 9.02989134e-03,
       1.55219808e-03, -7.68131483e-03, -1.90059505e-02, 1.46909337e-03,
       6.36002654e-03, 4.53418167e-03, 8.03734642e-03, -1.75284292e-03,
       2.92802020e-03, 1.14848849e-03, -6.98037865e-03, -1.07740257e-02,
       4.01751697e-03, 9.00303200e-03, 2.71422602e-03, -4.64805216e-03,
       1.77385062e-02, 1.26511501e-02, 5.16751781e-03, 6.48198696e-03,
       -1.44561781e-02, 4.89039952e-03, 1.47617208e-02, 9.10030026e-03,
       1.67257488e-02, -8.44829832e-04, 3.73390736e-03, -1.52393535e-03,
       -1.09999236e-02, 5.73487370e-04, 2.39746496e-02, 1.52344219e-02,
       7.65261799e-03, 2.62533920e-03, -1.38142863e-02, 8.44164658e-03,
       7.33945845e-03, -8.16269685e-03, -2.14945409e-03, -1.38185462e-02,
       -3.00592300e-03, -2.08690832e-03, -1.00417668e-02,
       -4.66476148e-03, 2.17688512e-02, 1.55555718e-02, 9.05594509e-03,
       9.26662795e-03, 3.32762580e-03, 1.75792235e-03, 7.87896337e-04,
       -2.86830030e-03, -3.56760435e-03, 1.72691457e-02, 8.78368504e-03,
       7.45990826e-03, -5.08179376e-03, -1.29843773e-02, -1.01666013e-02,
       -2.01275150e-04, -6.08162954e-03, 7.99980760e-03, 1.70452408e-02,
       9.57330037e-03, 1.56387947e-02, 3.30563192e-03, 6.63017994e-03,
       3.84203577e-03, 9.71770659e-03, 9.68456094e-04, -1.07195126e-02,
       5.36659639e-03, 7.41346320e-03, -3.43836541e-03, -4.72430466e-03,
       -3.70413321e-03, -5.11039980e-03, 9.89513355e-04, -1.05128661e-02,
       4.87013161e-03, 1.46285789e-02, 1.41147757e-02, -1.84330600e-03,
       -9.08330362e-03, 7.41596334e-04, 3.14883469e-03, 2.67995009e-03,
       -5.62775647e-03, -5.81262540e-03, 3.62501200e-03, 4.03705332e-03,
       -5.80916181e-03, -2.15475331e-03, -1.63283246e-03,
       -1.17998791e-03, 1.98724959e-03, -6.57668989e-03, 1.53553730e-03,
       1.55782560e-02, 1.03611927e-02, 1.14920817e-03, -1.09606379e-04,
       1.75626541e-03, 1.14740320e-02, 7.03341607e-03, 3.92461289e-03,
       4.34541097e-03, 9.37734917e-03, 7.43471924e-03, -9.76404175e-03,
       -1.49793802e-02, -9.55516822e-04, 3.16344528e-03, -4.00366448e-03,
       -1.34523809e-02, -2.55384785e-03, 5.21238241e-03, 5.96706755e-03,
       -4.73148515e-03, -2.91488436e-03, -8.06355104e-03,
       -1.66851503e-03, -7.75664067e-03, -1.97179653e-02,
       -2.32958421e-03, 1.61133707e-02, 9.71475895e-03, -1.33991418e-02,
       -9.99467727e-03, -2.83369701e-03, 5.34665957e-03, 2.90996465e-03,
       -4.40203398e-03, 4.21091123e-03, 2.09390968e-02, 2.69185118e-02,
       1.62337895e-03, 8.95835645e-03, -5.15100500e-03, -9.59995377e-05,
       4.45991475e-03, -6.33698516e-03, -2.14182562e-03, 3.64113622e-03,
       4.02253028e-03, 2.91706901e-03, -4.35432373e-03, -1.26713859e-02,
       -6.98682712e-03, -1.57067105e-02, -1.61342118e-02,
       -2.81340489e-03, 9.13022831e-03, -1.51741260e-03, -9.72393155e-03,
       -5.99277671e-03, -1.25259710e-02, -7.71357957e-03,
       -1.21307187e-02, -1.44081786e-02, 4.89452248e-03, 1.48990192e-02,
       2.01221649e-02, 3.85290454e-03, 3.11798672e-03, -1.11211827e-02,
       -6.04895363e-03, -5.64990845e-03, -5.23029687e-03, 1.04050683e-02,
       1.09108631e-02, 9.03329346e-03, -1.90161256e-04, 4.95825009e-03,
       -6.10594777e-03, -9.93647263e-04, 5.78884908e-04, 2.09358032e-03,
       3.03134066e-03, 2.99489964e-03, -4.19802312e-03, -1.65962540e-02,
       -1.21626444e-02, -9.56432708e-03, -5.37766283e-03,
       -1.76304707e-03, -4.63846343e-04, 6.45700702e-03, 2.18838104e-03,
       -7.73012452e-03, -8.05217493e-03, -2.09786501e-02,
       -1.26210675e-02, -8.50548502e-03, -2.03987909e-03, 3.07542551e-03,
       9.72485263e-03, 1.10242153e-02, 2.95972149e-03, -3.87029559e-03,
       -2.84085306e-03, -5.12849679e-03, -3.64391832e-03, 6.88433414e-03,
       7.51579832e-03, 9.12302732e-03, 1.71846300e-02, 8.34732875e-03,
       7.44979503e-03, -3.52119142e-03, 2.04446423e-03, 4.52361349e-03,
       7.59444851e-03, 1.95640069e-03, 4.03503748e-03, 9.42196511e-03,
       -1.37682511e-02, -5.35368826e-03, -2.01297123e-02,
       -1.74795352e-02, -7.55502982e-03, -5.32244425e-03,
       -2.49689445e-03, 1.11855417e-02, 9.70483664e-03, -1.07432175e-02,
       -1.24897351e-02, -1.60441641e-02, -1.30183091e-02,
       -3.54238437e-03, -4.18117503e-03, -1.62143703e-03, 1.32385483e-02,
       1.34808486e-02, -2.96449958e-04, 3.79075925e-03, -7.92536605e-03,
       -3.00031132e-03, 4.84847836e-03, 8.16707872e-03, 4.40260815e-03,
       1.84838399e-02, 2.12530121e-02, 3.71094071e-03, 3.15312971e-03,
       5.71734912e-04, 5.50241256e-03, 6.15110109e-03, 1.07244710e-02,
       1.43151525e-02, 7.42639136e-03, 9.59348213e-03, -6.91658643e-04,
       -1.02255251e-02, -1.31831076e-02, -9.82340053e-03,
       -5.94634283e-03, -1.34069088e-03, 7.14380119e-04, 3.28455539e-03,
       4.59703198e-03, -9.90073779e-04, -8.00532941e-03, -1.78813469e-02,
       -1.86435096e-02, -7.57773453e-03, -1.26203254e-03, 4.01025033e-03,
       2.14970149e-02, 2.18759105e-02, 4.01381031e-03, 1.42665557e-03,
       -1.40480569e-03, 1.15542184e-03, -1.80579635e-04, 1.13839200e-02,
       1.86082143e-02, 9.34307557e-03, 7.97458924e-03, -2.01367307e-03,
       2.29571667e-03, -4.05523507e-03, -1.60541106e-02, -1.10843626e-03,
       5.69517491e-03, 1.44730480e-02, 1.25376582e-02, -1.72106852e-03,
       -6.53714873e-04, -1.18077993e-02, -2.32252944e-02,
       -1.86457429e-02, -1.09452324e-03, 8.81730206e-03, 1.78032145e-02,
       4.44476539e-03, -2.44486029e-03, -6.80753728e-03, -1.38335498e-02,
       -1.39225228e-02, -1.46910893e-02, -9.90243396e-04, 1.17557552e-02,
       1.28190219e-02, 6.02658000e-03, -4.53223824e-04, -1.16763532e-03,
       -6.55613700e-03, -3.69789824e-03, -1.31808985e-02, 3.62692936e-03,
       6.40460709e-03, 1.82892047e-02, 5.65741444e-03, -1.39845780e-03,
       -8.17096327e-03, 7.92556326e-04, -1.41458132e-03, -8.39579199e-03,
       1.44757715e-03, 1.11332685e-02, 5.69125032e-03, -9.29947384e-03,
       -2.22068490e-03, -1.70985830e-03, -7.93899503e-03,
       -4.39674081e-03, -4.21500672e-03, -2.97952327e-03, 2.39717378e-03,
       2.95675895e-03, 2.81062839e-03, 3.01875011e-03, 1.23380544e-03,
       5.47760678e-03, 8.43191799e-03, 1.74614284e-02, 2.53159041e-03,
       1.03810849e-03, 9.11636837e-03, -3.84379085e-03, -2.68890476e-03,
       -3.17045557e-03, -1.55674538e-03, 4.43868805e-03, -2.87157577e-03,
       -5.21584041e-03, 1.73616095e-03, -4.31868015e-03, 6.20031776e-03,
       -3.49977217e-03, -1.67340867e-03, 6.94181863e-03, 1.07578505e-02,
       1.20509490e-02, 2.47329497e-03, 5.78688551e-03, 4.92308661e-03,
       -4.67310334e-03, -7.63075054e-03, -4.41243825e-03,
       -1.49802145e-04, 7.38536101e-03, 1.42922532e-02, 5.67465730e-04,
       -1.29494688e-03, 3.30925337e-03, -6.05223980e-03, -5.26155299e-03,
       -7.06054212e-04, -5.71698043e-03, 1.78926077e-03, 5.81746921e-03,
       5.98889962e-03, 3.87518154e-03, 6.09282311e-03, 1.34399999e-03,
       -1.38590680e-02, -8.49960186e-03, 2.31133937e-03, 1.30169215e-02,
       9.24975798e-03, 6.32541301e-03, 6.32918580e-03, -1.00019679e-05,
       -6.31231908e-03, -8.44442286e-03, -1.88030046e-03, 1.06005371e-03,
       9.08650644e-03, 4.98244818e-03, 1.17622120e-02, 7.23678572e-03,
       -8.58576561e-04, -2.86698202e-03, 2.48938776e-03, 4.78364760e-03,
       -3.86698358e-03, 5.23287058e-03, 8.90627969e-03, 1.24951247e-02,
       8.33862182e-03, 1.10590868e-02, -9.83866304e-03, -1.32223833e-02,
       -3.58023378e-03, -2.68171658e-03, 1.07641215e-03, 2.76223454e-03,
       -3.82276310e-04, -7.39569589e-03, 3.88623960e-03, 4.18501766e-03,
       3.09247989e-03, -5.44350012e-04, 3.24215798e-04, 1.13440305e-02,
       1.10868430e-02, 1.65443048e-02, 1.33849457e-02, 5.67483203e-03,
       3.90396058e-03, -9.72255506e-03, -1.23211951e-03, 2.14737211e-03,
       8.39783251e-03, 1.17715197e-02, 7.77179142e-03, 6.53552031e-03,
       1.29544772e-02, 1.74297532e-03, -5.68498485e-03, 3.61341081e-04,
       3.92508972e-03, 6.59765722e-03, 6.56683464e-03, -6.97179232e-03,
       -6.27669925e-03, 6.16215868e-03, -5.30666392e-03, -3.51351313e-03,
       -2.52538919e-03, 2.92612705e-03, 3.40870145e-04, 3.32596409e-03,
       -1.15892747e-02, -1.17618470e-02, -2.09151278e-03, 1.48377940e-02,
       3.09418165e-03, 9.14235227e-03, 7.41907815e-03, 1.39360251e-02,
       1.38294958e-02, 7.38986128e-04, 1.12744104e-02, 2.21366789e-02,
       -2.73250486e-03, -6.55727554e-03, -3.29833548e-03,
       -1.22218614e-03, 5.08878520e-03, 9.75565345e-04, -6.99259900e-03,
       2.81340955e-03, 8.42949655e-03, 5.04935812e-03, -1.22935639e-03,
       6.32219831e-04, 6.76788203e-03, 2.11817375e-03, -1.08916126e-03,
       3.47710593e-05, 6.74239220e-03, 1.21924039e-02, 1.08045740e-02,
       -4.36654256e-04, -5.41254459e-03, -7.19324313e-03,
       -1.00401277e-02, -5.23822568e-03, -3.86310718e-03, 6.79062400e-03,
       1.64547432e-02, 4.55427542e-03, -6.53873757e-03, -4.24906844e-03,
       9.64119844e-03, 2.64105340e-03, -4.23894916e-03, -1.71244342e-03,
       2.32382212e-03, 1.21846022e-02, 8.55380390e-03, -2.29616955e-04,
       -4.60871495e-03, 5.56632364e-03, -4.54256916e-03, -8.31556693e-03,
       -7.64567126e-03, -1.82084972e-03, 4.10302961e-03, 6.81227772e-03,
       -2.52499501e-03, -6.58868626e-03, -5.30044641e-03, 4.29956039e-04,
       7.64498068e-03, -4.07894608e-03, 1.01149385e-03, 8.04929435e-03,
       1.56278966e-03, -2.90158205e-03, -8.13700818e-03, 2.73626950e-03,
       7.23789446e-03, 6.68171188e-03, 4.00107447e-03, 5.84558758e-04,
       4.39069420e-03, 3.91714973e-03, -6.52390008e-04, -7.30633736e-03,
       4.20482364e-03, 2.41779373e-03, -1.94243730e-05, -5.84629970e-03,
       -6.00981666e-03, -2.12077750e-03, -2.31541647e-03,
       -4.91373590e-04, -9.19163693e-03, 2.05759658e-03, -4.84156376e-03,
       6.16530236e-03, 3.68612772e-03, 8.53047520e-03, 1.85969332e-03,
       6.91439211e-03, 6.78699231e-03, -3.21614236e-04, 7.32516265e-03,
       -5.00933127e-03, 5.62641304e-03, 1.29697379e-02, 8.64493474e-03,
       4.08335263e-03, -4.96325176e-03, -2.99784029e-03, -1.14115421e-02,
       -6.68777246e-03, 1.89896193e-04, 1.59760602e-02, 1.99172786e-03,
       -3.19723366e-03, -5.68780722e-03, -2.45215185e-03, 8.53182841e-03,
       -8.35750625e-03, 1.40541820e-02, 3.77322175e-03, 1.57721192e-02,
       1.64873991e-02, 1.25255482e-02, -1.62715151e-04, -2.54849368e-03,
       2.74426187e-03, -7.03914976e-03, 4.57681855e-03, 1.06006004e-02,
       1.53478067e-02, 1.04528787e-02, 1.54669001e-03, -5.66587830e-03,
       -1.16000092e-02, 6.64499216e-03, 7.20077474e-03, 6.48264121e-03,
       -5.12862671e-03, -1.24838203e-02, -4.46649501e-03,
       -4.91975166e-04, -8.94449931e-03, -1.34413810e-02, 4.90628229e-03,
       6.13300595e-03, 1.73828797e-03, -1.11078015e-02, 9.68886248e-04,
       5.69950324e-03, 6.47836179e-03, -9.77185275e-03, -2.71637156e-03,
       1.28679136e-02, 1.70564316e-02, 1.18006440e-02, -2.81552821e-05,
       -4.13348479e-03, -5.87087183e-04, 1.74289853e-05, -9.68975946e-03,
       -5.71328681e-03, 1.68252066e-02, 1.91902984e-02, 7.55498279e-03,
       1.29550567e-03, 4.51982906e-03, 1.50172925e-02, 1.57290988e-03,
       -6.16518361e-03, -6.13059429e-03, -9.40176367e-04,
       -3.79346660e-03, -6.11272734e-03, -1.43858632e-02,
       -4.43440367e-04, 7.06396857e-03, 3.77305597e-03, -6.03638496e-03,
       -6.08207053e-03, 6.38297619e-03, 3.38988309e-03, -9.94710997e-03,
       -7.58505333e-03, 1.00557390e-03, 1.43615911e-02, 1.19931586e-02,
       2.07080552e-03, -9.78348963e-03, 1.67921372e-02, 1.46303009e-02,
       -6.25122245e-03, -1.50405448e-02, 3.69317131e-03, 1.11448765e-02,
       4.66059335e-03, -4.19318350e-03, 6.96228631e-03, 1.81272402e-02,
       1.96736399e-02, -6.29183836e-04, -1.10192215e-02, 1.74778944e-03,
       1.48214661e-02, 1.78512391e-02, 7.31029594e-03, -4.81627975e-03,
       3.27982032e-03, 5.41797956e-04, -1.23883756e-02, -1.69221759e-02,
       -6.81149773e-03, 6.58345548e-03, 6.62192935e-03, -3.32072563e-03,
       6.00644993e-03, 1.56674236e-02, 1.24449516e-02, -1.12176500e-03,
       2.66060611e-04, -1.14438944e-02, -4.45423042e-03, 3.62892286e-03,
       -3.69290984e-03, 4.18269029e-03, 1.94026940e-02, 1.34672066e-02,
       1.03569543e-03, -1.76159274e-02, -1.10447621e-02, 8.21244530e-03,
       9.60653834e-03, -5.78461681e-03, 2.03328417e-03, 1.54733481e-02,
       1.17277801e-02, 9.50550940e-03, -4.72937897e-03, -1.72244560e-03,
       -1.84343802e-03, 6.56271633e-03, -5.21942787e-03, 7.34907715e-03,
       1.04666092e-02, 6.46667182e-03, -7.36846705e-04, -1.05145352e-03,
       -1.33366492e-02, -4.24059480e-03, 1.30334473e-03, 1.90365594e-03,
       1.19799487e-02, 1.16203502e-02, 9.47168283e-03, -3.76918679e-03,
       2.43785954e-03, -7.04812957e-03, -4.75460244e-03, 2.34401878e-03,
       7.82700069e-03, -6.49911538e-03, 6.55993680e-03, -7.07146712e-04,
       -2.59381311e-04, 2.00957351e-04, -8.04475229e-03, -5.65446913e-03,
       8.70409422e-03, -3.85369756e-03, -9.03254549e-04, 6.28222432e-03,
       5.20924572e-03, -6.72085583e-03, -3.27369268e-03, -4.19587450e-04,
       -1.43371988e-04, 1.27933417e-02, -4.69827000e-03, 3.58986785e-03,
       8.90001934e-03, 5.18396404e-03, -7.74637097e-03, -3.34720546e-03,
       -1.02270572e-02, -8.64576083e-03, 7.89688993e-03, 6.84536202e-03,
       3.92142590e-03, 4.32985276e-03, 4.83292807e-03, -1.39241596e-03,
       -9.76482406e-03, -5.49373077e-03, -1.17413118e-03, 5.85314818e-03,
       8.00213590e-03, -5.31698053e-04, 5.08149946e-03, 8.33704136e-03,
       -1.09973997e-02, -4.13327198e-03, 6.81747799e-04, -5.51686855e-03,
       9.24166292e-03, 6.65690284e-04, -2.87958258e-03, 2.30260543e-03,
       9.28958599e-03, 4.86260178e-05, 1.19456032e-03, 7.21295364e-04,
       -6.98518008e-03, 5.54976799e-03, -3.33470269e-03, -1.30842614e-04,
       4.19454975e-03, -5.56685321e-04, -2.43892326e-04, -8.41482822e-03,
       -1.38165243e-03, 1.98716577e-03, 5.64510934e-03, 2.25667190e-03,
       4.09355620e-03, 9.05949064e-03, 6.36553019e-03, 6.90075988e-03,
       6.02641201e-04, 1.36102475e-02, 1.26012752e-03, 1.14113220e-03,
       3.99859203e-03, -9.96916438e-04, 7.05485186e-03, 4.88118548e-03,
       2.96215783e-03, -6.93751033e-03, 1.58317946e-03, -4.63068625e-03,
       -2.75810529e-03, -6.44903630e-03, 4.22934350e-03, 8.26266874e-03,
       6.02551177e-03, 1.02368658e-02, 2.39607389e-03, 1.11713847e-02,
       4.23620734e-03, 1.96178001e-03, 8.77078390e-04, 8.27057287e-03,
       1.38751930e-02, 6.85135648e-03, 4.34751343e-03, 4.84875491e-04,
       4.91091050e-03, 2.86363880e-04, 4.28570760e-03, 1.13975713e-02,
       -4.42448119e-03, 6.12436514e-03, 1.44758599e-03, 4.72691376e-03,
       -1.42602585e-04, -1.35461129e-02, -2.77077896e-03,
       -3.83647298e-03, 8.57152045e-04, 5.26576128e-04, 5.58570074e-03,
       9.80573427e-03, 3.20143742e-03, 3.87230422e-03, 8.08341894e-03,
       5.76206204e-03, 2.73229252e-03, 5.80247957e-03, -1.01927053e-02,
       -7.39641488e-04, 3.31215630e-03, 2.12745322e-03, -6.36732066e-03,
       -5.96399512e-03, 2.52760481e-03, 5.76506648e-03, -7.85741676e-03,
       -2.50380370e-04, 1.73246348e-03, 3.95779591e-03, 6.75657624e-03,
       9.14172921e-03, -6.85399864e-03, 3.01878504e-03, 4.82712593e-03,
       4.85024974e-03, 3.78380326e-04, -2.62746867e-03, 1.92078843e-03,
       5.77071542e-03, 1.93407817e-03, 1.08292990e-03, 9.06895730e-04,
       9.97616537e-03, 4.42981999e-03, 1.43742678e-03, 3.85665777e-03,
       1.36170611e-02, 8.55063833e-03, -1.56888284e-03, -6.79474382e-04,
       1.00649577e-02, 1.33079207e-02, -2.79030297e-03, 1.85324880e-03,
       4.32584522e-04, 5.13851503e-03, 2.91601010e-03, -3.60515551e-03,
       -6.48883404e-03, 6.99067023e-03, 1.06217340e-02, -1.71648583e-03,
       -4.15303046e-03, 2.53110519e-03, -1.27498375e-03, 1.30996527e-03,
       5.23023587e-03, 3.62671679e-03, -5.99594275e-03, 5.36356866e-03,
       4.94680949e-04, 1.26665283e-03, 1.07681071e-02, 1.80664123e-03,
       1.07657127e-02, 1.16077578e-02, 2.28477847e-02, 5.59135247e-03,
       7.80691206e-03, 2.94770929e-03, -8.80931132e-03, -4.94203623e-03,
       -1.53820787e-03, -3.60109843e-04, -2.83984724e-03, 2.28991406e-03,
       9.80408583e-03, 1.00936098e-02, -8.66067363e-04, -6.20531663e-03,
       -4.46220301e-03, -3.02104210e-03, 1.34552922e-02, 4.47566435e-03,
       1.64488629e-02, 8.72130506e-03, 6.85961684e-03, 2.01305840e-03,
       -1.74594310e-03, 3.95158911e-03, -2.98436964e-03, 3.97374528e-03,
       1.19300932e-02, 1.59846079e-02, 6.52996078e-03, 3.55355628e-03,
       -4.89727687e-03, 1.61655317e-03, -2.27534329e-03, 5.69245452e-03,
       6.61464594e-03, 1.33695537e-02, 5.63242706e-03, 7.68905645e-03,
       2.91051622e-03, -3.10525950e-03, -2.01227120e-03, 3.05072143e-04,
       -1.39342295e-03, 6.54559024e-03, 6.69110427e-03, 1.36524355e-02,
       -4.01420332e-03, -5.25699602e-03, -5.16076246e-03, 5.94667066e-03,
       2.23484798e-03, 3.75353172e-03, 2.22177338e-03, 1.01952227e-02,
       3.39127635e-03, -8.62274598e-03, -2.97723664e-03, 3.85550375e-04,
       7.37604266e-03, -3.24908481e-03, 9.92104760e-04, 1.66042859e-03,
       1.59884803e-02, 1.08426623e-02, 6.47491030e-03, 1.46278297e-03,
       2.65218259e-04, 5.64759690e-03, -7.66041875e-03, -2.42361566e-03,
       4.34174290e-04, 1.57757923e-02, 1.24839228e-02, 8.66758917e-03,
       6.36862451e-03, 8.68069753e-03, -2.73340312e-03, -2.89894571e-03,
       -4.54312097e-03, -3.28344223e-03, 1.09077925e-02, 1.11655029e-03,
       -5.98721905e-03, -8.69638659e-03, -3.35583766e-03,
       -1.61252508e-03, -1.06360335e-02, -1.47413183e-02,
       -5.42535447e-03, 7.70526845e-03, 9.47541464e-03, -3.66574945e-03,
       -1.01409117e-02, -7.16412487e-03, 1.16351992e-02, -3.14804236e-03,
       3.60596273e-03, 5.75782312e-03, 1.24157825e-02, 8.75192229e-03,
       -2.19247839e-03, 2.88250227e-03, 1.79768763e-02, -1.11994764e-03,
       -7.95552507e-03, -6.06140634e-03, 1.44228071e-03, 3.11918301e-03,
       5.64803928e-03, -4.71208617e-03, -2.38816447e-05, 9.41138994e-03,
       8.53271130e-03, -2.37723626e-03, -1.37510262e-02, -1.54300651e-03,
       1.94708537e-03, 8.50641821e-03, -5.57767402e-04, -4.48200060e-03,
       5.67366043e-03, 2.84527522e-03, -8.47244915e-03, -9.94379446e-03,
       4.67953185e-04, 7.67294783e-03, 1.86289176e-02, -9.08415532e-04,
       -5.29266987e-03, 6.53046416e-03, -2.98135565e-03, -5.54762920e-03,
       -7.22204987e-03, 1.09387212e-04, 3.68193537e-03, 4.68012295e-04,
       5.82524634e-04, 1.01884094e-03, 4.58146166e-03, -4.88454616e-03,
       -7.08867423e-03, -6.47325208e-03, 2.22819857e-03, 3.12634138e-03,
       -8.12199805e-03, -1.20932097e-02, -1.35502219e-02, 1.11570721e-03,
       3.70619167e-03, -6.19248860e-03, -3.94892506e-03, -6.41293940e-04,
       9.41584725e-03, 2.00605877e-02, -3.18611783e-05, 1.94055995e-03,
       4.46793158e-03, 3.48602654e-03, -1.82812000e-04, 4.37502423e-03,
       1.98864122e-03, 7.21178763e-03, 9.92211048e-03, -1.06277596e-03,
       -4.22747666e-03, 5.29500796e-03, -9.90864864e-05, -5.50105982e-03,
       -8.46972782e-03, 2.39103264e-03, 8.43703840e-03, -3.40711023e-03,
       -6.40614284e-03, -4.67943959e-03, 7.61006726e-03, -3.98074044e-03,
       -7.41757359e-03, -1.24444161e-02, 3.98700731e-03, -3.33929597e-03,
       8.19072768e-04, -2.28832103e-03, 6.50307513e-04, -4.00581723e-03,
       4.70975088e-03, -2.34332099e-03, -4.48417570e-03, 2.24189577e-03,
       9.81910527e-03, 7.91353919e-03, -1.91385951e-03, -2.29044980e-03,
       6.22037845e-03, 3.37518053e-03, -7.00382236e-03, -1.45099079e-02,
       -2.75220769e-03, 6.40042080e-03, 8.33290722e-03, 4.70663595e-04,
       -5.04882261e-03, 2.12689536e-03, -2.89748702e-03, 8.14485538e-04,
       -8.01787246e-03, 1.31369876e-02, 1.07644433e-02, 2.04981845e-02,
       1.02066640e-02, 7.35581387e-04, -2.25599902e-03, -4.87828534e-03,
       3.71209113e-03, -8.84288084e-03, 1.34300219e-03, 4.67476295e-03,
       2.73027853e-03, 4.24478529e-03, -6.47160318e-03, -1.35831507e-02,
       3.51917883e-03, -4.23641317e-03, -1.25926947e-02, -2.11284426e-03,
       1.64497569e-02, 2.53526662e-02, 1.58541650e-02, 7.45689380e-04,
       9.20115225e-03, -5.34866983e-03, -9.81031451e-03, -1.95218902e-02,
       -1.00488011e-02, 5.50787710e-03, 8.81296757e-04, 5.02518704e-03,
       2.81186448e-03, -4.17714147e-03, -4.34479490e-03, 6.34489674e-03,
       2.68160668e-03, -3.78659321e-03, 4.74116020e-03, -7.47453468e-03,
       -4.78235492e-03, -4.89524985e-03, -1.02432277e-02,
       -8.90590902e-03, 1.28406351e-02, 1.46247987e-02, -6.50727050e-03,
       -6.22646138e-03, -1.11360019e-02, -2.23768782e-03,
       -8.76087043e-03, -1.13558890e-02, 3.52078909e-03, 9.04608145e-03,
       4.73992433e-03, 2.40676673e-04, 9.00581758e-03, 4.32455592e-04,
       -3.34709114e-03, -5.10835554e-03, -4.79718577e-03, 9.19385813e-04,
       1.46935266e-02, 1.81982107e-02, 1.31307142e-02, 5.28884493e-03,
       -7.57165812e-03, 2.97368388e-04, 9.91472858e-04, -2.70446809e-03,
       -1.08244289e-02, 1.44521650e-02, 1.62333567e-02, -6.25744881e-03,
       -2.16634423e-02, -8.36967211e-03, 2.05472857e-03, -4.37938422e-03,
       -8.02740082e-03, -2.94058048e-03, 2.58277562e-02, 1.93957258e-02,
       -8.05302896e-03, -2.58670561e-02, -2.19983719e-02,
       -5.22015011e-03, -2.54920288e-03, -1.05500047e-03,
       -6.60359999e-03, 1.56120695e-02, 2.07767785e-02, 4.77157673e-03,
       -4.01758403e-03, -4.66444762e-03, 2.25651986e-03, 3.27393599e-03,
       -4.34295554e-03, 3.46188899e-03, 1.85957495e-02, 1.71012897e-02,
       -3.61336628e-03, -2.00236011e-02, -2.03806702e-02,
       -3.85960867e-03, -5.24989911e-04, 4.88635525e-03, -3.74956609e-04,
       2.48539746e-02, 1.57676004e-02, 3.04612285e-03, -1.82898715e-02,
       -1.35583207e-02, 1.25739758e-03, 3.60753480e-03, -7.88630825e-03,
       -4.95646428e-03, 1.42730493e-02, 2.52770353e-03, 6.81670383e-03,
       2.70518055e-03, -4.63402923e-03, 2.16244510e-03, 5.32948691e-03,
       -1.72890518e-02, 2.10071239e-03, 1.91253778e-02, 1.35906050e-02,
       1.97727131e-04, -2.31228434e-02, -1.65893417e-02, -4.15825378e-03,
       -1.60428067e-03, -5.69979486e-04, -8.32219981e-03, 7.96648674e-03,
       6.75031543e-03, 8.31523910e-03, -2.62593362e-03, -1.50232352e-02,
       3.10591492e-03, 2.05619377e-03, -1.06640430e-02, -8.54642037e-03,
       1.08753750e-02, 1.64653535e-03, -2.60393019e-03, 1.29031588e-03,
       -7.53146363e-03, -1.21695653e-03, 6.89423364e-03, -1.23348413e-02,
       6.28477137e-04, 1.18503496e-02, 3.58267245e-03, -5.05688181e-03,
       5.73702948e-03, -1.22823182e-03, -4.69848560e-03, 5.87918935e-03,
       -2.26680073e-03, -4.81409999e-03, 1.02476636e-02, 6.42213458e-03,
       -5.57045452e-03, 4.92363215e-05, -1.89547241e-02, -3.18671996e-03,
       -5.68026386e-04, -9.57411528e-03, 8.15270003e-03, 1.57330204e-02,
       9.26632714e-03, -3.17234546e-03, 8.64058919e-03, -1.54160075e-02,
       -9.91741475e-03, -2.76632886e-03, 1.56751927e-03, 4.11636569e-03,
       1.23299332e-02, 2.62635644e-03, -5.00471797e-03, 3.99706699e-03,
       -1.18307315e-03, -6.86895382e-03, 5.76656032e-03, -4.28732857e-03,
       4.48652776e-03, 1.43040568e-02, 1.33929793e-02, 4.61019902e-03,
       -3.15927638e-04, 4.78093419e-03, -1.03234537e-02, -4.14517970e-04,
       -5.97798685e-03, 7.33646192e-03, 1.11045102e-02, 4.59972303e-03,
       -3.73861694e-04, 5.01388044e-04, -2.85396609e-03, -7.50654191e-03,
       1.07913325e-03, 2.41763424e-03, 1.81167701e-03, 3.96304717e-03,
       -5.61939843e-04, 3.18129407e-03, 5.00635384e-03, 1.18380948e-03,
       -9.31077637e-03, -3.37454351e-03, -3.50101292e-03, 3.54228215e-03,
       1.18552390e-02, 4.89848852e-03, 3.73275252e-03, -2.39465921e-03,
       3.88824614e-03, -7.50568043e-03, -3.61029734e-03, -6.19560014e-03,
       7.70956185e-03, 4.45895316e-03, 3.98288760e-03, 1.12287067e-02,
       5.46694454e-03, 8.55578203e-03, 8.12584441e-03, 5.71709545e-03,
       3.69562185e-03, -7.61108426e-03, -1.96186593e-03, -2.50748941e-03,
       4.86581028e-03, -6.94213016e-03, 1.58793933e-03, -5.86295454e-03,
       -5.30932192e-03, -4.82363300e-03, 6.65825719e-05, -3.33369244e-03,
       -2.26903916e-03, 1.56016639e-02, 4.51461133e-03, 8.22339766e-03,
       5.89940883e-03, 5.99390641e-03, 1.19102728e-02, -3.89579008e-03,
       -1.93058152e-03, 7.14636547e-03, 7.20828678e-03, 1.08783180e-02,
       5.38732298e-03, 6.41181506e-03, -5.13724226e-04, -1.62063181e-04,
       -1.25597538e-02, -3.79054178e-03, 1.83801271e-03, -4.46996698e-03,
       6.39326824e-03, 4.87919478e-03, 5.88254305e-03, 2.65162624e-03,
       -5.92837017e-03, -3.51737207e-03, -2.38455250e-03, 2.29939367e-04,
       1.79064944e-02, 7.81470723e-03, 8.63962155e-03, 8.56827386e-03,
       9.97185241e-04, 6.72251172e-03, -9.73891467e-03, -3.11835855e-03,
       -3.68296937e-03, 9.74834024e-04, 7.55529897e-03, 1.19955046e-02,
       7.89675489e-03, -6.70530368e-03, -5.53534599e-03, 3.28540569e-03,
       8.88745021e-03, 1.14635946e-02, 3.97905475e-03, 1.03871943e-02,
       4.33722837e-03, 7.46495090e-03, 6.80713588e-03, 7.62498530e-04,
       2.51689460e-03, -1.28293037e-03, -1.33900830e-04, -3.77522758e-03,
       -1.17897871e-03, -5.69168897e-03, 3.07269138e-03, 2.08878843e-03,
       8.72692966e-04, -1.50186068e-03, 4.27609542e-03, 1.02378502e-02,
       1.98728265e-03, 1.34583144e-02, 1.38183469e-02, 8.48883856e-03,
       1.48067228e-03, 3.13492259e-03, -6.81157224e-03, -2.57014716e-03,
       -5.81145938e-03, -1.18969334e-02, -1.06388086e-03, 5.41454135e-03,
       7.62434304e-03, 5.22390753e-03, -1.49743492e-03, -4.84347343e-04,
       -3.03322193e-03, 1.62911907e-04, 4.30187240e-04, 2.64258333e-03,
       4.63214237e-03, 1.01959975e-02, 1.32169044e-02, 6.32917881e-03,
       7.25251040e-04, -5.95632009e-03, -2.63586338e-03, 8.87981802e-03,
       3.39524681e-03, 9.17687267e-03, 7.93725811e-03, 1.07764099e-02,
       7.90620130e-03, 1.31047738e-03, 2.25210591e-04, -6.21239701e-03,
       -1.61816943e-02, -1.06335327e-03, 9.38472711e-03, 9.65208653e-03,
       6.15023915e-03, -3.63760046e-03, 8.26804026e-04, -1.65305776e-03,
       -4.49775485e-03, -6.53480180e-03, -1.23904145e-03, 7.69217266e-03,
       -3.36888153e-03, -5.32715907e-03, -2.34359293e-03,
       -9.21127212e-04, 1.14346731e-04, -4.09584865e-03, 1.86946441e-03,
       4.35146084e-03, 2.65205931e-03, -4.40538442e-03, -2.28614802e-03,
       -4.51578322e-04, 8.59836396e-03, 1.50346721e-03, -6.07808866e-03,
       -8.75226760e-05, 1.06737344e-02, 6.57093897e-03, 4.46858816e-04,
       -6.39610225e-04, 8.63257330e-03, -4.75474959e-03, -3.68866813e-03,
       -9.13878996e-03, -4.36998392e-03, -2.40711984e-03,
       -5.01766661e-03, -4.29487228e-03, -9.31236334e-03,
       -3.51426983e-03, 8.09455663e-03, 5.08080749e-03, -1.34197557e-02,
       -1.98580697e-03, 6.61004614e-03, 8.62015598e-03, 4.36213240e-03,
       2.14126799e-03, 1.03159901e-02, 8.96277465e-03, -1.85063772e-03,
       -1.05936751e-02, -2.94831907e-03, 1.30384387e-02, 7.93428160e-03,
       -2.51788343e-03, 4.24964412e-04, 2.74245208e-03, 9.58180055e-03,
       -6.36499096e-03, -1.88542027e-02, -4.80031688e-03, 7.19493255e-03,
       2.56511499e-03, -1.37219941e-02, -6.04266115e-03, -1.05903100e-03,
       1.40891494e-02, 9.49836336e-03, -9.90912039e-03, 6.58071414e-03,
       8.56921170e-03, 9.22411866e-03, 2.48948787e-03, 7.63417594e-03,
       9.33872443e-03, 1.18937632e-02, 5.22991316e-03, -1.53156871e-03,
       1.05141811e-02, 2.89358868e-05, -5.68466401e-03, -1.58359073e-02,
       -1.46106863e-03, 1.14070782e-02, 1.48846572e-02, -7.26634078e-03,
       -1.88423004e-02, -1.75133115e-03, 5.62783098e-03, 4.26580431e-03,
       -1.07888179e-02, -2.79195141e-03, 8.23066849e-03, 2.39404500e-03,
       -3.52870463e-03, -1.04315439e-02, 6.33142237e-03, 1.41902892e-02,
       2.68003866e-02, -5.35532273e-03, -6.14697859e-03, 3.21116322e-03,
       2.38232990e-03, -3.79109872e-03, -5.31469425e-03, 5.35025867e-03,
       9.44316108e-03, 7.97789823e-03, -1.96420625e-02, -8.83408729e-03,
       1.34989945e-03, 1.81491929e-03, -5.13773691e-03, -5.63644245e-03,
       7.28976820e-03, 1.23527348e-02, 1.93550996e-02, -8.04647617e-03,
       -1.18232155e-02, -4.70896065e-03, 3.45496414e-03, -2.29754904e-03,
       -3.26584885e-03, 5.89067303e-03, 1.67852156e-02, 1.38952695e-02,
       -8.07870703e-04, -4.02054703e-03, 2.00717966e-03, -1.33476430e-03,
       5.58746142e-05, 4.01190249e-03, 1.41080678e-03, 2.69402075e-03,
       -2.74352054e-03, -4.72111069e-03, -3.53959622e-03,
       -3.38613987e-04, -4.83343058e-04, -1.83487742e-03,
       -2.93591525e-03, 1.21116815e-02, 1.44483950e-02, 7.33256899e-03,
       -3.11464863e-03, -1.24613326e-02, -4.64246841e-03,
       -2.66320538e-03, -4.90987580e-03, -8.14340264e-03, 1.92260183e-03,
       3.38542019e-03, -6.60457881e-03, -1.55882891e-02, -9.84654296e-03,
       -2.86558457e-03, -2.97828345e-03, -4.51091258e-03,
       -4.81498335e-03, 8.85315356e-04, 1.19616175e-02, 8.97638965e-03,
       -1.54544925e-03, -9.28583264e-04, 2.04376923e-03, -4.91068279e-03,
       -1.15629025e-02, -1.76437106e-02, -1.28373941e-02, 4.75536939e-03,
       8.28114431e-03, 3.09062796e-03, -7.88867997e-04, 5.50398603e-03,
       -6.54176390e-03, -5.79384062e-03, -8.69640801e-03,
       -3.03527154e-03, 1.19031845e-02, 1.94969599e-03, -9.01537575e-03,
       -7.40487082e-03, -3.59847583e-03, -1.15002599e-02,
       -1.22190639e-02, -1.93231758e-02, -1.03740040e-02, 6.63595926e-03,
       7.89183285e-03, -3.02183267e-04, 1.99111644e-03, -3.20146536e-03,
       -4.34104027e-03, -1.15922736e-02, -1.14592891e-02,
       -8.10514297e-03, 1.74207166e-02, 2.38543563e-02, 6.28843438e-03,
       -5.99726220e-04, 1.06702335e-02, -2.02623140e-02, -1.79844089e-02,
       -1.73669457e-02, -1.56626794e-02, 1.01289209e-02, 7.91149400e-03,
       4.14055679e-03, -4.81307413e-03, -1.07995160e-02, -7.99789652e-03,
       -4.34189755e-03, -1.08074481e-02, -6.04376290e-03, 1.55632049e-02,
       2.25905497e-02, 3.82731040e-03, 1.21103844e-03, -2.95359525e-03,
       -1.90340225e-02, -9.08644684e-03, -1.50459548e-02,
       -1.08899884e-02, 6.87008724e-03, 1.79683566e-02, 7.49883289e-03,
       1.75232228e-04, -1.38286063e-02, 2.56905972e-04, -5.15782135e-03,
       -4.00638557e-04, -3.76251712e-03, 6.55432697e-03, -4.09932947e-03,
       -8.80688149e-03, -9.73331556e-03, -9.58225876e-03, 3.68972425e-03,
       8.59751925e-03, 1.41179049e-02, 8.75103101e-03, 8.53233226e-03,
       -1.37248645e-02, -1.23109929e-02, -6.84943842e-03,
       -5.91828953e-03, -2.43880902e-03, -5.89086092e-04, 1.36965150e-02,
       2.57069571e-03, 1.00434627e-02, 8.05445423e-04, -8.16371478e-03,
       -1.04644159e-02, -2.97515979e-03, 1.50155276e-02, 5.86302904e-03,
       1.36579704e-02, 9.59970336e-03, 1.38684427e-02, -2.44695018e-03,
       -1.18717793e-02, -8.80425423e-03, 4.70484095e-03, -3.21826362e-03,
       6.55700080e-03, 1.23143680e-02, 3.49020725e-03, 3.34549858e-03,
       -5.98456897e-03, 3.13583785e-03, -3.19185480e-03, -6.86818128e-03,
       -4.21284651e-03, 6.01616036e-03, 7.02481903e-03, -1.33171072e-02,
       -2.08562240e-02, -2.26280112e-02, -8.62691831e-03,
       -6.59609400e-03, -1.99813396e-03, 1.07123880e-02, 7.64112081e-03,
       7.62060611e-03, 1.18268849e-02, 1.08586466e-02, -4.02323762e-03,
       9.51487687e-04, 6.24502683e-03, 7.44375400e-03, 1.60046313e-02,
       1.52216237e-02, 7.21342443e-03, -5.04715648e-03, -5.93154784e-03,
       -1.14330873e-02, 2.13229726e-03, 5.57920476e-03, 1.43294949e-02,
       1.04620829e-02, 1.64786894e-02, 1.49605712e-02, -6.66108215e-03,
       -1.44721884e-02, -2.25239452e-02, -5.18710585e-03,
       -4.91314509e-04, 7.59293325e-03, -1.21118722e-03, 6.98590558e-03,
       8.52254312e-03, -1.17401978e-04, -5.07487403e-03, -2.04344429e-02,
       -1.24230864e-03, -1.32862444e-03, -2.07614899e-03, 1.44641772e-02,
       1.20598106e-02, 5.66059072e-03, 1.91229268e-03, -9.24556702e-03,
       -9.08863917e-03, -1.40682026e-03, 4.77332529e-03, 9.19113588e-03,
       -5.86646493e-04, 1.74594624e-03, -5.19403606e-04, 3.18193319e-03,
       -7.84313772e-03, -2.17686817e-02, -4.59991861e-03, 3.97620024e-03,
       -4.32454050e-03, -7.14351656e-04, 5.93917770e-03, -4.15967428e-04,
       -4.82419040e-03, -1.08577469e-02, -1.81161016e-02, 4.65719309e-03,
       2.06292514e-03, -4.76970011e-03, 6.03303546e-03, 5.84473042e-03,
       -9.89060645e-05, -1.10690938e-02, 5.16117271e-03, -9.47210472e-03,
       7.29788048e-03, 4.80729388e-03, 4.58370615e-03, -3.41730512e-04,
       7.19454372e-03, -3.11353453e-03, -4.23924020e-03, -1.01573896e-02,
       -2.22478490e-02, -7.57639762e-03, -4.55360999e-03,
       -8.33860412e-03, 6.27393369e-03, 5.06893964e-04, -1.06390901e-02,
       -8.13979562e-03, 1.54930830e-03, -1.61253498e-03, 6.49495609e-03,
       7.38043431e-03, 7.49297964e-04, -1.45492656e-03, -1.14511966e-03,
       -7.07861735e-03, -8.21048394e-03, -7.09890679e-04,
       -6.87011844e-03, 6.62512658e-03, 7.88025465e-03, 9.22704989e-04,
       -6.67073764e-03, -2.57213204e-03, -9.93946940e-03, 4.61525097e-03,
       1.17365643e-02, -2.16699648e-03, -1.86578324e-03, 7.17824325e-03,
       -2.26769433e-03, 2.96202558e-03, -1.30054867e-03, -1.42512368e-02,
       -4.36221482e-03, 7.17383297e-03, 6.21875795e-03, 1.23875635e-02,
       1.05583509e-02, -3.94188380e-03, 5.57091460e-03, 7.94239901e-03,
       -5.90390852e-03, 1.12547046e-02, 2.09126640e-02, 1.26907183e-02,
       8.18004366e-03, 6.03506051e-04, -5.23636537e-03, -1.01456838e-02,
       4.96512919e-04, -5.70747675e-03, 6.99118525e-03, -4.21106769e-03,
       -1.30333204e-03, -6.66429230e-04, -1.49974236e-04,
       -8.66098050e-03, 2.49317684e-03, 1.24327396e-03, -3.24770599e-03,
       1.61119998e-02, 1.17673837e-02, 9.88686085e-03, 7.91334454e-03,
       1.04427356e-02, 8.47074017e-03, -1.00070989e-04, 6.51456602e-03,
       -4.22493881e-03, 8.86357762e-03, 3.76224425e-03, 6.36447733e-03,
       -2.38949759e-03, -4.91638295e-03, -6.73576817e-03, 4.38873051e-03,
       1.43046060e-03, -2.40016798e-03, 1.82003938e-02, 6.55124243e-03,
       8.52182973e-03, 6.31218497e-03, 8.29650555e-03, 1.56937039e-03,
       5.70202898e-03, 1.14427996e-03, -4.22644801e-03, 1.71625502e-02,
       3.51117435e-03, 1.19520966e-02, 6.65744208e-03, 3.36266332e-03,
       9.11974907e-03, 1.90427096e-03, 4.82743228e-04, -7.22586410e-04,
       8.10319674e-04, 1.39555184e-03, 1.24523276e-02, 4.36876202e-03,
       -3.29550751e-03, 2.36015956e-04, 1.65492960e-03, 1.16350653e-03,
       -3.76389036e-03, 7.21956370e-03, 9.22445324e-04, 2.56350171e-03,
       -3.18745174e-03, 3.91213316e-03, 5.44982729e-03, 4.94627981e-03,
       6.36930810e-03, 8.47948599e-04, 2.78078951e-03, -5.99848665e-03,
       2.22763140e-03, -6.63636718e-04, 4.25565382e-03, 2.10118690e-03,
       6.57149265e-03, 8.00061598e-03, 8.72353744e-03, 3.10588046e-03,
       7.35600106e-03, 2.16734521e-02, 1.21357068e-02, 5.93668036e-03,
       4.54471679e-03, 4.84275399e-03, -3.11865378e-03, -7.01914635e-03,
       -1.45536410e-02, -1.87896064e-03, 1.62917916e-02, 1.75479781e-02,
       1.69708598e-02, 5.51233860e-03, 8.98793631e-04, 4.77135973e-03,
       9.42102692e-04, 8.35981779e-03, 2.15718895e-03, 1.13523435e-02,
       6.15996122e-03, 5.26941335e-03, -7.82851037e-03, 8.43682967e-04,
       -4.13510203e-03, -7.47094490e-03, -1.63568798e-02,
       -3.85350082e-03, 7.81387649e-03, 8.44606757e-03, 6.75355410e-03,
       -2.57876399e-03, -1.74149929e-03, 1.03909487e-03, -6.84304861e-03,
       -2.21515466e-02, -7.12281675e-04, 1.26324566e-02, 1.52185215e-02,
       1.23437047e-02, -7.16797542e-03, 1.08850573e-03, 2.05268804e-03,
       -7.87738711e-03, -1.41072823e-02, -3.34290846e-04, 6.13819482e-03,
       7.16719823e-03, -3.77758895e-03, -8.58063344e-03, 4.20527626e-03,
       -2.61423201e-03, -6.45824894e-03, -1.70308035e-02, 1.11566728e-03,
       1.26676466e-02, 1.26318280e-02, 1.25883184e-02, 3.50861996e-03,
       6.17303792e-03, 1.95766613e-03, -8.97619314e-03, 4.53224033e-03,
       1.13420533e-02, 1.54977627e-02, 2.10502278e-02, 1.03652775e-02,
       -2.83307891e-04, 2.97254743e-03, 9.24494117e-04, -8.78401101e-03,
       -8.95834528e-03, 3.40542616e-03, -3.66235594e-03, -6.35196746e-04,
       -1.14379986e-03, 2.01088213e-03, 5.46237919e-03, 4.25412646e-03,
       -7.58765871e-03, -9.06243734e-03, 7.01059122e-03, 6.44621672e-03,
       5.77876205e-03, 6.88931067e-03, 2.61754449e-03, 4.86032665e-03,
       3.67881410e-04, -1.34243276e-02, -5.86382253e-03, 7.58045353e-03,
       2.20677978e-03, 4.46112268e-03, 4.84466692e-03, -2.39106803e-03,
       2.79033277e-03, 3.91832640e-04, -7.72691937e-03, -1.41309621e-02,
       -4.28458210e-03, 9.66016261e-04, -1.84312114e-04, -1.30770146e-03,
       -1.93124579e-04, 7.94763956e-03, 9.47938301e-03, 3.66681605e-04,
       1.25986687e-03, 3.37877800e-03, 6.48118090e-03, 2.04512244e-03,
       5.68783842e-03, 3.64312413e-03, 8.07709992e-03, 7.58767687e-03,
       2.58557545e-03, -8.87924689e-04, -4.75044642e-03, 2.40490190e-03,
       -8.77188332e-03, 2.35257717e-03, 6.84603443e-03, 3.66645888e-03,
       8.48699361e-03, 4.54360014e-03, 2.82310997e-04, 1.51941704e-03,
       1.54462864e-03, -1.85994909e-03, -7.55416695e-05, -3.62218660e-03,
       1.22537892e-02, 3.47696058e-03, -9.80046927e-04, -3.66093777e-03,
       -8.32266733e-03, 5.31720184e-03, -3.67313810e-03, -3.30539700e-03,
       1.04620410e-02, 3.11868615e-03, 5.80059411e-03, -1.04770891e-03,
       -1.78458937e-03, 8.89315177e-03, -9.81263147e-05, -1.34028401e-02,
       -8.52085371e-03, -1.74639863e-03, 4.78163734e-03, 3.67506477e-03,
       5.51659381e-04, 3.86945857e-03, 8.55696760e-03, 1.32754417e-02,
       -7.69833662e-03, -1.39569193e-02, -1.11057721e-02, 1.25126187e-02,
       8.65693018e-03, 1.76825770e-03, -1.82854838e-03, 7.30636623e-03,
       1.07764816e-02, -5.16194059e-03, -4.85768868e-03, 8.97918083e-03,
       1.36931082e-02, 7.11964117e-03, -1.07470830e-03, 1.10099660e-02,
       2.05380004e-03, 1.52550507e-02, -9.30681638e-03, -7.96113443e-03,
       3.71458847e-03, 1.89981179e-03, -4.21889778e-03, -1.03575445e-03,
       1.32437441e-02, 1.64093394e-02, 1.25937713e-02, -8.99105426e-03,
       -1.27338767e-02, -4.17790189e-03, -6.99708750e-03,
       -1.03007108e-02, -8.92779976e-03, 1.38616073e-03, 8.83263815e-03,
       -8.85100570e-03, -1.31610837e-02, -1.12418300e-02,
       -7.87024852e-03, 1.09304180e-02, 4.00944101e-03, -5.87904546e-03,
       1.78902801e-02, 1.29047949e-02, 2.10912228e-02, -6.32596109e-03,
       -6.37727650e-03, 9.10012703e-03, 1.70964538e-03, -5.33708557e-03,
       -4.70008561e-03, 6.01546187e-03, 9.16747283e-03, 1.35132912e-04,
       -1.34992981e-02, -7.07220379e-03, 1.46563340e-03, -5.14343986e-03,
       -2.40017124e-03, -6.54676463e-03, 3.86352767e-03, 2.81177871e-02,
       7.36735063e-03, -9.17395577e-03, -8.24265089e-03, -1.00117382e-02,
       -1.02806771e-02, -3.66154476e-04, -1.06109418e-02,
       -6.56234333e-03, 1.61542948e-02, 5.14599122e-03, -4.16271528e-03,
       1.86668854e-04, -1.01707187e-02, 8.59545660e-04, -2.76791188e-03,
       -1.17655937e-03, 3.45279602e-03, 2.29780618e-02, 5.33745158e-03,
       -9.07659344e-03, -6.52966974e-03, -2.97093159e-03,
       -3.96069465e-03, 4.73454071e-04, -8.70979577e-03, -3.69921653e-03,
       9.36993863e-03, 1.08210091e-03, -6.84697740e-03, -1.03714699e-02,
       -9.95711330e-03, -1.00010717e-02, -3.34659754e-03,
       -1.22139435e-02, -6.25125505e-03, 2.54206546e-02, 1.35697778e-02,
       -1.85823452e-03, 7.74101645e-04, -1.14254430e-02, -1.72556955e-02,
       -1.65122352e-03, -1.37096746e-02, -9.92469769e-03, 1.37491301e-02,
       1.79039668e-02, 5.57120750e-03, -1.59823510e-04, -1.58647411e-02,
       -4.73559322e-03, -1.57533935e-03, -1.31001845e-02, 1.51671970e-03,
       2.00594887e-02, 6.62274892e-03, -1.19787632e-02, -6.82865875e-03,
       -1.00598102e-02, -8.62373039e-03, -4.69961017e-03,
       -6.84762374e-03, 3.41300061e-03, 1.67858396e-02, 1.75923016e-02,
       -1.31833348e-02, -1.07022244e-02, -1.12676350e-02,
       -7.92061351e-03, -6.35376107e-03, 9.95756499e-03, 9.61295702e-03,
       2.34888345e-02, 2.85733794e-03, -1.41658243e-02, -1.45084113e-02,
       -9.11451876e-03, -6.20282860e-03, -4.27696249e-03, 1.03499871e-02,
       1.23092383e-02, 2.01570988e-02, -9.92665999e-04, -1.86564270e-02,
       -2.01516468e-02, -1.23493429e-02, -1.03676328e-02,
       -8.93067755e-03, 2.29077460e-03, 7.29358103e-03, 2.78591104e-02,
       7.53174117e-03, -1.68485586e-02, -1.70546398e-02, -1.23472800e-02,
       -1.89006086e-02, -1.56783089e-02, 2.47974251e-03, 7.68961618e-04,
       1.50275864e-02, 2.92601692e-03, -2.20166147e-02, -2.38731038e-02,
       -2.43097804e-02, 3.44449678e-03, 3.96918785e-03, 5.90528594e-03,
       1.40582612e-02, 2.19446924e-02, 1.34055642e-03, -1.07815526e-02,
       -3.46284849e-03, 4.10541520e-03, 6.60134945e-03, 1.02891782e-02,
       5.15407324e-03, 5.08688949e-03, 5.28827775e-03, -9.83792730e-03,
       -2.12985114e-03, 6.99725095e-03, 9.71211866e-03, -1.03293583e-02,
       -1.40683120e-02, -5.22312184e-04, 5.74872713e-04, 1.17559563e-02,
       4.94813407e-03, -1.75307207e-02, -1.32524753e-02, -1.32913515e-02,
       -8.51626450e-04, -5.46489609e-03, -4.48901905e-04,
       -4.55227774e-03, -1.37866719e-03, -8.20208807e-03,
       -2.36593070e-03, 1.01301657e-05, 1.67733920e-03, 6.23191893e-03,
       3.53154773e-03, -1.88250199e-03, 1.16504654e-02, 3.30037973e-03,
       -4.59286338e-03, 5.54397062e-04, 3.30085028e-03, 3.80569603e-03,
       -8.16144515e-03, 1.43907801e-03, -4.51481296e-03, 1.06337983e-02,
       -1.94579572e-03, -1.53998211e-02, -8.79458897e-03,
       -3.32204136e-03, -4.67115501e-03, -2.44340207e-03,
       -3.13096214e-03, 4.07017721e-03, 8.26686528e-03, 4.25972044e-03,
       -3.65433306e-03, 3.11378762e-03, 5.25619648e-03, 6.44505816e-03,
       -1.93543790e-03, -2.70583737e-03, -6.57830387e-03, 2.50984076e-03,
       1.14523282e-04, -1.27949091e-02, -6.54321117e-03, -5.04282257e-03,
       -5.17860986e-03, -8.43596063e-04, 1.71326450e-03, -5.31434962e-05,
       7.37690192e-04, -8.12340342e-03, -9.65611544e-03, -2.51265592e-03,
       -4.90539987e-03, -2.52045598e-03, 8.96283193e-04, -3.94498231e-03,
       -4.92713368e-03, -4.09249868e-03, 2.20786221e-03, 9.48751904e-03,
       3.55124194e-03, -1.20164652e-03, -1.00898859e-03, 3.13274493e-03,
       3.63939675e-03, 2.93688849e-03, 4.82759322e-04, 4.53240791e-04,
       -4.48988751e-03, -2.69803777e-03, -4.71802941e-03, 1.19801692e-03,
       -2.19956579e-04, -2.41039693e-03, -8.07582587e-03,
       -6.04362134e-03, 1.29719009e-03, 4.23590699e-03, -1.40643724e-05,
       -8.60569160e-03, 3.57376202e-03, -3.14558949e-03, -5.59664983e-03,
       -1.38403475e-02, -8.44211783e-03, 1.21288653e-02, 6.56425301e-03,
       4.77292296e-03, 5.30404598e-03, -4.41668555e-03, -3.20203183e-03,
       -5.21210131e-05, -8.25605076e-03, 1.85498374e-03, 2.81886421e-02,
       8.57701711e-03, 4.78622410e-03, -3.36299348e-03, -6.42950181e-03,
       -3.39608931e-04, -2.61552143e-03, -1.25523414e-02,
       -5.16764121e-03, 5.28101809e-03, -6.00697123e-04, 1.05596722e-04,
       -1.97861996e-03, 1.91265868e-03, -4.81983460e-03, -8.36734567e-03,
       -1.62081397e-03, 1.02049671e-02, 1.57222115e-02, -5.84139116e-03,
       -5.19510498e-03, -3.95686307e-04, -2.97279400e-03, 2.66496860e-03,
       7.84617756e-03, -1.15766050e-03, 1.92181324e-03, 1.31577821e-02,
       6.34467741e-03, -3.10493982e-03, -8.10522866e-03, -1.97371561e-03,
       7.79908430e-03, 5.82747487e-03, -4.79562674e-04, 1.40522756e-02,
       3.92099004e-03, 5.03426604e-03, 1.15624338e-03, -1.00049563e-03,
       4.03080881e-03, -3.23435495e-04, -3.21808248e-03, -2.14014342e-03,
       -3.93993780e-03, 8.94255470e-03, -6.55915681e-03, -4.63874731e-03,
       -3.21725686e-03, 3.82052152e-03, 5.46813523e-03, 2.14521307e-03,
       -2.62037618e-03, 1.57542294e-03, -3.56167438e-03, 3.87770473e-03,
       -3.18339397e-03, -1.03980955e-03, 9.37500875e-03, -1.25307636e-03,
       8.25731177e-03, -1.73871091e-03, 1.11453105e-02, 8.17184243e-03,
       -6.42461877e-04, -3.25159053e-04, 1.31316844e-03, -1.90851453e-03,
       2.15167808e-03, 1.10892262e-02, 3.81864724e-03, 4.83161490e-03,
       6.23069657e-03, 5.92362555e-03, -6.26432011e-03, 8.12447921e-04,
       -5.64580085e-04, -2.47207843e-03, 4.38679999e-04, 3.03133042e-03,
       9.85797402e-03, 5.81329875e-03, 7.67087156e-04, -7.30122346e-03,
       -2.18846346e-03, -2.57463288e-03, -5.02224406e-03,
       -2.12606322e-03, 1.48090447e-04, 4.50855773e-03, -2.29956093e-03,
       7.77038792e-03, -1.28400913e-02, -7.66107393e-03, -7.64168845e-03,
       7.81408977e-03, 7.92970229e-03, 3.77537240e-03, 1.45947589e-02,
       1.35369739e-02, 1.32989008e-02, 5.12811542e-03, 3.27882031e-03,
       -5.38136298e-03, 2.40787026e-03, 6.45309919e-03, -1.60356751e-03,
       -3.01626814e-03, -2.92720064e-03, 1.10129989e-03, -1.16490654e-03,
       -1.31515053e-03, -2.87421071e-03, 5.81765035e-03, 3.74840922e-03,
       6.17573597e-03, 1.25061627e-02, 9.36043635e-03, 1.57622807e-02,
       -1.14987069e-03, 1.85131619e-03, 4.80882637e-03, -3.93636292e-03,
       1.49080344e-03, 1.61785376e-03, 8.83977860e-03, -5.20811649e-04,
       2.04385561e-03, -4.72718943e-03, -1.94728444e-03, -6.54353714e-03,
       -4.21988545e-03, 4.55641747e-03, -5.07489778e-04, -3.80738941e-03,
       8.35872628e-03, 5.83348982e-03, 1.44131575e-03, -1.57138609e-04,
       -4.98308940e-03, -9.50381532e-03, 8.95252859e-04, -7.31725991e-03,
       9.03205946e-03, 1.54556977e-02, 2.15688050e-02, 1.11398865e-02,
       2.78864568e-03, -1.08378381e-02, -1.46993790e-02, -1.10516034e-03,
       -3.71819851e-03, 2.92514567e-03, 7.14767957e-03, 3.73169314e-03,
       1.75591826e-03, 4.22124867e-04, -1.19964611e-02, -1.76559296e-02,
       -3.54430685e-03, -6.82179909e-03, 3.55180632e-03, 9.51493997e-03,
       1.36305792e-02, 3.57025419e-03, 2.85728998e-03, -1.09784091e-02,
       1.51648617e-03, 8.44778121e-03, -6.87958440e-03, -6.99303299e-03,
       -3.97813768e-04, 4.61153314e-03, 6.85582915e-03, 4.62943176e-03,
       5.60561777e-04, -1.57365971e-03, 3.58159258e-03, -7.03052897e-03,
       -8.93578678e-03, -5.23808040e-03, 9.09112580e-03, -4.79966449e-03,
       -4.20024013e-03, -3.83404578e-04, 2.18225163e-04, 8.05519521e-03,
       1.73797098e-03, -6.58135256e-03, 1.20271652e-04, 6.58880314e-03,
       -2.29619420e-03, -3.80722850e-05, -1.15191971e-03,
       -1.97059708e-03, 3.86092858e-03, -9.98621574e-04, 8.97636346e-04,
       -3.32834641e-03, 8.16126354e-03, -1.98179623e-03, -2.13438249e-03,
       -2.19037314e-03, -2.39843372e-04, 1.21352088e-03, -3.18715512e-03,
       -1.68159558e-03, 1.07864784e-02, 3.18446313e-03, -7.08566373e-03,
       -3.76246125e-03, -6.81546610e-03, 1.29141109e-02, 5.69360377e-03,
       -5.37940022e-03, -1.20342625e-02, 6.54910598e-03, -3.17162456e-04,
       -9.35114920e-03, -9.83861368e-03, 6.62429444e-03, -4.45720833e-03,
       2.51958496e-03, 2.62142322e-03, 3.20454547e-03, 9.32488497e-03,
       6.96160784e-03, -3.30954953e-03, -1.10088447e-04, -4.00442118e-03,
       1.39218932e-02, 9.50871222e-03, -1.21558795e-03, -4.63530142e-03,
       5.70105156e-03, 2.13142019e-03, -5.97825833e-03, -4.61492781e-03,
       7.63088558e-03, 1.31971594e-02, -2.81674347e-05, -5.49722370e-03,
       -8.51112232e-03, 1.07334536e-02, 5.55123435e-03, -6.48384308e-03,
       -7.71507341e-03, 1.13234939e-02, 1.28920414e-02, 3.72524373e-03,
       -4.55498276e-03, 5.40688494e-03, 1.21091434e-03, 9.48675070e-03,
       -1.26658864e-02, -8.80027073e-04, 9.15761199e-03, 7.72952661e-03,
       4.85071260e-03, -6.14364538e-03, -2.39986158e-03, 7.12613901e-03,
       2.61400570e-03, -8.15190747e-03, -5.35006728e-03, 6.53321343e-03,
       1.43487221e-02, 7.53696682e-03, 6.28949143e-03, 7.37703266e-03,
       -3.19210158e-05, 6.11521490e-03, -8.70880485e-03, 6.76696131e-04,
       9.29629896e-03, 8.19166657e-03, 7.34164706e-03, -3.73881357e-03,
       1.63972937e-02, 1.82020031e-02, 8.72184243e-03, -1.02834040e-02,
       -3.18048033e-03, 2.89376662e-03, 3.95533862e-03, -1.91888990e-04,
       -4.63056192e-03, 1.57231651e-03, 5.30992495e-03, -8.14365502e-03,
       -1.54940104e-02, -4.31067636e-03, 1.95368333e-03, 1.15302587e-02,
       1.65542886e-02, 1.19680287e-02, 1.55110834e-02, 1.74231846e-02,
       -3.12140532e-04, -2.03303639e-02, -7.37240724e-03, 9.23514832e-04,
       3.71478731e-03, 8.10575020e-03, -3.89385410e-03, 4.51538159e-04,
       3.80112929e-03, -6.06277073e-03, -1.84730887e-02, -7.69256428e-03,
       -2.00820432e-04, 3.35045997e-03, 3.96072632e-03, 3.99362762e-03,
       -3.76493623e-03, 8.78182054e-03, 6.70726004e-04, -4.16772254e-03,
       -2.85887392e-03, 6.93521230e-03, 3.71381082e-03, 1.02293827e-02,
       1.57657065e-04, -5.21134119e-03, 2.26978026e-03, -2.38692551e-03,
       -7.07540708e-03, -6.94660097e-03, -5.17533440e-03,
       -1.53430772e-03, 9.01018921e-03, 5.99650200e-03, -1.33429514e-03,
       8.63713585e-03, 6.44568633e-03, -2.51524313e-03, 1.98376854e-03,
       3.76790878e-04, 4.00954275e-04, 9.00119450e-03, 4.76320367e-03,
       2.57843058e-03, -4.62820753e-03, -2.18708301e-03, -8.61912128e-03,
       -5.08865062e-03, -6.67618774e-03, 4.95798560e-03, 9.02207941e-03,
       -4.79205605e-03, -2.37616198e-03, 1.88474935e-02, 6.55683689e-03,
       -5.23840124e-03, 2.87680828e-04, -5.51369600e-03, -7.63167394e-03,
       7.92397594e-04, -3.67208081e-03, 3.23205441e-03, 2.04790793e-02,
       8.48675612e-03, -1.17714787e-02, -1.13247046e-02, -1.13426307e-02,
       -4.45994642e-03, 6.98699336e-03, -3.62612982e-03, -3.82156810e-04,
       5.83026744e-03, 5.67740994e-03, -7.89630506e-03, -5.21515030e-03,
       -1.25219552e-02, -1.71110276e-02, -9.60623287e-03,
       -1.35403499e-02, -1.30087100e-02, 1.57790687e-02, 5.27964300e-03,
       -8.18693358e-03, -8.55154730e-03, -2.08093766e-02,
       -1.31919980e-02, -9.60097276e-03, -6.29572943e-03, 4.21859417e-03,
       3.11317481e-02, 1.05561595e-02, -1.00455591e-02, -5.48828673e-03,
       -1.36108650e-02, -1.42524280e-02, -1.53434798e-02,
       -8.32653698e-03, -1.56430956e-02, 7.10146641e-03, 2.97923782e-03,
       -1.81893110e-02, -1.18435929e-02, -1.75428782e-02,
       -1.46223707e-02, -1.56509094e-02, -6.97435997e-03, 6.09282963e-03,
       4.00684774e-02, 1.51199894e-02, -4.32485389e-03, -5.49733313e-03,
       -1.39269661e-02, -9.33073647e-03, -1.60491932e-02,
       -1.12301959e-02, -6.74383296e-03, 1.13532478e-02, 9.35731176e-03,
       -1.15761543e-02, -2.51325197e-03, -5.18952217e-03,
       -7.93744903e-03, -1.12144528e-02, -6.93317456e-03,
       -7.74822151e-03, 1.60255879e-02, 7.37710623e-03, -1.11360010e-02,
       -3.99314426e-03, -8.52294452e-03, -7.68355979e-03,
       -4.00113594e-03, -7.97760114e-03, -3.99060082e-03, 9.66207404e-03,
       -5.33789303e-03, -5.15215157e-04, 3.42799503e-05, -9.99080250e-04,
       -1.17825689e-02, -1.09091057e-02, -1.10757593e-02,
       -2.04696157e-03, 2.33272240e-02, 1.40826628e-02, -5.83601370e-03,
       5.23133157e-03, -2.65751453e-03, -1.32683786e-02, -3.05904285e-03,
       -5.02385374e-04, 3.72647308e-03, 9.41730011e-03, -1.73016649e-03,
       -3.07224877e-03, -4.21416759e-03, -8.12233426e-04,
       -1.76276173e-03, -3.05772712e-03, -3.37173534e-03,
       -1.17360440e-04, 7.68069644e-03, -2.03613495e-03, 5.16535155e-03,
       2.98649492e-03, -1.37192241e-04, -5.50131639e-03, -7.07920734e-03,
       -1.04122004e-02, 7.35396286e-04, 6.68508187e-03, -9.96152591e-03,
       -7.63663324e-03, -9.58666299e-03, -9.48480424e-03,
       -8.76645744e-03, -7.32222246e-03, -1.52367563e-03, 9.77731962e-03,
       1.43324323e-02, 6.18903618e-03, 3.56288510e-03, -2.14622286e-03,
       -7.64379324e-03, -5.34624001e-03, -1.55187352e-02,
       -6.28767395e-03, 1.41930142e-02, 1.30681004e-02, -1.77242246e-03,
       -1.10152578e-02, -9.96765681e-03, -9.21794027e-03,
       -7.14909547e-05, 5.75380400e-04, -2.33304687e-03, 4.24479693e-03,
       1.31342374e-02, -3.75215127e-03, -9.77327023e-03, -5.29333064e-03,
       -7.73017236e-04, 2.97163171e-03, 3.40537215e-03, -1.11089526e-02,
       -1.06068719e-02, 1.26932543e-02, 2.05251994e-03, -6.00747904e-03,
       -4.04257001e-03, 9.40570608e-04, -1.82939798e-03, -2.85257422e-03,
       -3.85467941e-03, 6.65067462e-03, 1.17359608e-02, 5.86784957e-03,
       -8.72358773e-03, -6.84443582e-03, -4.38449299e-03, 1.93523802e-03,
       9.84641723e-03, -7.09312595e-03, -1.00553874e-02, 3.10311886e-03,
       8.86053592e-03, 4.39684652e-03, 3.36836150e-04, -2.58262153e-03,
       1.69914356e-03, 1.96167850e-03, -1.12864263e-02, -5.85871330e-03,
       1.02002285e-02, -1.30724011e-03, 6.49000503e-05, 7.67261372e-04,
       -3.11994052e-04, 2.29462935e-03, -4.05840343e-03, 2.03845557e-03,
       5.76117681e-03, 9.52095725e-03, -6.88120583e-03, -5.34952385e-03,
       2.60182424e-03, 4.36574640e-03, -6.84876787e-03, -1.66351313e-03,
       -1.43473931e-02, -1.11696813e-02, -3.50102433e-03, 1.54399837e-03,
       7.22497876e-04, 9.01088212e-03, -4.27332474e-03, 2.09700665e-03,
       -9.81156365e-04, -1.52691558e-03, 8.05881154e-03, 8.45347811e-03,
       6.76430354e-05, -1.17956037e-02, 3.70965851e-03, 4.40807035e-03,
       3.60215758e-03, -4.28137369e-03, -1.07594673e-03, -1.79300478e-04,
       6.67863712e-03, -2.53126607e-03, -7.56619591e-03, 3.92119837e-05,
       6.44904561e-03, 4.08143271e-03, 1.37819222e-03, -1.38566527e-03,
       1.01979298e-03, 6.89183176e-03, 3.06169037e-03, -2.16790359e-03,
       2.01343209e-03, 4.82238596e-03, 3.10082780e-03, 2.42168526e-03,
       -8.61786027e-03, 1.21263806e-02, 2.02017603e-03, 7.53706845e-04,
       -1.04787182e-02, -5.29188057e-03, 1.04185112e-03, 1.35936396e-04,
       5.76929748e-03, -6.19147997e-03, 1.04652848e-02, 2.57555651e-03,
       1.14383770e-03, -5.17462008e-03, -5.49066765e-03, -6.53981371e-03,
       -8.61387001e-04, 3.51254508e-04, 3.45007982e-03, 9.61978547e-03,
       8.10270477e-03, 1.97273679e-03, 8.48100637e-04, 2.15318659e-03,
       7.81275216e-04, -6.23873388e-03, -1.17195910e-03, 1.71489432e-03,
       4.09132103e-03, 3.81341291e-04, 1.22902589e-02, 1.30491739e-03,
       -5.38462820e-03, 8.74360907e-04, -7.87353422e-03, 2.86041759e-03,
       -3.52926226e-03, 9.30112414e-03, 1.96775398e-03, 2.72342819e-03,
       -1.37694855e-03, -1.23714739e-02, -7.32249022e-03,
       -6.31006435e-03, -6.04769401e-03, -1.41004391e-03, 1.63733331e-03,
       -2.33706360e-05, 9.71226767e-03, 7.52104679e-04, -9.46404971e-03,
       -3.59735684e-03, 5.23216149e-04, -3.09279934e-03, -8.65188614e-03,
       -3.74060124e-03, 4.09980072e-03, 9.15440079e-03, -1.04465079e-03,
       -5.16413944e-03, 5.35375020e-03, -7.46469246e-03, -6.77631982e-03,
       -1.16857840e-02, 2.09940760e-03, -1.21604674e-03, -8.77093640e-04,
       -8.23483150e-03, -2.65643978e-03, -7.22113950e-03, 2.32101581e-03,
       -7.14750774e-03, -3.18027195e-03, -2.41355528e-03, 9.04442184e-03,
       9.56065394e-03, -3.30592925e-03, 2.14063749e-03, 5.00106765e-03,
       -4.50272724e-04, -8.14419053e-03, -6.61265245e-03, 2.18711817e-03,
       -2.68827658e-03, 4.77868645e-03, 5.01124130e-04, 5.37586771e-03,
       -1.96221098e-03, -1.42315309e-02, -1.51284388e-03,
       -1.27616078e-02, -4.69785510e-03, 5.87427290e-03, -1.63429871e-03,
       -4.33764886e-03, -6.03495538e-03, -1.20635629e-02,
       -1.07986750e-02, 1.26623909e-03, -8.96054134e-03, -4.99446178e-03,
       8.76120478e-03, 1.00205289e-02, -1.92117156e-03, -4.30323416e-03,
       -3.29069607e-03, -3.94757790e-03, 2.26053689e-03, -7.42316525e-03,
       2.91350763e-03, 3.48357786e-03, 6.81433873e-03, -2.32964242e-03,
       1.58003255e-04, -6.02603424e-03, 5.64791262e-03, 7.67785637e-03,
       -5.34047326e-03, 6.85340632e-03, 1.91765074e-02, 1.49771236e-02,
       -8.50277545e-04, -1.13096240e-03, -6.51960727e-04, 4.94476466e-04,
       6.43670501e-04, -2.50786170e-03, -4.27722652e-03, 9.65006277e-03,
       1.07117482e-02, -6.37075678e-03, -9.30575840e-03, -6.03818335e-04,
       2.73343804e-03, -2.01848801e-03, -4.30864329e-03, 6.39659166e-03,
       -2.34335530e-04, 2.99023208e-03, -5.44474320e-03, -6.59733918e-03,
       -4.97904234e-03, 5.87999681e-03, 1.66269753e-03, -5.80725120e-03,
       1.24541053e-04, 1.28012858e-02, 1.45000694e-02, -2.93753669e-03,
       -1.63356331e-03, -7.04174337e-04, -1.54915533e-03,
       -8.79382063e-03, -8.49501975e-03, 3.50354635e-03, 7.23017193e-03,
       1.71962157e-02, -6.89302385e-03, -4.91583720e-04, -3.65157006e-03,
       -5.84696606e-03, -3.47804860e-03, 2.61395751e-03, 5.69241820e-03,
       1.10689681e-02, -2.12406833e-03, -8.06291529e-04, -8.98496888e-04,
       -5.08016720e-03, 2.21580980e-04, -2.32408452e-03, -3.71661480e-03,
       -4.25625546e-03, 1.12228785e-02, -7.61232921e-04, -4.08692937e-03,
       -2.09781015e-03, 2.22540577e-03, -3.33526143e-04, -1.87733327e-03,
       -7.78581540e-04, 3.27474118e-04, 1.10797556e-02, 2.69686035e-03,
       -3.60836205e-03, -1.17009354e-03, -3.69904470e-03, 8.60954542e-03,
       4.11643973e-03, -4.76712966e-03, 1.08368578e-03, 1.43977636e-02,
       2.08163212e-04, -8.00458540e-04, 6.69028610e-04, 4.12403932e-03,
       2.62799999e-03, 4.61463956e-03, -2.76912376e-03, 7.22928904e-04,
       1.46828694e-02, 7.06910575e-03, -5.73900668e-03, -4.86398721e-03,
       1.09801313e-03, -3.46438668e-04, 4.14131861e-03, 7.39048119e-04,
       -3.93780327e-04, 1.13527095e-02, 9.35948081e-03, -9.58335761e-04,
       -5.37834503e-03, -1.44913536e-03, 4.29527368e-03, 6.65193796e-03,
       -4.76550357e-03, -1.53401389e-03, 9.75073595e-03, 5.45292860e-03,
       -3.68942739e-03, 2.10400583e-04, 1.55358168e-03, -6.39622053e-03,
       4.41361032e-03, -5.84277324e-03, -9.18618776e-03, 1.20768705e-02,
       1.57789756e-02, 2.17805011e-03, 4.65857476e-04, -5.01793716e-03,
       3.49293603e-03, 1.11608682e-02, 9.54029337e-03, 1.32152196e-02,
       2.33671032e-02, 4.09050612e-03, -6.56162528e-03, -6.35777367e-03,
       -6.55663339e-03, -6.34321058e-03, 4.38821921e-03, -7.08737550e-03,
       1.30653800e-03, 5.88326203e-03, -1.64269563e-03, -1.09980879e-02,
       1.13777595e-03, -1.10578965e-02, -1.90091901e-03, 1.07513936e-02,
       -1.15486747e-03, 6.87865447e-03, 1.92306731e-02, 1.76164918e-02,
       5.08421613e-03, -5.41223539e-03, -2.26325216e-03, -8.45153630e-03,
       1.08261425e-02, -3.89863341e-03, 1.06246406e-02, 8.50173272e-03,
       6.00829627e-03, -2.79891025e-03, -3.87885701e-03, -1.49459783e-02,
       -8.05816893e-03, 7.15464726e-03, 2.54378095e-03, -6.86643354e-04,
       1.38134314e-02, 2.52792030e-03, -1.01578543e-02, 1.71952846e-03,
       -8.19827430e-03, -5.90067590e-03, 7.20553007e-03, 4.87668067e-03,
       -1.21718607e-04, 1.53694942e-03, -1.28653543e-02, -1.10123400e-02,
       -1.55060668e-03, -1.44325169e-02, -4.07341577e-04, 1.41243469e-02,
       6.79802906e-04, 1.27255237e-02, 1.98121704e-02, 7.50942109e-03,
       -2.03796942e-03, 1.81432336e-03, -6.67946460e-03, -1.44752779e-03,
       7.33758043e-03, -2.03736010e-04, -3.60267446e-03, 3.92292580e-03,
       -9.43474006e-03, -1.31056178e-02, -4.61361604e-03,
       -7.11854873e-03, -7.48553826e-03, 6.75148610e-03, -2.45019980e-03,
       -1.79223681e-03, 7.89977517e-03, -1.67453079e-03, -2.17704591e-03,
       1.97107159e-03, -1.42709026e-02, -1.58624593e-02, -7.03502866e-03,
       -1.01961102e-02, -6.62657339e-03, 1.68784503e-02, 6.59198081e-03,
       -6.46389555e-03, -2.97894934e-03, -1.69416890e-02,
       -9.74022597e-03, 3.81059363e-03, -2.63016089e-03, -2.93914275e-03,
       8.60135164e-03, 4.20052605e-03, -4.80097532e-03, -9.90869943e-04,
       -1.04834791e-02, -1.87394302e-02, -6.64699310e-03,
       -1.23390388e-02, -5.26328711e-03, 1.50154000e-02, 7.38983555e-03,
       -2.94648996e-03, -7.98323471e-03, -1.28051918e-02,
       -1.76516473e-02, -1.47050275e-02, -5.74063370e-03, 3.73615464e-03,
       4.07012887e-02, 9.07669496e-03, -6.29261602e-03, -1.29890824e-02,
       -1.56187508e-02, -8.61774478e-03, -1.28434859e-02,
       -6.75443327e-03, -8.09700228e-03, 1.36432340e-02, 1.36976468e-03,
       -1.53075792e-02, -9.57378186e-03, -1.07495934e-02,
       -1.55191543e-02, -4.05984093e-03, 2.58271320e-04, 1.48330594e-03,
       2.93447264e-02, -5.40937355e-04, -3.49720079e-03, -9.11618397e-03,
       -1.15772262e-02, -3.54055665e-03, -5.29592019e-03,
       -4.79758345e-03, -4.80855582e-03, 8.38746969e-03, 5.40740555e-03,
       -1.70277786e-02, -1.32802883e-02, -1.26519231e-02,
       -2.57804897e-03, -6.99813524e-03, -5.46003785e-03,
       -9.64515097e-03, 2.24386640e-02, -1.69447903e-03, -1.41065009e-02,
       -3.59080289e-03, -2.31615757e-03, -9.21012647e-03,
       -9.61083267e-03, -2.43213447e-03, -4.46467707e-03, 5.35190385e-03,
       -1.79799981e-02, -1.48896538e-02, -1.42332632e-02,
       -7.40949297e-03, 6.19570725e-03, 2.86469818e-03, 4.50070994e-03,
       -8.86822771e-03, 2.03264616e-02, 2.82717496e-03, -2.39474718e-02,
       -1.17627122e-02, -2.05662148e-03, -2.87502911e-03,
       -2.78613355e-04, 4.99974051e-03, -4.81406646e-03, 9.46358219e-03,
       -7.42105721e-03, -2.12686639e-02, -1.60103608e-02,
       -6.28314633e-03, -1.48293832e-02, -1.27444575e-02,
       -1.94381876e-03, 5.24033094e-03, 1.42314630e-02, -5.87566104e-03,
       1.62525533e-03, -2.84301280e-03, -1.07241012e-02, -1.24893887e-02,
       -1.78679079e-02, -1.00072976e-02, 7.64712412e-03, 1.07593089e-02,
       -3.47782788e-03, -4.15943423e-03, -5.04670478e-03,
       -5.98323392e-03, -6.89705368e-03, -4.26419452e-03, 9.00259358e-04,
       7.35839736e-03, 1.50474403e-02, 8.42192024e-03, -5.78443753e-03,
       -9.06462222e-03, -7.14749331e-03, -8.58589914e-03,
       -5.95186930e-03, -8.36608093e-03, 5.41642262e-03, 1.32069560e-02,
       -1.60206191e-03, -5.88009832e-03, -3.73346894e-03,
       -4.79321089e-03, -3.51500232e-04, -4.96537797e-03,
       -9.58119612e-03, -5.60751127e-04, 4.53520520e-03, 2.38929089e-04,
       -6.97641866e-03, -8.30078404e-03, -7.45339610e-04,
       -2.87989900e-03, 2.11142702e-03, -7.59213325e-03, -1.38095552e-02,
       -8.43869243e-03, 7.17378280e-04, 4.89254016e-04, -2.28003156e-03,
       1.40001276e-03, 5.76737616e-03, 1.84424943e-03, -2.62515037e-03,
       1.38523625e-04, 6.45699305e-03, -3.09664337e-03, -7.05511216e-03,
       -5.10112150e-04, 6.40735263e-03, 5.28501021e-03, 5.91575960e-03,
       1.46023300e-03, -7.65617145e-03, 2.45472253e-03, -6.47825561e-03,
       -3.28760850e-03, 7.81132374e-03, 1.25967059e-02, -7.14441529e-03,
       1.05583975e-04, -8.67242645e-03, -1.01365903e-02, -1.05206799e-02,
       -8.03709589e-03, -1.26155175e-03, 6.66642701e-03, -1.85674767e-03,
       -1.69880595e-03, 5.70378965e-03, -6.12162566e-03, 7.64718466e-03,
       8.86515900e-03, -4.08899179e-03, -1.00916876e-02, 4.40928433e-03,
       2.40547489e-03, 7.79237552e-03, 7.45610043e-04, -2.05231761e-03,
       -4.59952839e-03, -3.64806340e-03, -7.35184597e-03,
       -3.06027569e-03, 9.31079127e-03, 9.25976038e-03, 8.65023863e-03,
       6.23923354e-03, -1.80336856e-03, 1.27984527e-02, 4.45256801e-03,
       6.56740522e-05, -1.53090246e-03, -1.00994646e-03, 8.26676842e-03,
       9.67308122e-04, -1.04189129e-03, -1.15272077e-02, 1.16780624e-02,
       3.44727095e-03, 7.31918437e-04, -8.45232420e-03, -3.98205733e-03,
       2.37607062e-04, -3.62796825e-03, 1.99179701e-03, -1.13145886e-02,
       3.12199863e-03, 4.09287680e-03, 1.05666416e-03, -5.08035300e-03,
       -4.09302022e-03, -5.69286058e-03, 7.48629030e-03, 7.05809239e-03,
       -5.96729247e-03, 8.62415787e-03, 3.41872149e-03, 6.74089976e-03,
       -3.67032620e-03, -7.33549532e-04, 5.51775843e-03, 4.42078337e-03,
       8.95762723e-03, -9.31186602e-03, 8.62379500e-04, 7.66691100e-03,
       3.76461283e-03, -9.68912558e-04, 2.16383766e-03, 9.88570414e-03,
       2.57879583e-04, 6.76388713e-03, -6.93765795e-03, 2.87516438e-03,
       7.48866610e-03, 4.86986106e-03, -5.17778425e-03, -9.04181693e-03,
       -1.94006797e-03, -3.03338515e-03, -4.84346040e-03,
       -5.81635488e-03, -4.83009312e-03, 4.78801696e-04, 1.43777495e-02,
       -2.57927366e-03, -6.22171676e-03, -5.21461247e-03,
       -1.49817835e-03, 4.42475686e-03, -6.05185702e-03, 3.79759423e-03,
       1.50250085e-02, 6.36803685e-03, -2.56497622e-03, -9.24288202e-03,
       -5.88359952e-04, -3.34307225e-03, -4.79189213e-03,
       -2.28154263e-03, -1.64942746e-03, 5.35985827e-03, 1.61177758e-02,
       -3.50956980e-04, -1.02562979e-02, -3.97120463e-03,
       -4.88246884e-03, -1.64986104e-02, -8.96051805e-03,
       -1.19976066e-02, 6.04670914e-03, 7.78756710e-03, -3.31366458e-03,
       2.24873563e-03, -3.51014896e-03, -4.54637874e-03, -1.46354605e-02,
       -1.26208765e-02, 3.24813736e-04, -2.42371880e-03, 2.87105981e-03,
       1.50651939e-03, 3.82985570e-03, 2.07454455e-03, -6.78427890e-03,
       -1.23853208e-02, -8.25724378e-03, -6.77746534e-03, 1.32594109e-02,
       9.63833928e-03, -6.28557522e-04, -2.22426187e-03, -4.09511151e-03,
       -8.07148684e-03, -6.08560629e-03, -8.00587703e-04, 2.94853630e-03,
       -1.05306436e-03, 1.46508985e-03, 4.74937493e-03, -3.07491049e-03,
       -1.27899705e-03, -1.92958454e-03, -7.39069236e-03,
       -1.07207308e-02, 1.33326359e-03, -1.48446485e-03, 5.53724123e-03,
       -4.11368161e-03, -6.99551683e-03, 5.80742897e-04, 3.90377594e-03,
       -1.98272895e-03, -1.04545034e-03, 8.55874922e-03, 1.23330681e-02,
       5.25290333e-03, -7.89027009e-03, -2.99743051e-03, 2.16874783e-03,
       -3.20366421e-03, -7.20290514e-03, -8.93970393e-03, 5.55630715e-04,
       -5.72119653e-03, -4.28163540e-03, -8.58335476e-03,
       -6.50427956e-03, -7.60852534e-04, -2.77863909e-03,
       -5.16273314e-03, -6.28245156e-03, -2.09514503e-04, 5.75572997e-03,
       -2.30962667e-03, -6.87087607e-03, -2.77995900e-03,
       -2.66249990e-03, 8.69979151e-03, 3.53867398e-03, 5.15374728e-03,
       1.42820934e-02, 2.08111741e-02, 6.32524118e-03, -9.83922463e-03,
       -5.22044487e-03, -1.94215958e-04, -4.75508347e-03,
       -1.14294114e-02, -1.08730458e-02, 5.42014930e-03, 9.19538178e-03,
       1.65015366e-02, -9.02945921e-03, -9.19469353e-03, -8.99381936e-03,
       3.21558437e-05, -1.60382444e-03, -3.19649349e-03, -4.82138759e-03,
       1.20749380e-02, -1.83097355e-03, -8.64229631e-03, -5.54918265e-03,
       -3.35438713e-03, -4.08183783e-03, -8.97751749e-03,
       -5.97478496e-03, 1.12814521e-02, 6.52575074e-03, 1.51792150e-02,
       -4.02005808e-03, -9.68307909e-03, -9.40842647e-03,
       -3.63561348e-03, -5.55531448e-03, -4.34980914e-03,
       -2.35991483e-03, 5.81805082e-03, 5.14932442e-03, -2.26627244e-03,
       -7.10735517e-03, -5.65910619e-03, 6.35073567e-03, -3.91175225e-03,
       -1.23174861e-02, 1.52327470e-03, 1.34620061e-02, 3.88702750e-03,
       -2.10402673e-03, 1.56254729e-03, 3.52380215e-03, -7.76004186e-03,
       -3.49918520e-03, -6.34486647e-03, 7.43259862e-03, 6.80923043e-03,
       6.46316400e-03, -3.66107957e-03, -1.26502579e-02, -8.97546764e-03,
       -2.10891827e-03, -7.99659826e-03, -1.74009409e-02, 2.29672575e-03,
       9.57561750e-03, 4.30624560e-03, -2.09819945e-03, 3.32195056e-03,
       5.96774556e-03, 1.05281163e-03, -1.93298189e-03, -1.12670064e-02,
       4.83864918e-03, 1.87134882e-03, 5.93038555e-03, -5.09681879e-03,
       3.58394720e-03, 3.80334095e-03, 9.06173838e-04, 3.86616564e-03,
       -4.62978240e-03, -6.50296127e-03, 8.45627021e-03, 1.72492415e-02,
       -3.62086605e-04, 6.82122493e-03, 3.19874496e-03, 3.96692805e-04,
       3.03558586e-03, -6.73841778e-03, 7.90158845e-03, 5.63140167e-03,
       4.06688312e-03, -8.24837759e-03, -1.53311936e-03, 6.74196705e-03,
       6.45723427e-03, 1.57417767e-02, 5.29671274e-03, 5.26535418e-03,
       -7.11030152e-04, 1.68285985e-02, -6.44509075e-03, 4.21567401e-03,
       3.72831430e-03, 2.45474256e-03, 8.83344002e-03, -1.93179736e-03,
       -7.00915334e-05, 1.44936759e-02, 1.38831427e-02, 1.83342129e-03,
       -3.05596553e-03, 3.50809866e-03, -5.03534032e-03, 1.12439245e-02,
       4.01590893e-04, -4.27075149e-03, 6.14266051e-03, 3.83523852e-03,
       1.02030800e-03, -1.01127150e-02, -8.04232527e-03, 1.07800812e-02,
       1.11193648e-02, 1.21464962e-02, 7.55760260e-03, 5.47762075e-03,
       1.01203499e-02, -2.01706029e-03, 1.41234673e-03, 1.01341885e-02,
       8.01070500e-03, 2.99251429e-03, -7.44763354e-04, -2.17503612e-03,
       -5.47466474e-03, -3.03102308e-03, -9.87963844e-03,
       -7.68490834e-03, 2.25195894e-03, -2.69048382e-03, 9.52174701e-03,
       -2.17802357e-03, 3.37474840e-03, 1.62089616e-02, 4.00942657e-03,
       -2.81373272e-04, -9.26728593e-04, -5.33872377e-03,
       -1.05135539e-03, 2.66051316e-03, -8.14630650e-03, -8.46754573e-03,
       3.86565621e-03, -1.60968546e-02, -1.80097334e-02, -5.91731211e-03,
       -7.89146777e-03, 1.21307233e-02, 4.41267667e-03, -4.09364840e-03,
       -5.45590930e-03, 1.26349013e-02, 9.58536635e-04, -7.72743253e-03,
       8.94568115e-03, 1.23190666e-02, 3.38441203e-03, -2.89517199e-03,
       -1.10466499e-02, -2.68918425e-02, 2.54596584e-03, -1.11570004e-02,
       -8.79517943e-03, 8.94928162e-05, 2.03149888e-04, -7.28268037e-03,
       -6.61925832e-03, -6.28773589e-03, -8.47432297e-03, 1.98924597e-02,
       -6.42218103e-04, -1.52046401e-02, -7.46558793e-03,
       -9.74123273e-03, -2.11608205e-02, -1.10110808e-02,
       -8.47435836e-03, -1.67505105e-03, 2.57701930e-02, 7.27922330e-03,
       -6.62755826e-03, -1.23146512e-02, -7.22311158e-03,
       -8.66678730e-03, -1.02668302e-02, -8.95334966e-03,
       -8.33179429e-03, 1.99942142e-02, 8.87683965e-03, -1.26469266e-02,
       -8.12927354e-03, -1.32772177e-02, -1.70383435e-02,
       -1.14732180e-02, -6.02538325e-03, 1.28182452e-02, 2.85653677e-02,
       1.20139671e-02, -1.46342143e-02, -1.88511256e-02, -1.52492383e-02,
       -1.06811374e-02, -2.08533485e-03, 1.55665632e-03, -6.71629154e-04,
       2.42307186e-02, 4.45628958e-03, 3.25937144e-04, -6.22353237e-03,
       -1.53034208e-02, -5.78521518e-03, -3.45836976e-03,
       -6.55248435e-03, -1.43812522e-02, 4.51682881e-03, 2.22463557e-03,
       -9.82957613e-03, -1.11634666e-02, -9.41273477e-03,
       -9.61443968e-03, 3.28320637e-03, 6.11644378e-03, -1.69532374e-03,
       2.03106310e-02, 1.65144894e-02, -2.97455536e-03, -8.46545491e-03,
       -1.13993203e-02, -4.52096155e-03, -2.64909002e-03,
       -5.87299885e-03, -2.17380561e-02, 1.91304396e-04, -1.54269184e-03,
       -6.74597453e-03, -5.13610709e-03, -3.91200976e-03, 5.91015164e-03,
       4.58526518e-03, 3.58738913e-03, -4.69810003e-03, 1.02326749e-02,
       2.34778924e-03, -1.20854657e-02, -9.25959274e-03, -1.30876061e-03,
       5.50331781e-04, 4.24317503e-03, 4.68436675e-03, -6.87872712e-03,
       2.41261162e-03, -3.49316723e-03, -1.03929965e-02, -7.01791747e-03,
       -1.40646088e-03, -3.57666751e-03, 1.81975716e-03, -1.64085388e-04,
       -1.34392641e-02, 5.17020142e-03, 3.40735447e-03, -7.00700795e-03,
       -3.42738535e-03, -4.84490488e-03, 6.89423250e-05, 1.34140282e-04,
       -4.11047367e-03, -8.72365292e-03, -3.97224771e-03,
       -1.99168688e-03, -8.96672625e-03, -3.38921044e-03, 4.62369248e-03,
       3.69294896e-03, 1.18222507e-03, 3.03651359e-06, 4.19882918e-03,
       1.04065062e-02, -4.12858819e-04, -9.89316683e-03, -3.44210886e-03,
       -2.69298558e-03, 1.44152762e-03, -2.64422805e-03, -8.73769633e-03,
       -2.37876992e-03, 7.27466773e-03, -4.53107199e-03, -1.39353592e-02,
       -4.79307259e-03, -7.52658350e-03, 7.12992391e-03, 4.55410453e-03,
       2.29733254e-04, 1.49561611e-05, 7.66202854e-03, -5.77020040e-03,
       -7.75035378e-03, 1.30598783e-04, 1.13574881e-02, -2.13500974e-03,
       -2.18841038e-03, -1.01735992e-02, -7.94890523e-03, 5.40894177e-03,
       -3.12442263e-03, -5.53061394e-03, -8.19826790e-04,
       -1.53855630e-03, 5.87828411e-03, 5.42469136e-03, -3.05298390e-03,
       -2.31697923e-03, 6.58849534e-03, -1.87734538e-03, -6.28846977e-03,
       -1.16191083e-03, 2.08036555e-03, 7.59435073e-03, 2.76111555e-03,
       2.65496387e-03, -8.19979794e-03, 1.25362305e-03, -4.07832116e-03,
       -1.43356516e-03, 7.34803267e-03, 1.56638660e-02, -7.42968218e-03,
       -1.17208390e-03, -9.93527845e-03, -1.00309486e-02, 6.51537906e-03,
       1.32134394e-03, -1.43675809e-03, 1.59151573e-03, -1.08150393e-03,
       -9.42050386e-03, -1.00408448e-02, -4.17264691e-03,
       -6.71720831e-03, 4.92156344e-03, 4.94715851e-03, -2.90935906e-03,
       -6.30124880e-04, -1.23666006e-03, 6.13363646e-03, 2.46829330e-03,
       3.68052861e-03, -2.71136337e-03, 9.90285422e-04, -1.25447265e-03,
       -4.26254747e-03, 4.77753393e-03, 8.85402411e-03, 5.75636094e-03,
       1.00199261e-03, 4.86471085e-03, 8.75512231e-03, 5.29672904e-03,
       3.51698045e-03, -1.10338966e-03, -6.85300864e-03, -2.19481345e-03,
       -1.12102162e-02, -3.59109440e-03, 3.09132249e-03, -1.16890366e-03,
       9.83855780e-03, 1.37592005e-02, 2.66330712e-03, 2.55960831e-03,
       -4.74764360e-03, -1.67715121e-02, -5.68370987e-03,
       -6.38646865e-03, -1.11699826e-03, 1.36345141e-02, 1.48232644e-02,
       7.60667725e-03, 2.13012961e-03, -1.24529237e-02, 6.49923971e-03,
       7.83585850e-03, -3.36464203e-04, 5.79422526e-03, 1.05075631e-02,
       7.30593363e-03, -4.88307793e-04, -3.46609321e-03, 5.06196124e-03,
       1.32680102e-03, 6.09759195e-03, -3.75992432e-03, 3.13516846e-03,
       5.68031240e-03, 6.99187489e-03, 1.08023826e-03, -3.78983887e-03,
       4.42217104e-03, -1.08070755e-02, -4.61716857e-03, -8.19682237e-03,
       5.15406067e-03, 1.18646827e-02, 1.38607435e-02, 6.53300493e-04,
       -2.13219854e-03, -6.26121834e-03, -1.05365207e-02,
       -9.08363983e-03, 3.04709282e-03, 9.37743764e-03, -9.28181980e-04,
       6.75844960e-03, -3.08624096e-03, -1.13315014e-02, -1.36651667e-02,
       -1.38568680e-03, 1.73633453e-03, -5.90138510e-03, 5.03895339e-03,
       1.07318852e-02, 9.70211346e-03, 1.22545159e-03, -5.10110473e-03,
       1.16032280e-03, -1.07953631e-04, -4.18768264e-03, -6.07141200e-03,
       2.83491239e-03, 1.33887436e-02, 1.74057204e-02, 2.73856660e-03,
       -9.11982544e-03, -6.84341299e-04, -4.00598906e-03,
       -3.46481684e-03, -4.71155765e-03, 1.11045940e-02, 2.52683507e-03,
       1.11490758e-02, 8.63843365e-04, 1.37622468e-04, -4.72657755e-03,
       -3.66166839e-03, -9.81703121e-03, -8.76471959e-03, 3.57236317e-03,
       -6.22270629e-03, 1.30588347e-02, 1.64383510e-03, -6.49527274e-03,
       -5.98247536e-03, -7.88930897e-03, -4.01498098e-03,
       -3.05263721e-03, -3.14973714e-03, 1.97164491e-02, 6.53345557e-03,
       2.87188287e-03, -5.27384831e-03, -2.86900648e-03, -4.30759043e-03,
       2.07473361e-03, 8.75620637e-03, 5.34474477e-03, 7.41987163e-03,
       -4.27070400e-03, 3.46957427e-03, 3.29419691e-03, -1.21646102e-04,
       -1.22239180e-02, -8.23155977e-03, -1.43737660e-03,
       -5.69388503e-04, 1.30001428e-02, 3.68081848e-03, -2.34132446e-03,
       -1.04766423e-02, -1.11610778e-02, -9.62486956e-03,
       -3.80624551e-04, -5.72728924e-03, -3.57451732e-03, 1.40527263e-02,
       5.72731905e-03, -3.29272822e-03, -8.13176483e-03, -1.30851688e-02,
       -2.84726894e-03, 2.55664112e-03, 6.99040771e-04, 1.00685256e-02,
       9.53065418e-03, -4.88200272e-03, -5.48647856e-03, 4.21611080e-03,
       -3.37741245e-03, 4.35056072e-03, -7.29863357e-04, -6.39799191e-03,
       2.01911037e-03, 8.01420119e-03, -4.80502890e-03, -2.38446426e-03,
       5.37454907e-04, 2.88467039e-03, -6.35825517e-03, 2.90915929e-03,
       -7.03298673e-03, 4.28823289e-03, 9.88537073e-03, -3.68795008e-04,
       -8.71967245e-03, -6.50305953e-03, -1.33294314e-02,
       -6.23776438e-03, -1.21637527e-02, -1.32096298e-02, 3.79876373e-03,
       2.04072078e-03, -1.10466243e-03, -5.53151080e-03, -6.54319022e-03,
       -1.39745055e-02, 2.94122705e-03, 3.86585249e-03, -3.06825526e-03,
       -6.15416840e-03, 4.80543356e-03, -3.80371301e-03, 2.69181561e-03,
       5.26390504e-03, 5.72080771e-03, 2.66794744e-03, 1.98883470e-03,
       3.51164519e-04, 1.31875267e-02, 7.80469365e-03, 1.29817706e-02,
       3.00189387e-03, 4.94862767e-03, 6.58334652e-03, -4.49494086e-03,
       -9.41930339e-03, -1.42506612e-02, -4.12803842e-03, 1.80958561e-03,
       8.52575642e-04, 1.43999711e-03, -8.55877181e-04, -4.80534276e-03,
       4.05907631e-03, 1.49282918e-03, -1.61383080e-03, 6.84358180e-03,
       -1.84696657e-03, -2.04532151e-03, -4.03502956e-03, 5.20983106e-03,
       2.68025766e-03, -4.92412655e-04, -1.08734902e-03, 1.10111250e-04,
       1.01693422e-02, 9.66637768e-03, 5.30485669e-03, -5.44651924e-03,
       -5.86577505e-03, -1.46201719e-03, 7.30914623e-03, -4.58099210e-04,
       -3.73876188e-04, 3.76117881e-03, 1.48049379e-02, -5.60266017e-05,
       -1.08499825e-02, 5.51661418e-04, 1.61680989e-02, -1.34210452e-04,
       2.30434118e-03, 3.27059464e-03, -9.05848923e-04, 4.18781536e-03,
       -1.12031195e-02, -1.68004837e-02, -2.93028797e-03, 1.04686490e-03,
       4.83604101e-03, 4.43131384e-03, -4.43664566e-03, 1.70246104e-03,
       3.08827590e-03, -1.39824208e-02, -1.74665321e-02, -6.61246199e-03,
       6.29919395e-03, 6.27496280e-03, 4.26326040e-03, 4.22506873e-03,
       6.78646239e-03, 7.26404134e-03, -2.93018389e-03, -5.53841004e-03,
       -1.37504353e-03, 9.41966753e-03, 8.15741997e-03, 1.31722940e-02,
       4.19898564e-03, 5.73610235e-03, 3.02944658e-03, 9.42883734e-03,
       3.17043206e-03, 5.80392918e-03, 4.46481770e-03, 3.29043926e-03,
       6.49622222e-03, 7.16804716e-05, 5.60602779e-03, 6.08739327e-04,
       -1.33156227e-02, -8.98532942e-03, -4.94164973e-03, 6.16230711e-04,
       -3.85670341e-03, 3.55954887e-03, -2.66703847e-03, 8.00641626e-03,
       5.66511182e-03, -1.54110102e-03, 8.25930503e-04, -4.96157492e-03,
       -3.32378759e-03, 1.25734955e-02, 1.11891162e-02, 7.92070478e-03,
       4.27234452e-03, 1.63128972e-02, 1.11266738e-02, 1.43403234e-03,
       5.04969386e-03, 1.03230830e-02, 1.22999614e-02, 2.39501172e-03,
       -5.14127593e-03, -8.56068335e-04, 8.79815780e-03, -3.83084151e-03,
       -1.21804345e-02, -5.88691095e-03, 5.29151736e-03, 2.80470285e-03,
       4.30269213e-03, -1.09100481e-03, -1.33443612e-03, 1.62920952e-02,
       1.04751652e-02, 2.98220990e-03, -5.38910879e-03, -1.31287554e-03,
       1.97575707e-03, -6.98576728e-03, -1.91721898e-02, -8.35211482e-03,
       8.80652294e-03, -7.63535674e-04, -5.98115288e-03, -1.46411248e-02,
       -2.08492298e-03, 1.03743384e-02, 1.73326884e-03, -4.46184492e-03,
       -8.01370479e-03, 1.46308402e-02, -3.70394066e-03, -8.45620781e-03,
       -2.29084608e-03, 1.08657014e-02, -3.30992392e-03, -4.32512723e-03,
       -1.00087794e-02, -2.09502429e-02, 9.07704514e-03, -7.85332546e-03,
       -1.11430120e-02, -8.09158292e-03, -4.35847044e-03,
       -1.68682498e-04, -3.67296068e-03, -1.44807221e-02,
       -4.73279366e-03, 1.83934942e-02, 1.02116261e-02, -3.76405963e-03,
       -1.06984377e-02, -1.63311360e-03, -4.71490202e-03,
       -3.70441331e-03, -1.46357752e-02, -6.47248002e-03, 1.77866612e-02,
       7.85341579e-03, -1.08256685e-02, -1.21432701e-02, -4.29124758e-03,
       -1.71494838e-02, -1.16758980e-02, -1.20612169e-02,
       -6.91670831e-03, 1.91968977e-02, 4.84605087e-03, -1.47864679e-02,
       -1.38347875e-02, -1.61432140e-02, -1.83567125e-02,
       -1.32425101e-02, -7.60988705e-03, 1.08637959e-02, 2.50885151e-02,
       4.21453780e-03, -1.95437875e-02, -1.83971766e-02, -1.94947273e-02,
       -1.14415148e-02, -5.95156895e-03, -1.03582507e-02, 5.43642649e-03,
       2.17999984e-02, 1.35734566e-02, -1.58606675e-02, -1.17052961e-02,
       -1.37015553e-02, -1.53418537e-02, -1.49932066e-02,
       -4.80353646e-03, 1.25246169e-02, 1.99699681e-02, 6.28200406e-03,
       -1.01109520e-02, -9.83241573e-03, -1.06535908e-02,
       -2.42232578e-03, 1.14106378e-02, 1.15072646e-03, -1.90959050e-04,
       2.85967719e-02, 2.25875750e-02, 9.19353496e-03, 2.79087317e-03,
       -4.94611310e-03, -3.41291470e-03, 7.83031899e-03, -3.42503306e-03,
       -1.22109214e-02, 4.84063337e-03, 1.21247349e-02, 6.85499189e-03,
       2.30913260e-03, 7.26510247e-04, -1.65859051e-02, -1.30099338e-02,
       -1.74400993e-02, -9.68387071e-03, 1.64537374e-02, 1.19275479e-02,
       7.01533444e-03, -4.96658776e-03, -1.30113391e-02, -1.17070992e-02,
       -1.30308885e-02, -1.80256180e-02, -1.23255877e-02, 2.21421220e-03,
       -7.12731434e-03, -5.25981281e-03, -9.21213161e-03,
       -8.63357261e-03, -1.81779929e-03, 4.57675057e-03, -1.04963488e-03,
       -9.17445403e-03, 9.88937356e-03, 1.40601350e-02, 3.06145288e-03,
       -1.07336295e-04, -3.60976066e-03, 1.18463654e-02, 1.50103820e-02,
       4.16809646e-03, 8.30132558e-05, 4.52558231e-03, 3.76586174e-03,
       3.36853717e-03, 1.82339002e-03, 1.10648805e-02, -6.82409527e-03,
       -5.14359260e-03, -5.86055731e-03, -1.07644163e-02, 4.19238349e-03,
       7.87977595e-03, -4.72104503e-03, -6.52179960e-03, -4.45678225e-03,
       5.36112953e-03, 2.25780974e-03, -6.89427368e-03, -5.45538915e-03,
       4.34444658e-03, 5.06177545e-03, 4.62650647e-03, 8.25774204e-03,
       4.85149724e-03, 3.49994143e-03, 1.07893674e-02, 1.89112348e-03,
       4.36996575e-03, 5.74661931e-03, -2.22432474e-03, -1.18540379e-03,
       2.87239859e-03, 7.39770057e-03, -3.49366176e-03, -3.04034934e-03,
       -1.04111377e-02, -9.60598979e-03, 3.07667535e-03, 2.98614753e-03,
       -5.13031089e-04, 4.90028970e-03, 9.86972009e-04, 6.33004354e-03,
       6.93896902e-04, -5.17868623e-03, -1.25174713e-03, 5.36005944e-03,
       -1.95482350e-03, 2.00267974e-03, 6.69313828e-03, 3.18438862e-03,
       -3.32440296e-03, -6.36294624e-03, -8.30533542e-03,
       -8.70222226e-03, -1.03621911e-02, 2.19517341e-03, 1.57492014e-03,
       2.47329241e-03, -1.66176970e-03, -4.28237906e-03, -4.27174103e-03,
       -1.12558566e-02, -1.09577095e-02, 1.15855625e-02, 8.18438735e-03,
       -1.16022909e-03, 6.33163052e-03, 5.12439059e-03, -9.01151821e-03,
       -7.78025808e-03, -1.88301678e-03, 7.02052901e-04, 2.32860558e-02,
       1.20791588e-02, -7.32531492e-03, -4.33767261e-03, -6.00369321e-03,
       -4.81725183e-05, -2.30528065e-03, -1.20949736e-02,
       -1.38511164e-02, 5.69193251e-03, 2.44033174e-03, -3.26660578e-03,
       4.57900017e-03, 3.60237737e-03, -2.32840027e-03, -1.52639858e-03,
       -8.00276361e-03, 1.10590216e-02, 1.75386723e-02, 9.66235250e-03,
       -9.02156811e-03, -3.90050630e-03, -5.64840576e-03,
       -2.25273073e-02, -1.28035778e-02, 3.51522863e-03, 4.32300987e-03,
       2.37153918e-02, 9.26736463e-03, -7.55159464e-03, -7.73156248e-03,
       -1.65032651e-02, -1.89004894e-02, -1.26207331e-02,
       -8.45196098e-03, 3.51039023e-04, 2.60273907e-02, 1.59210078e-02,
       3.50693963e-03, -5.14970068e-03, -1.06729399e-02, -1.79648027e-02,
       -1.13490578e-02, -4.36520483e-03, 8.51835404e-03, 1.66847147e-02,
       1.12855751e-02, -1.09226089e-02, -9.92832147e-03, -1.47638228e-02,
       -8.53438303e-03, -1.64985545e-02, -6.95638312e-03, 8.14403221e-03,
       2.33669784e-02, 1.81735717e-02, -1.75503525e-03, -8.39455426e-03,
       -6.65266020e-03, -1.64953936e-02, -1.08354352e-02,
       -1.21602844e-02, 9.64286271e-03, 2.18269639e-02, 1.01168314e-02,
       -1.90538901e-03, -9.91055649e-03, -9.49189719e-03,
       -1.20619992e-02, -5.41568222e-03, 4.05446254e-03, 1.24457758e-02,
       5.77369612e-03, 2.04020762e-03, -1.24635100e-02, -1.34497201e-02,
       -1.55204302e-02, 2.05479609e-03, -6.97029755e-03, -4.30505956e-03,
       1.26667852e-02, 1.72250587e-02, 1.28586991e-02, 1.40886556e-03,
       -5.73465647e-03, 8.68061790e-04, -4.02232213e-03, 5.72016044e-03,
       3.04564578e-03, 9.01385583e-03, 1.10763172e-02, 4.79795272e-03,
       -1.04908189e-02, -1.25771528e-02, -5.90889342e-03,
       -2.34176335e-03, 2.18761765e-04, 3.25859967e-03, 1.14246560e-02,
       1.10057893e-03, -2.43240982e-04, -1.03547880e-02, -3.70254018e-03,
       -6.54579047e-03, -1.08650641e-03, -6.60562050e-03,
       -2.23435927e-04, -1.57014572e-03, -1.30054904e-02, 1.35484396e-03,
       -4.20053676e-03, 1.60299416e-03, -3.69041087e-03, -4.72203043e-04,
       4.90040379e-03, 3.29572731e-03, 1.08715603e-02, 5.92898671e-03,
       -9.35120101e-04, -1.31182261e-02, -7.80058745e-03,
       -1.66365586e-03, 1.03532085e-02, 4.63746535e-03, 1.07348594e-03,
       1.36454869e-03, -2.16768496e-03, -2.21812888e-03, -7.25952582e-03,
       -2.11655186e-03, 2.61449046e-03, -7.09027424e-03, -9.90658812e-03,
       -3.10936570e-03, -4.37097950e-03, 8.00108071e-03, 1.45474158e-03,
       2.70382036e-03, 3.14954645e-03, -7.09687872e-03, -1.50715308e-02,
       -1.01540731e-02, -5.36511466e-03, -3.04642692e-03, 8.83528031e-03,
       3.67935607e-03, -7.21392207e-05, -4.00384562e-03, -1.37714157e-02,
       5.65773621e-03, -1.36461094e-04, 5.38492389e-03, 2.07259622e-03,
       8.71005561e-03, 5.13357995e-03, -2.98692356e-03, 1.63759847e-04,
       -2.06516171e-03, -2.30393396e-03, 1.63680583e-03, 8.03159550e-03,
       5.58473961e-03, 3.30368523e-03, 3.02536716e-03, 5.92705607e-03,
       5.90722915e-03, -4.98380885e-03, -1.85550598e-03, 6.44553732e-03,
       -1.92744075e-03, 7.42895203e-03, 1.06088649e-02, 7.97386374e-03,
       -2.15138032e-04, 1.29356224e-03, -1.17699457e-02, -4.17198939e-03,
       -2.78466870e-03, -9.63799004e-03, -3.64053133e-03, 9.24282335e-03,
       5.47101116e-03, -3.25485133e-04, -4.25691344e-03, -1.55581329e-02,
       -4.64671059e-03, 2.13986589e-03, -2.79217347e-04, 6.32533524e-03,
       1.18195126e-02, 7.85698183e-03, 6.04472915e-03, 7.34976120e-03,
       -7.25115370e-03, -9.69307218e-03, -1.37515250e-04,
       -8.76546837e-03, -2.17438256e-03, 8.58256035e-03, 3.84155894e-03,
       7.07852538e-04, 1.07912812e-03, -6.41580671e-03, -6.68568863e-03,
       -1.17025552e-02, -1.82225816e-02, -1.10653983e-02,
       -3.00394109e-04, -7.20271841e-03, -2.67668138e-03,
       -1.16163874e-02, -1.12178475e-02, 5.82077540e-03, -2.34586559e-03,
       -1.89500244e-03, -7.06058694e-04, 2.76051811e-04, -3.67304310e-03,
       -4.60194750e-03, -7.03455694e-03, -3.28588998e-03,
       -8.21763929e-03, -1.01000005e-02, -1.37084620e-02,
       -4.25268430e-03, 6.76659960e-03, -6.27655827e-05, -3.21349455e-03,
       -7.99602270e-03, -1.33115589e-03, 2.83473358e-03, -8.49770615e-04,
       -5.95955364e-03, 5.17042354e-03, 5.67894569e-03, 6.23242324e-03,
       3.69863631e-03, 3.61508783e-03, 9.05905385e-03, 6.94598909e-03,
       -1.48948433e-03, -6.31175644e-04, -5.62805776e-03, 1.36964908e-02,
       -9.05134156e-03, -6.70314394e-03, -5.27256168e-03, 3.71354213e-03,
       6.49128994e-03, -7.54423090e-04, -1.02309473e-02, -1.20536080e-02,
       2.19972245e-03, -1.79313663e-02, -1.56948771e-02, -7.49365985e-03,
       8.75839032e-03, 3.14173289e-03, -5.71643049e-03, -1.29629755e-02,
       -6.58979500e-03, 1.28774103e-02, 2.36333953e-03, -1.14839908e-03,
       2.11588736e-03, 6.22415822e-03, 7.68454047e-03, -6.52527530e-03,
       -1.72256250e-02, -1.06019471e-02, 8.02880898e-03, -4.98884404e-03,
       1.68082968e-03, -1.51032105e-03, 7.27254013e-03, 5.95257990e-03,
       5.03759366e-03, -2.60831043e-03, 3.35397222e-03, 3.51017830e-03,
       -1.40401134e-02, -1.83464505e-03, -3.42051033e-03, 5.11574326e-03,
       -2.17571110e-03, -1.34766498e-03, -7.45756435e-04, 1.13346353e-02,
       1.34178940e-02, -2.41921260e-03, -2.33132998e-03, -4.69601573e-03,
       2.60825618e-03, 1.07828551e-03, -6.17989525e-03, -1.29447188e-02,
       -7.34849600e-04, 1.69291382e-03, -9.07240249e-03, -4.15412104e-03,
       1.74020475e-04, 2.14188802e-03, 2.31281482e-03, -8.18716187e-04,
       -6.10587280e-03, 3.15041817e-03, 8.04499537e-03, -4.48528491e-03,
       -7.50754448e-03, 2.90224096e-03, 1.01098279e-02, 4.05342522e-04,
       -4.80068428e-03, -6.15104847e-03, -3.55787715e-03, 1.03245378e-02,
       3.65414121e-03, -1.71464798e-03, -1.01982541e-02, -1.35981056e-04,
       -1.36380224e-03, -7.88461231e-03, -9.57703032e-03,
       -1.15699619e-02, 1.20776109e-02, 4.35981754e-04, -5.66401239e-03,
       -1.52190141e-02, -5.19240368e-03, 5.70201548e-03, 2.13712011e-03,
       -6.03224151e-04, -5.79781132e-03, 5.58703020e-03, 6.57925988e-03,
       -8.00392125e-04, 1.29497179e-03, 9.28687863e-03, -1.13380235e-03,
       -4.38540988e-03, -7.65049132e-04, -9.40915570e-03, 8.42965767e-03,
       5.02426829e-03, 2.66422029e-03, -2.98760249e-03, 2.86508165e-03,
       -3.57016572e-03, -8.26153718e-03, -1.10991467e-02,
       -4.49118903e-03, 1.89567599e-02, 5.23251202e-03, 3.84600111e-03,
       -6.71443064e-03, -2.55127577e-03, -2.05001072e-03,
       -8.70602392e-03, -1.15633681e-02, -1.47843617e-03, 1.71944294e-02,
       4.37172037e-03, -3.70908785e-03, -7.47095933e-03, -1.55705679e-03,
       -1.33278489e-03, -9.67879314e-03, -7.14809168e-03,
       -5.18884696e-03, 1.31827239e-02, 3.28656123e-03, 5.29191410e-03,
       2.79663480e-03, 2.28464324e-03, 1.07882847e-03, -1.62534975e-03,
       1.20829663e-03, 7.66779645e-04, 1.21570714e-02, -7.33620208e-03,
       -1.10497919e-03, -7.14313239e-03, 3.20452265e-03, -5.41124400e-03,
       -4.83387616e-03, -3.88095737e-03, 7.10734539e-03, 1.49994688e-02,
       4.27821046e-03, -1.27374306e-02, -5.66062704e-03, -1.12560084e-02,
       -1.61830541e-02, -1.70798972e-02, -5.42681385e-03, 1.13631357e-02,
       1.04429517e-02, -1.69343234e-03, -4.72525554e-03, -4.41560987e-03,
       -1.07078012e-02, -4.05294728e-03, -3.61096393e-03, 7.50074163e-03,
       7.60326395e-03, 1.12980669e-02, 6.93464745e-03, -9.05806012e-03,
       -7.25871557e-03, -3.66131496e-03, -1.20064113e-02,
       -1.68051943e-02, -5.23837563e-03, 7.78428838e-03, 9.44455247e-03,
       -1.77442096e-03, -1.00061037e-02, -5.34773758e-03,
       -1.45718725e-02, -1.45638771e-02, -1.43693648e-02,
       -1.21218925e-02, -4.38910956e-03, 1.32568451e-02, 9.13649332e-03,
       9.13440995e-03, 6.48361223e-04, -3.70311271e-03, -4.94326092e-03,
       -2.16492768e-02, -1.46940192e-02, -5.89088583e-03, 5.34960162e-03,
       -1.13480845e-02, -3.84651800e-03, -5.50087309e-03,
       -1.76622521e-03, -1.63414627e-02, -1.76665243e-02,
       -7.79727101e-03, -6.30289828e-03, 1.70377120e-02, 1.96574442e-02,
       1.31884161e-02, 6.84311939e-03, -4.97023459e-04, -8.03788006e-03,
       -2.11247820e-02, -1.50339045e-02, -6.36183005e-03, 1.19894557e-02,
       -4.07867460e-03, 8.53498559e-03, 6.32065814e-03, -3.23962537e-03,
       5.86536247e-04, -1.06817409e-02, -6.98284432e-03, -8.53730924e-03,
       1.30933542e-02, 2.16682442e-03, -1.82708830e-03, -7.50276900e-04,
