%YAML:1.0
---
myHogDector: !!opencv-object-detector-hog
   winSize: [ 128, 128 ]
   blockSize: [ 16, 16 ]
   blockStride: [ 8, 8 ]
   cellSize: [ 8, 8 ]
   nbins: 9
   derivAperture: 1
   winSigma: 4.
   histogramNormType: 0
   L2HysThreshold: 2.0000000000000001e-01
   gammaCorrection: 0
   nlevels: 64
   signedGradient: 0
   SVMDetector: [ -2.45063100e-03, -3.11921840e-03, 4.06517927e-03,
       -9.56480764e-03, -6.41195429e-03, -1.64176058e-02, 1.98252499e-03,
       4.90022497e-03, -1.29971337e-02, -1.08264275e-02, -6.47427049e-03,
       4.32236446e-03, -3.72743537e-03, 5.06004924e-03, 2.49453401e-03,
       -4.52098320e-05, -9.72042966e-04, -1.62684340e-02,
       -3.10341106e-03, 9.40566976e-03, 1.27351442e-02, -5.97141171e-03,
       5.82950516e-03, -1.08409598e-02, 1.01227527e-02, 7.26555008e-03,
       -7.13706063e-03, 1.21503440e-03, 9.60184634e-03, 1.34619735e-02,
       1.16835022e-02, 2.25426089e-02, 1.37497373e-02, 2.07377821e-02,
       1.04727903e-02, 3.11557460e-03, -1.21056186e-02, -6.15000259e-03,
       -4.77379374e-03, -4.66215238e-03, 4.47219890e-03, 1.98069355e-03,
       -4.12791967e-03, -7.53592886e-03, -1.75611563e-02,
       -6.02705113e-04, -3.29337758e-03, -5.63824899e-04, 3.22075817e-03,
       8.98766518e-03, 1.58401486e-03, -8.63714144e-03, -7.03914277e-03,
       -5.66565199e-03, -1.25905145e-02, 1.84686168e-03, 4.84196236e-03,
       -6.31026283e-04, 4.03955858e-03, 4.02259687e-03, 1.34219415e-03,
       1.79150316e-03, -1.39093949e-02, 1.01737436e-02, 3.16932215e-03,
       3.39914183e-03, 3.17240367e-03, 5.42265084e-03, 6.19734544e-03,
       3.72131541e-03, 5.41454693e-03, 2.44297716e-03, 5.24922041e-04,
       -3.91623378e-03, -1.40705716e-03, 2.01561442e-03, 7.24809524e-03,
       6.82245987e-03, -1.96672557e-03, -4.10362659e-03, -2.26476649e-03,
       1.08323386e-03, 3.10943625e-03, -2.28387699e-03, -2.48760975e-04,
       -3.71449068e-03, -9.05213691e-03, -1.32808555e-02,
       -8.66130926e-03, -7.21752085e-03, 6.76732790e-03, 9.28576663e-03,
       1.33905765e-02, 4.73659299e-03, 2.23310408e-03, 1.31094344e-02,
       7.73677463e-03, -1.98560394e-03, -3.24513810e-03, 4.25537722e-03,
       7.60346185e-03, 3.78377130e-03, 7.52662215e-03, 1.07877152e-02,
       1.47278327e-03, 1.50910416e-03, -9.45241074e-04, -3.98921873e-03,
       -1.68822950e-03, -2.27734563e-03, -7.03215832e-03, 5.19687217e-03,
       -4.11082013e-03, -1.35437772e-02, -9.30304080e-03,
       -6.07620319e-03, -6.41051913e-03, -2.99115060e-03,
       -2.85514398e-04, 3.16430163e-03, 3.72288050e-03, 2.18202709e-03,
       -7.55399186e-03, -5.40195685e-03, -4.65843547e-03,
       -7.10201543e-03, 7.04988185e-03, 1.40167987e-02, 1.68684090e-03,
       1.47392843e-02, 7.86307082e-03, 1.18240993e-03, -1.65490597e-03,
       1.50788110e-04, 1.36894395e-03, 7.68116722e-03, 1.96576640e-02,
       1.15089780e-02, 6.63211802e-03, 3.30107659e-03, -2.20681517e-03,
       -1.57474866e-03, 1.35668821e-03, 7.15099508e-03, -6.17853506e-03,
       1.62897969e-03, 6.97332947e-03, 1.43893342e-03, 2.61526060e-04,
       2.83112196e-04, 1.23091904e-03, -2.67720409e-03, -7.93125667e-03,
       -9.10955667e-03, -9.03876871e-03, 1.32180378e-03, -4.55438672e-03,
       -1.10531729e-02, -7.12236762e-03, -4.02850937e-03, 8.85161979e-04,
       -7.76702585e-03, 1.59799308e-02, 1.98728666e-02, 1.53757380e-02,
       -8.34172024e-05, -1.03100948e-03, -4.26834635e-03, 5.27729513e-03,
       1.31535865e-02, 1.66280232e-02, 1.48798572e-02, 7.77144916e-03,
       4.98938141e-03, 4.42257849e-03, -1.55483801e-02, -5.03086066e-03,
       5.53543027e-03, 1.06541850e-02, 1.57006141e-02, -2.85102427e-03,
       -8.25373828e-03, -3.23565677e-03, -1.29366980e-03,
       -1.27071887e-02, -1.43906418e-02, -3.59018240e-03, 3.10391304e-03,
       -1.00394699e-03, 1.71916578e-02, 1.71643328e-02, 2.35639210e-03,
       1.57095655e-03, -8.05534050e-03, -8.42339080e-03, 6.07469445e-03,
       2.07034219e-03, 1.99541193e-03, 7.77615700e-03, 1.53592993e-02,
       -1.30366546e-03, 4.21739137e-03, -1.00239320e-02, -1.10877994e-02,
       1.43087574e-03, 3.42774251e-03, 7.04624457e-03, 9.17318277e-03,
       3.34111899e-02, 6.95064198e-03, 3.04253516e-03, -3.10753495e-03,
       -4.33836877e-03, 7.16031622e-03, 2.73803133e-03, 6.41803863e-03,
       1.22170253e-02, 1.46388793e-02, 2.97110830e-03, -2.18605201e-04,
       -6.83843484e-03, -8.88745580e-03, 1.42280536e-03, -8.89528077e-03,
       -5.89191634e-03, 6.64622569e-03, 1.34160453e-02, 1.12501336e-02,
       2.60968879e-03, -1.37256840e-02, -1.91484932e-02, -1.68182068e-02,
       -1.64332576e-02, -8.22132919e-03, 9.53248795e-03, 3.13258693e-02,
       7.68276164e-03, -2.08463334e-05, -4.81936196e-03, -7.44235935e-03,
       1.86578138e-03, 4.45650471e-03, 5.57801733e-03, 1.77272782e-02,
       2.74231639e-02, 1.33787915e-02, 6.24450110e-03, -5.49197802e-03,
       -1.14657581e-02, -3.54703655e-03, 1.05841132e-03, 1.08297616e-02,
       7.89363682e-03, 6.55790931e-03, 1.39453262e-02, -1.15642964e-03,
       -1.98850296e-02, -2.04069484e-02, -1.43073853e-02,
       -1.08372727e-02, -3.63808777e-03, 6.19060639e-03, 1.03690848e-02,
       1.19702639e-02, -8.94944556e-03, -1.90867353e-02, -1.05774626e-02,
       -2.08799215e-03, 8.66482407e-03, 3.54660931e-03, 2.15082951e-02,
       9.77466442e-03, 9.08585638e-03, 6.65351283e-04, -1.56050073e-02,
       -1.63623169e-02, -5.26854303e-03, 3.18305637e-03, 1.59928650e-02,
       1.59947257e-02, 6.75495341e-03, 2.28473963e-03, -5.89172775e-03,
       -1.19575402e-02, -7.32323574e-03, 4.70162416e-03, 1.55999968e-02,
       1.78403873e-02, -1.35183614e-03, 3.02855647e-03, 3.79219651e-03,
       -9.95818805e-03, -1.47499898e-02, -7.56506622e-03, 3.63739528e-04,
       5.63265104e-03, -2.18191883e-03, -1.51383947e-03, -3.58773279e-03,
       1.90305768e-03, -8.34016129e-03, -9.05587338e-03, -7.96940550e-03,
       7.63451401e-03, -3.24151572e-03, -4.23902506e-03, 9.18375142e-03,
       8.40137992e-03, 9.57811158e-03, -6.42977888e-03, -8.01600330e-03,
       1.02779036e-03, 1.01690916e-02, 1.72112696e-02, 2.00243890e-02,
       1.63529068e-02, 1.62585415e-02, 1.35871945e-02, 8.96054413e-03,
       7.31150527e-03, 8.37930571e-03, 1.19512780e-02, 1.48427123e-02,
       1.72939841e-02, -6.88902452e-04, -4.73629590e-03, 1.78821932e-03,
       -3.69774178e-03, -7.29532354e-03, -7.09116459e-03, 5.31198271e-03,
       -3.15251900e-03, -6.64232345e-03, 3.63986287e-03, 1.79065613e-03,
       5.06904023e-03, -9.61787626e-03, -1.21132405e-02, -8.27806257e-03,
       -6.29697985e-04, -3.74353281e-03, 2.63963040e-04, 1.68730114e-02,
       8.61787703e-03, 7.70392222e-03, 1.98222953e-03, 1.82361016e-03,
       1.24010546e-02, 1.22925034e-02, 5.94187248e-03, 1.26818409e-02,
       1.82366166e-02, 9.23692808e-03, 7.83904735e-03, 2.01792456e-03,
       3.17588635e-03, 8.62729549e-03, 2.06978079e-02, 1.40095418e-02,
       1.62734613e-02, 1.80249999e-03, 5.36403013e-03, 5.66548109e-03,
       -8.49846471e-03, -8.84041842e-03, -8.60576145e-03, 7.72783940e-04,
       4.03125910e-03, 7.36081786e-03, 2.77140667e-03, -7.37614406e-04,
       -5.31378482e-03, -1.78216789e-02, -1.49644306e-02,
       -7.41532072e-03, 2.50248192e-03, 6.80557080e-03, 1.44381067e-02,
       1.01226987e-02, 1.28326742e-02, 1.31368823e-02, 1.84270891e-03,
       3.23407259e-03, 8.03762861e-03, 1.58433095e-02, 1.46195311e-02,
       1.71057526e-02, 7.13231228e-03, 2.49263714e-03, 5.04399184e-03,
       -2.35274038e-03, -2.64848873e-04, 4.67572361e-03, 1.55467186e-02,
       1.20414253e-02, 1.73193216e-02, 6.95843901e-03, -2.91345897e-03,
       -4.78617614e-03, -1.46031082e-02, -1.80163272e-02,
       -8.22265632e-03, 3.02563934e-03, 5.31510683e-03, 8.61090980e-03,
       7.33547425e-03, 4.49986523e-03, 1.04739266e-02, -7.80441798e-03,
       -1.90338921e-02, -1.46718593e-02, -3.52812815e-03, 1.30169385e-03,
       3.71922785e-03, 7.07045849e-03, 3.17472103e-03, 2.66595720e-03,
       3.63827823e-03, 6.17052428e-03, 2.43702275e-03, 5.92652615e-03,
       4.87241050e-04, 7.20154028e-03, 9.90038458e-03, 1.11081246e-02,
       1.12698637e-02, 8.31982866e-03, -1.52980431e-03, 5.58980554e-03,
       7.54982838e-03, 1.86914019e-03, 7.59292720e-03, 8.82206019e-03,
       1.05869630e-02, 1.17676165e-02, 9.71193193e-04, -1.31793907e-02,
       -1.35264089e-02, -7.30031636e-03, 2.01112754e-03, 1.13131071e-03,
       6.70949556e-03, -1.37082976e-03, 6.45553274e-03, -5.68911387e-03,
       -1.99213102e-02, -1.43943066e-02, -1.26001984e-02,
       -9.27243568e-03, 3.04850779e-04, 1.20467627e-02, 5.02754748e-03,
       5.05689112e-03, 5.80842141e-03, -4.69160918e-03, 6.45034760e-03,
       1.01530347e-02, 1.62257534e-02, 2.12737899e-02, 7.51083950e-03,
       1.43010716e-03, 6.25797198e-04, -9.43697151e-03, -1.35815600e-02,
       -1.14603026e-03, 9.41228995e-04, 1.63623802e-02, 1.67571437e-02,
       9.57649946e-03, -1.33375777e-03, -1.23622624e-04, -1.16064278e-02,
       -1.50671536e-02, -9.14553832e-03, -4.98511316e-03,
       -9.11865733e-04, 1.32378628e-02, 8.81365407e-03, -7.19842175e-03,
       -1.12824328e-02, -1.52359381e-02, -1.45552950e-02,
       -7.17385719e-03, -1.85718498e-04, 4.01585270e-03, 1.03149610e-02,
       1.43753262e-02, 2.40001292e-03, -6.44681556e-03, -1.07979225e-02,
       -4.96718660e-03, 4.93662991e-03, 5.87473810e-03, 1.46955848e-02,
       1.67410001e-02, 1.21402442e-02, -1.83760465e-04, -6.29349658e-03,
       4.42537101e-04, -3.32546025e-03, 1.84788811e-03, 9.15481523e-03,
       8.37957300e-03, 1.81100201e-02, 1.00402134e-02, 9.02989041e-03,
       1.55219797e-03, -7.68131483e-03, -1.90059505e-02, 1.46909361e-03,
       6.36002654e-03, 4.53418214e-03, 8.03734642e-03, -1.75284315e-03,
       2.92801997e-03, 1.14848942e-03, -6.98037678e-03, -1.07740238e-02,
       4.01751744e-03, 9.00303200e-03, 2.71422556e-03, -4.64805216e-03,
       1.77385062e-02, 1.26511510e-02, 5.16751735e-03, 6.48198742e-03,
       -1.44561762e-02, 4.89040045e-03, 1.47617199e-02, 9.10030119e-03,
       1.67257506e-02, -8.44830123e-04, 3.73390713e-03, -1.52393500e-03,
       -1.09999226e-02, 5.73488069e-04, 2.39746496e-02, 1.52344229e-02,
       7.65261892e-03, 2.62533920e-03, -1.38142863e-02, 8.44164565e-03,
       7.33945798e-03, -8.16269685e-03, -2.14945455e-03, -1.38185462e-02,
       -3.00592347e-03, -2.08690786e-03, -1.00417668e-02,
       -4.66476148e-03, 2.17688512e-02, 1.55555727e-02, 9.05594509e-03,
       9.26662702e-03, 3.32762441e-03, 1.75792223e-03, 7.87896453e-04,
       -2.86830100e-03, -3.56760388e-03, 1.72691457e-02, 8.78368504e-03,
       7.45990919e-03, -5.08179236e-03, -1.29843764e-02, -1.01666013e-02,
       -2.01274408e-04, -6.08162954e-03, 7.99980853e-03, 1.70452427e-02,
       9.57330223e-03, 1.56387947e-02, 3.30563239e-03, 6.63018040e-03,
       3.84203577e-03, 9.71770659e-03, 9.68455744e-04, -1.07195126e-02,
       5.36659779e-03, 7.41346320e-03, -3.43836541e-03, -4.72430466e-03,
       -3.70413321e-03, -5.11039933e-03, 9.89513937e-04, -1.05128670e-02,
       4.87013208e-03, 1.46285798e-02, 1.41147766e-02, -1.84330600e-03,
       -9.08330362e-03, 7.41596974e-04, 3.14883539e-03, 2.67995149e-03,
       -5.62775647e-03, -5.81262540e-03, 3.62501247e-03, 4.03705379e-03,
       -5.80916135e-03, -2.15475308e-03, -1.63283199e-03,
       -1.17998768e-03, 1.98724959e-03, -6.57668989e-03, 1.53553812e-03,
       1.55782569e-02, 1.03611927e-02, 1.14920747e-03, -1.09606182e-04,
       1.75626553e-03, 1.14740320e-02, 7.03341607e-03, 3.92461289e-03,
       4.34541190e-03, 9.37734917e-03, 7.43472017e-03, -9.76404175e-03,
       -1.49793811e-02, -9.55516472e-04, 3.16344621e-03, -4.00366262e-03,
       -1.34523809e-02, -2.55384739e-03, 5.21238334e-03, 5.96706709e-03,
       -4.73148655e-03, -2.91488552e-03, -8.06355197e-03,
       -1.66851515e-03, -7.75664020e-03, -1.97179671e-02,
       -2.32958281e-03, 1.61133707e-02, 9.71475895e-03, -1.33991428e-02,
       -9.99467727e-03, -2.83369655e-03, 5.34666004e-03, 2.90996605e-03,
       -4.40203352e-03, 4.21091169e-03, 2.09390968e-02, 2.69185100e-02,
       1.62337744e-03, 8.95835459e-03, -5.15100546e-03, -9.59994795e-05,
       4.45991568e-03, -6.33698516e-03, -2.14182539e-03, 3.64113669e-03,
       4.02253075e-03, 2.91706854e-03, -4.35432466e-03, -1.26713850e-02,
       -6.98682759e-03, -1.57067105e-02, -1.61342118e-02,
       -2.81340489e-03, 9.13022738e-03, -1.51741330e-03, -9.72393155e-03,
       -5.99277718e-03, -1.25259701e-02, -7.71358004e-03,
       -1.21307187e-02, -1.44081777e-02, 4.89452342e-03, 1.48990201e-02,
       2.01221630e-02, 3.85290454e-03, 3.11798556e-03, -1.11211827e-02,
       -6.04895456e-03, -5.64990798e-03, -5.23029640e-03, 1.04050683e-02,
       1.09108631e-02, 9.03329346e-03, -1.90161285e-04, 4.95825009e-03,
       -6.10594638e-03, -9.93647613e-04, 5.78885665e-04, 2.09358078e-03,
       3.03134019e-03, 2.99489801e-03, -4.19802498e-03, -1.65962558e-02,
       -1.21626453e-02, -9.56432521e-03, -5.37766330e-03,
       -1.76304649e-03, -4.63845645e-04, 6.45700702e-03, 2.18837894e-03,
       -7.73012638e-03, -8.05217586e-03, -2.09786482e-02,
       -1.26210656e-02, -8.50548502e-03, -2.03987886e-03, 3.07542621e-03,
       9.72485263e-03, 1.10242153e-02, 2.95972102e-03, -3.87029559e-03,
       -2.84085399e-03, -5.12849633e-03, -3.64391902e-03, 6.88433554e-03,
       7.51579925e-03, 9.12302732e-03, 1.71846300e-02, 8.34732875e-03,
       7.44979549e-03, -3.52119072e-03, 2.04446516e-03, 4.52361302e-03,
       7.59444991e-03, 1.95640139e-03, 4.03503748e-03, 9.42196324e-03,
       -1.37682520e-02, -5.35368780e-03, -2.01297123e-02,
       -1.74795333e-02, -7.55503075e-03, -5.32244518e-03,
       -2.49689328e-03, 1.11855427e-02, 9.70483571e-03, -1.07432185e-02,
       -1.24897342e-02, -1.60441659e-02, -1.30183101e-02,
       -3.54238506e-03, -4.18117596e-03, -1.62143598e-03, 1.32385483e-02,
       1.34808477e-02, -2.96450045e-04, 3.79075925e-03, -7.92536512e-03,
       -3.00031039e-03, 4.84847883e-03, 8.16707965e-03, 4.40260815e-03,
       1.84838418e-02, 2.12530121e-02, 3.71094025e-03, 3.15312902e-03,
       5.71735145e-04, 5.50241303e-03, 6.15110155e-03, 1.07244710e-02,
       1.43151525e-02, 7.42639136e-03, 9.59348120e-03, -6.91659690e-04,
       -1.02255251e-02, -1.31831085e-02, -9.82340146e-03,
       -5.94634330e-03, -1.34069182e-03, 7.14380178e-04, 3.28455539e-03,
       4.59703105e-03, -9.90075176e-04, -8.00532941e-03, -1.78813487e-02,
       -1.86435096e-02, -7.57773547e-03, -1.26203347e-03, 4.01025033e-03,
       2.14970149e-02, 2.18759105e-02, 4.01380984e-03, 1.42665580e-03,
       -1.40480627e-03, 1.15542184e-03, -1.80579606e-04, 1.13839200e-02,
       1.86082162e-02, 9.34307557e-03, 7.97458924e-03, -2.01367354e-03,
       2.29571667e-03, -4.05523553e-03, -1.60541106e-02, -1.10843580e-03,
       5.69517491e-03, 1.44730480e-02, 1.25376582e-02, -1.72106863e-03,
       -6.53715397e-04, -1.18077993e-02, -2.32252963e-02,
       -1.86457429e-02, -1.09452417e-03, 8.81730206e-03, 1.78032126e-02,
       4.44476586e-03, -2.44486053e-03, -6.80753728e-03, -1.38335498e-02,
       -1.39225237e-02, -1.46910893e-02, -9.90242814e-04, 1.17557542e-02,
       1.28190219e-02, 6.02658000e-03, -4.53223387e-04, -1.16763508e-03,
       -6.55613700e-03, -3.69789870e-03, -1.31808976e-02, 3.62692983e-03,
       6.40460709e-03, 1.82892047e-02, 5.65741444e-03, -1.39845698e-03,
       -8.17096233e-03, 7.92556733e-04, -1.41458295e-03, -8.39579199e-03,
       1.44757784e-03, 1.11332685e-02, 5.69125079e-03, -9.29947477e-03,
       -2.22068536e-03, -1.70985830e-03, -7.93899503e-03,
       -4.39674081e-03, -4.21500625e-03, -2.97952234e-03, 2.39717378e-03,
       2.95675849e-03, 2.81062745e-03, 3.01875011e-03, 1.23380590e-03,
       5.47760725e-03, 8.43191799e-03, 1.74614284e-02, 2.53159041e-03,
       1.03810849e-03, 9.11636837e-03, -3.84379108e-03, -2.68890499e-03,
       -3.17045464e-03, -1.55674538e-03, 4.43868712e-03, -2.87157623e-03,
       -5.21583948e-03, 1.73616130e-03, -4.31868015e-03, 6.20031776e-03,
       -3.49977217e-03, -1.67340785e-03, 6.94181956e-03, 1.07578505e-02,
       1.20509490e-02, 2.47329520e-03, 5.78688504e-03, 4.92308661e-03,
       -4.67310334e-03, -7.63075054e-03, -4.41243825e-03,
       -1.49801926e-04, 7.38536054e-03, 1.42922532e-02, 5.67464915e-04,
       -1.29494583e-03, 3.30925430e-03, -6.05223887e-03, -5.26155345e-03,
       -7.06055260e-04, -5.71697997e-03, 1.78926054e-03, 5.81747061e-03,
       5.98890102e-03, 3.87518317e-03, 6.09282404e-03, 1.34399987e-03,
       -1.38590690e-02, -8.49960186e-03, 2.31134007e-03, 1.30169224e-02,
       9.24975891e-03, 6.32541208e-03, 6.32918486e-03, -1.00029829e-05,
       -6.31232001e-03, -8.44442379e-03, -1.88030046e-03, 1.06005452e-03,
       9.08650737e-03, 4.98245005e-03, 1.17622120e-02, 7.23678432e-03,
       -8.58577725e-04, -2.86698178e-03, 2.48938776e-03, 4.78364713e-03,
       -3.86698311e-03, 5.23287011e-03, 8.90628062e-03, 1.24951266e-02,
       8.33862368e-03, 1.10590868e-02, -9.83866397e-03, -1.32223843e-02,
       -3.58023262e-03, -2.68171588e-03, 1.07641250e-03, 2.76223687e-03,
       -3.82274302e-04, -7.39569496e-03, 3.88623914e-03, 4.18501673e-03,
       3.09247966e-03, -5.44349838e-04, 3.24215885e-04, 1.13440314e-02,
       1.10868439e-02, 1.65443067e-02, 1.33849448e-02, 5.67483064e-03,
       3.90395871e-03, -9.72255692e-03, -1.23211893e-03, 2.14737281e-03,
       8.39783251e-03, 1.17715206e-02, 7.77179329e-03, 6.53551938e-03,
       1.29544763e-02, 1.74297462e-03, -5.68498531e-03, 3.61341808e-04,
       3.92509066e-03, 6.59765769e-03, 6.56683603e-03, -6.97179046e-03,
       -6.27669971e-03, 6.16215775e-03, -5.30666392e-03, -3.51351243e-03,
       -2.52538943e-03, 2.92612752e-03, 3.40870640e-04, 3.32596502e-03,
       -1.15892747e-02, -1.17618470e-02, -2.09151325e-03, 1.48377931e-02,
       3.09418049e-03, 9.14235320e-03, 7.41907908e-03, 1.39360251e-02,
       1.38294976e-02, 7.38987699e-04, 1.12744104e-02, 2.21366789e-02,
       -2.73250556e-03, -6.55727647e-03, -3.29833594e-03,
       -1.22218579e-03, 5.08878520e-03, 9.75567847e-04, -6.99259806e-03,
       2.81341025e-03, 8.42949655e-03, 5.04935905e-03, -1.22935523e-03,
       6.32219948e-04, 6.76788250e-03, 2.11817306e-03, -1.08916080e-03,
       3.47712448e-05, 6.74239267e-03, 1.21924039e-02, 1.08045768e-02,
       -4.36654023e-04, -5.41254506e-03, -7.19324406e-03,
       -1.00401295e-02, -5.23822661e-03, -3.86310695e-03, 6.79062493e-03,
       1.64547432e-02, 4.55427589e-03, -6.53873803e-03, -4.24906844e-03,
       9.64119937e-03, 2.64105317e-03, -4.23894683e-03, -1.71244331e-03,
       2.32382328e-03, 1.21846031e-02, 8.55380576e-03, -2.29616853e-04,
       -4.60871402e-03, 5.56632364e-03, -4.54257056e-03, -8.31556786e-03,
       -7.64567172e-03, -1.82084891e-03, 4.10303008e-03, 6.81227958e-03,
       -2.52499548e-03, -6.58868672e-03, -5.30044734e-03, 4.29955253e-04,
       7.64498068e-03, -4.07894515e-03, 1.01149501e-03, 8.04929622e-03,
       1.56279013e-03, -2.90158158e-03, -8.13700818e-03, 2.73626996e-03,
       7.23789446e-03, 6.68171188e-03, 4.00107400e-03, 5.84559981e-04,
       4.39069560e-03, 3.91715113e-03, -6.52390532e-04, -7.30633689e-03,
       4.20482364e-03, 2.41779326e-03, -1.94251807e-05, -5.84629923e-03,
       -6.00981619e-03, -2.12077657e-03, -2.31541716e-03,
       -4.91373881e-04, -9.19163693e-03, 2.05759681e-03, -4.84156283e-03,
       6.16530236e-03, 3.68612749e-03, 8.53047520e-03, 1.85969379e-03,
       6.91439258e-03, 6.78699184e-03, -3.21614294e-04, 7.32516311e-03,
       -5.00932988e-03, 5.62641444e-03, 1.29697379e-02, 8.64493474e-03,
       4.08335356e-03, -4.96325269e-03, -2.99784075e-03, -1.14115421e-02,
       -6.68777153e-03, 1.89896673e-04, 1.59760602e-02, 1.99172809e-03,
       -3.19723389e-03, -5.68780722e-03, -2.45215185e-03, 8.53182748e-03,
       -8.35750718e-03, 1.40541820e-02, 3.77322221e-03, 1.57721192e-02,
       1.64873991e-02, 1.25255482e-02, -1.62714117e-04, -2.54849321e-03,
       2.74426211e-03, -7.03914976e-03, 4.57681995e-03, 1.06006004e-02,
       1.53478086e-02, 1.04528787e-02, 1.54668977e-03, -5.66587737e-03,
       -1.16000082e-02, 6.64499123e-03, 7.20077474e-03, 6.48264214e-03,
       -5.12862485e-03, -1.24838185e-02, -4.46649501e-03,
       -4.91974293e-04, -8.94449931e-03, -1.34413801e-02, 4.90628276e-03,
       6.13300595e-03, 1.73828937e-03, -1.11078015e-02, 9.68886714e-04,
       5.69950277e-03, 6.47836272e-03, -9.77185275e-03, -2.71637342e-03,
       1.28679117e-02, 1.70564298e-02, 1.18006449e-02, -2.81542998e-05,
       -4.13348433e-03, -5.87087183e-04, 1.74290599e-05, -9.68976039e-03,
       -5.71328728e-03, 1.68252084e-02, 1.91903003e-02, 7.55498325e-03,
       1.29550626e-03, 4.51982906e-03, 1.50172915e-02, 1.57291081e-03,
       -6.16518455e-03, -6.13059336e-03, -9.40176193e-04,
       -3.79346684e-03, -6.11272687e-03, -1.43858632e-02,
       -4.43439814e-04, 7.06396904e-03, 3.77305597e-03, -6.03638403e-03,
       -6.08206913e-03, 6.38297759e-03, 3.38988355e-03, -9.94710997e-03,
       -7.58505333e-03, 1.00557425e-03, 1.43615911e-02, 1.19931586e-02,
       2.07080529e-03, -9.78348963e-03, 1.67921372e-02, 1.46303009e-02,
       -6.25122199e-03, -1.50405448e-02, 3.69317178e-03, 1.11448765e-02,
       4.66059381e-03, -4.19318350e-03, 6.96228584e-03, 1.81272421e-02,
       1.96736399e-02, -6.29183487e-04, -1.10192206e-02, 1.74779014e-03,
       1.48214661e-02, 1.78512391e-02, 7.31029548e-03, -4.81627882e-03,
       3.27982195e-03, 5.41798421e-04, -1.23883747e-02, -1.69221759e-02,
       -6.81149727e-03, 6.58345688e-03, 6.62193121e-03, -3.32072470e-03,
       6.00645086e-03, 1.56674236e-02, 1.24449506e-02, -1.12176524e-03,
       2.66059506e-04, -1.14438934e-02, -4.45422996e-03, 3.62892472e-03,
       -3.69290914e-03, 4.18268889e-03, 1.94026940e-02, 1.34672076e-02,
       1.03569613e-03, -1.76159274e-02, -1.10447602e-02, 8.21244717e-03,
       9.60653834e-03, -5.78461681e-03, 2.03328254e-03, 1.54733472e-02,
       1.17277792e-02, 9.50550940e-03, -4.72938037e-03, -1.72244501e-03,
       -1.84343802e-03, 6.56271633e-03, -5.21942833e-03, 7.34907808e-03,
       1.04666101e-02, 6.46667136e-03, -7.36845890e-04, -1.05145422e-03,
       -1.33366492e-02, -4.24059574e-03, 1.30334520e-03, 1.90365675e-03,
       1.19799497e-02, 1.16203502e-02, 9.47168283e-03, -3.76918586e-03,
       2.43785861e-03, -7.04813004e-03, -4.75460244e-03, 2.34401948e-03,
       7.82700162e-03, -6.49911491e-03, 6.55993680e-03, -7.07147934e-04,
       -2.59381806e-04, 2.00955677e-04, -8.04475229e-03, -5.65447006e-03,
       8.70409422e-03, -3.85369756e-03, -9.03254841e-04, 6.28222339e-03,
       5.20924432e-03, -6.72085583e-03, -3.27369315e-03, -4.19587013e-04,
       -1.43371828e-04, 1.27933417e-02, -4.69827000e-03, 3.58986761e-03,
       8.90001934e-03, 5.18396357e-03, -7.74637051e-03, -3.34720663e-03,
       -1.02270572e-02, -8.64576176e-03, 7.89689086e-03, 6.84536295e-03,
       3.92142544e-03, 4.32985183e-03, 4.83292760e-03, -1.39241596e-03,
       -9.76482499e-03, -5.49372938e-03, -1.17413118e-03, 5.85314911e-03,
       8.00213590e-03, -5.31698111e-04, 5.08149853e-03, 8.33704136e-03,
       -1.09973988e-02, -4.13327198e-03, 6.81747857e-04, -5.51686855e-03,
       9.24166199e-03, 6.65690168e-04, -2.87958235e-03, 2.30260473e-03,
       9.28958505e-03, 4.86257013e-05, 1.19456009e-03, 7.21296587e-04,
       -6.98518008e-03, 5.54976799e-03, -3.33470223e-03, -1.30843910e-04,
       4.19454928e-03, -5.56685321e-04, -2.43892806e-04, -8.41482822e-03,
       -1.38165208e-03, 1.98716554e-03, 5.64510981e-03, 2.25667073e-03,
       4.09355666e-03, 9.05949157e-03, 6.36552926e-03, 6.90075941e-03,
       6.02641725e-04, 1.36102475e-02, 1.26012776e-03, 1.14113244e-03,
       3.99859203e-03, -9.96917021e-04, 7.05485092e-03, 4.88118501e-03,
       2.96215690e-03, -6.93751080e-03, 1.58317946e-03, -4.63068718e-03,
       -2.75810529e-03, -6.44903723e-03, 4.22934443e-03, 8.26266874e-03,
       6.02551224e-03, 1.02368649e-02, 2.39607412e-03, 1.11713838e-02,
       4.23620641e-03, 1.96178001e-03, 8.77078506e-04, 8.27057473e-03,
       1.38751939e-02, 6.85135648e-03, 4.34751343e-03, 4.84875112e-04,
       4.91091050e-03, 2.86363269e-04, 4.28570667e-03, 1.13975722e-02,
       -4.42448119e-03, 6.12436561e-03, 1.44758518e-03, 4.72691329e-03,
       -1.42602701e-04, -1.35461120e-02, -2.77077826e-03,
       -3.83647368e-03, 8.57151172e-04, 5.26576769e-04, 5.58570214e-03,
       9.80573520e-03, 3.20143695e-03, 3.87230376e-03, 8.08341894e-03,
       5.76206157e-03, 2.73229205e-03, 5.80247957e-03, -1.01927044e-02,
       -7.39640964e-04, 3.31215630e-03, 2.12745252e-03, -6.36732066e-03,
       -5.96399466e-03, 2.52760528e-03, 5.76506555e-03, -7.85741583e-03,
       -2.50381156e-04, 1.73246348e-03, 3.95779591e-03, 6.75657624e-03,
       9.14172921e-03, -6.85399724e-03, 3.01878597e-03, 4.82712546e-03,
       4.85024834e-03, 3.78379948e-04, -2.62746820e-03, 1.92078890e-03,
       5.77071542e-03, 1.93407736e-03, 1.08292955e-03, 9.06896312e-04,
       9.97616630e-03, 4.42981953e-03, 1.43742643e-03, 3.85665847e-03,
       1.36170611e-02, 8.55063833e-03, -1.56888214e-03, -6.79472811e-04,
       1.00649586e-02, 1.33079197e-02, -2.79030274e-03, 1.85324869e-03,
       4.32584871e-04, 5.13851549e-03, 2.91601010e-03, -3.60515458e-03,
       -6.48883404e-03, 6.99067069e-03, 1.06217340e-02, -1.71648583e-03,
       -4.15303092e-03, 2.53110542e-03, -1.27498398e-03, 1.30996516e-03,
       5.23023587e-03, 3.62671679e-03, -5.99594275e-03, 5.36356913e-03,
       4.94679960e-04, 1.26665214e-03, 1.07681081e-02, 1.80664193e-03,
       1.07657136e-02, 1.16077578e-02, 2.28477847e-02, 5.59135294e-03,
       7.80691206e-03, 2.94770789e-03, -8.80931225e-03, -4.94203577e-03,
       -1.53820857e-03, -3.60109407e-04, -2.83984561e-03, 2.28991499e-03,
       9.80408676e-03, 1.00936107e-02, -8.66068760e-04, -6.20531710e-03,
       -4.46220161e-03, -3.02104210e-03, 1.34552941e-02, 4.47566528e-03,
       1.64488647e-02, 8.72130599e-03, 6.85961684e-03, 2.01305747e-03,
       -1.74594449e-03, 3.95159004e-03, -2.98436894e-03, 3.97374621e-03,
       1.19300941e-02, 1.59846079e-02, 6.52996125e-03, 3.55355558e-03,
       -4.89727966e-03, 1.61655119e-03, -2.27534352e-03, 5.69245499e-03,
       6.61464641e-03, 1.33695547e-02, 5.63242799e-03, 7.68905738e-03,
       2.91051553e-03, -3.10526183e-03, -2.01227143e-03, 3.05073831e-04,
       -1.39342260e-03, 6.54559163e-03, 6.69110473e-03, 1.36524355e-02,
       -4.01420286e-03, -5.25699649e-03, -5.16076433e-03, 5.94666973e-03,
       2.23484891e-03, 3.75353172e-03, 2.22177431e-03, 1.01952245e-02,
       3.39127658e-03, -8.62274505e-03, -2.97723641e-03, 3.85549298e-04,
       7.37604173e-03, -3.24908458e-03, 9.92105226e-04, 1.66042813e-03,
       1.59884822e-02, 1.08426642e-02, 6.47491217e-03, 1.46278297e-03,
       2.65217037e-04, 5.64759504e-03, -7.66042015e-03, -2.42361636e-03,
       4.34174319e-04, 1.57757942e-02, 1.24839246e-02, 8.66759196e-03,
       6.36862498e-03, 8.68069660e-03, -2.73340358e-03, -2.89894524e-03,
       -4.54312144e-03, -3.28344340e-03, 1.09077934e-02, 1.11655076e-03,
       -5.98721812e-03, -8.69638566e-03, -3.35583789e-03,
       -1.61252497e-03, -1.06360344e-02, -1.47413192e-02,
       -5.42535586e-03, 7.70526845e-03, 9.47541557e-03, -3.66574805e-03,
       -1.01409117e-02, -7.16412440e-03, 1.16351973e-02, -3.14804423e-03,
       3.60596133e-03, 5.75782266e-03, 1.24157816e-02, 8.75192415e-03,
       -2.19247653e-03, 2.88250297e-03, 1.79768763e-02, -1.11994869e-03,
       -7.95552600e-03, -6.06140727e-03, 1.44228060e-03, 3.11918231e-03,
       5.64804114e-03, -4.71208524e-03, -2.38809662e-05, 9.41138994e-03,
       8.53271130e-03, -2.37723696e-03, -1.37510272e-02, -1.54300721e-03,
       1.94708491e-03, 8.50641914e-03, -5.57766121e-04, -4.48199920e-03,
       5.67366183e-03, 2.84527545e-03, -8.47244915e-03, -9.94379539e-03,
       4.67953592e-04, 7.67294783e-03, 1.86289195e-02, -9.08414717e-04,
       -5.29266894e-03, 6.53046509e-03, -2.98135658e-03, -5.54762967e-03,
       -7.22205080e-03, 1.09387984e-04, 3.68193537e-03, 4.68014245e-04,
       5.82525099e-04, 1.01884187e-03, 4.58146166e-03, -4.88454662e-03,
       -7.08867423e-03, -6.47325162e-03, 2.22819881e-03, 3.12634092e-03,
       -8.12199805e-03, -1.20932097e-02, -1.35502210e-02, 1.11570663e-03,
       3.70619213e-03, -6.19248720e-03, -3.94892553e-03, -6.41293474e-04,
       9.41584725e-03, 2.00605895e-02, -3.18607963e-05, 1.94056088e-03,
       4.46793297e-03, 3.48602701e-03, -1.82811578e-04, 4.37502423e-03,
       1.98864029e-03, 7.21178763e-03, 9.92211048e-03, -1.06277550e-03,
       -4.22747619e-03, 5.29500889e-03, -9.90850458e-05, -5.50105982e-03,
       -8.46972689e-03, 2.39103241e-03, 8.43703747e-03, -3.40711116e-03,
       -6.40614191e-03, -4.67943959e-03, 7.61006773e-03, -3.98073904e-03,
       -7.41757220e-03, -1.24444161e-02, 3.98700684e-03, -3.33929644e-03,
       8.19071545e-04, -2.28832103e-03, 6.50307455e-04, -4.00581583e-03,
       4.70975228e-03, -2.34331982e-03, -4.48417617e-03, 2.24189530e-03,
       9.81910434e-03, 7.91353825e-03, -1.91385939e-03, -2.29045027e-03,
       6.22037938e-03, 3.37518146e-03, -7.00382097e-03, -1.45099079e-02,
       -2.75220722e-03, 6.40042033e-03, 8.33290629e-03, 4.70663392e-04,
       -5.04882261e-03, 2.12689606e-03, -2.89748679e-03, 8.14485305e-04,
       -8.01787432e-03, 1.31369866e-02, 1.07644433e-02, 2.04981845e-02,
       1.02066630e-02, 7.35580630e-04, -2.25599785e-03, -4.87828534e-03,
       3.71209113e-03, -8.84288177e-03, 1.34300243e-03, 4.67476342e-03,
       2.73027900e-03, 4.24478529e-03, -6.47160364e-03, -1.35831498e-02,
       3.51917837e-03, -4.23641363e-03, -1.25926957e-02, -2.11284356e-03,
       1.64497569e-02, 2.53526680e-02, 1.58541631e-02, 7.45689438e-04,
       9.20115225e-03, -5.34867076e-03, -9.81031358e-03, -1.95218902e-02,
       -1.00488001e-02, 5.50787989e-03, 8.81298212e-04, 5.02518751e-03,
       2.81186518e-03, -4.17714193e-03, -4.34479536e-03, 6.34489628e-03,
       2.68160622e-03, -3.78659391e-03, 4.74115973e-03, -7.47453421e-03,
       -4.78235492e-03, -4.89524938e-03, -1.02432277e-02,
       -8.90590809e-03, 1.28406351e-02, 1.46247987e-02, -6.50727050e-03,
       -6.22646092e-03, -1.11360010e-02, -2.23768689e-03,
       -8.76087043e-03, -1.13558890e-02, 3.52078956e-03, 9.04608145e-03,
       4.73992247e-03, 2.40676047e-04, 9.00581665e-03, 4.32456029e-04,
       -3.34709114e-03, -5.10835554e-03, -4.79718531e-03, 9.19386628e-04,
       1.46935266e-02, 1.81982089e-02, 1.31307133e-02, 5.28884446e-03,
       -7.57165812e-03, 2.97368737e-04, 9.91473324e-04, -2.70446693e-03,
       -1.08244279e-02, 1.44521650e-02, 1.62333567e-02, -6.25744881e-03,
       -2.16634423e-02, -8.36967211e-03, 2.05472880e-03, -4.37938329e-03,
       -8.02739989e-03, -2.94058025e-03, 2.58277562e-02, 1.93957277e-02,
       -8.05302896e-03, -2.58670561e-02, -2.19983701e-02,
       -5.22014964e-03, -2.54920241e-03, -1.05500023e-03,
       -6.60359906e-03, 1.56120704e-02, 2.07767785e-02, 4.77157626e-03,
       -4.01758496e-03, -4.66444856e-03, 2.25651986e-03, 3.27393715e-03,
       -4.34295414e-03, 3.46188876e-03, 1.85957476e-02, 1.71012897e-02,
       -3.61336675e-03, -2.00236011e-02, -2.03806702e-02,
       -3.85960890e-03, -5.24989911e-04, 4.88635525e-03, -3.74956144e-04,
       2.48539746e-02, 1.57676004e-02, 3.04612424e-03, -1.82898715e-02,
       -1.35583188e-02, 1.25739840e-03, 3.60753550e-03, -7.88630731e-03,
       -4.95646428e-03, 1.42730493e-02, 2.52770260e-03, 6.81670383e-03,
       2.70518032e-03, -4.63402970e-03, 2.16244464e-03, 5.32948738e-03,
       -1.72890499e-02, 2.10071239e-03, 1.91253759e-02, 1.35906041e-02,
       1.97727641e-04, -2.31228434e-02, -1.65893398e-02, -4.15825378e-03,
       -1.60428020e-03, -5.69978496e-04, -8.32219981e-03, 7.96648581e-03,
       6.75031543e-03, 8.31523910e-03, -2.62593408e-03, -1.50232362e-02,
       3.10591399e-03, 2.05619354e-03, -1.06640421e-02, -8.54641944e-03,
       1.08753750e-02, 1.64653454e-03, -2.60393159e-03, 1.29031483e-03,
       -7.53146457e-03, -1.21695711e-03, 6.89423410e-03, -1.23348404e-02,
       6.28478185e-04, 1.18503505e-02, 3.58267245e-03, -5.05688135e-03,
       5.73703088e-03, -1.22823159e-03, -4.69848514e-03, 5.87918982e-03,
       -2.26679957e-03, -4.81410045e-03, 1.02476627e-02, 6.42213365e-03,
       -5.57045499e-03, 4.92355721e-05, -1.89547259e-02, -3.18672042e-03,
       -5.68026211e-04, -9.57411621e-03, 8.15270003e-03, 1.57330204e-02,
       9.26632807e-03, -3.17234383e-03, 8.64059012e-03, -1.54160075e-02,
       -9.91741382e-03, -2.76632910e-03, 1.56751869e-03, 4.11636522e-03,
       1.23299332e-02, 2.62635667e-03, -5.00471657e-03, 3.99706839e-03,
       -1.18307339e-03, -6.86895289e-03, 5.76656032e-03, -4.28732857e-03,
       4.48652916e-03, 1.43040568e-02, 1.33929793e-02, 4.61019808e-03,
       -3.15927435e-04, 4.78093419e-03, -1.03234537e-02, -4.14517795e-04,
       -5.97798591e-03, 7.33646052e-03, 1.11045102e-02, 4.59972396e-03,
       -3.73859773e-04, 5.01389499e-04, -2.85396655e-03, -7.50654191e-03,
       1.07913360e-03, 2.41763331e-03, 1.81167654e-03, 3.96304717e-03,
       -5.61939960e-04, 3.18129431e-03, 5.00635384e-03, 1.18380890e-03,
       -9.31077637e-03, -3.37454258e-03, -3.50101315e-03, 3.54228239e-03,
       1.18552390e-02, 4.89848852e-03, 3.73275182e-03, -2.39465944e-03,
       3.88824637e-03, -7.50568043e-03, -3.61029734e-03, -6.19560014e-03,
       7.70956278e-03, 4.45895502e-03, 3.98288853e-03, 1.12287067e-02,
       5.46694454e-03, 8.55578203e-03, 8.12584441e-03, 5.71709638e-03,
       3.69562185e-03, -7.61108473e-03, -1.96186593e-03, -2.50748987e-03,
       4.86580981e-03, -6.94213063e-03, 1.58793922e-03, -5.86295454e-03,
       -5.30932192e-03, -4.82363347e-03, 6.65826883e-05, -3.33369197e-03,
       -2.26903940e-03, 1.56016648e-02, 4.51461179e-03, 8.22339766e-03,
       5.89940930e-03, 5.99390687e-03, 1.19102718e-02, -3.89578845e-03,
       -1.93057954e-03, 7.14636641e-03, 7.20828725e-03, 1.08783180e-02,
       5.38732251e-03, 6.41181460e-03, -5.13723877e-04, -1.62062526e-04,
       -1.25597520e-02, -3.79054039e-03, 1.83801295e-03, -4.46996745e-03,
       6.39326870e-03, 4.87919478e-03, 5.88254211e-03, 2.65162648e-03,
       -5.92836877e-03, -3.51737207e-03, -2.38455203e-03, 2.29939105e-04,
       1.79064963e-02, 7.81470630e-03, 8.63962062e-03, 8.56827386e-03,
       9.97185009e-04, 6.72251126e-03, -9.73891467e-03, -3.11835785e-03,
       -3.68296937e-03, 9.74834489e-04, 7.55529897e-03, 1.19955027e-02,
       7.89675396e-03, -6.70530414e-03, -5.53534646e-03, 3.28540616e-03,
       8.88745021e-03, 1.14635937e-02, 3.97905521e-03, 1.03871953e-02,
       4.33722790e-03, 7.46495137e-03, 6.80713588e-03, 7.62500218e-04,
       2.51689530e-03, -1.28293037e-03, -1.33900510e-04, -3.77522665e-03,
       -1.17897766e-03, -5.69168851e-03, 3.07269185e-03, 2.08878866e-03,
       8.72693781e-04, -1.50186161e-03, 4.27609496e-03, 1.02378502e-02,
       1.98728289e-03, 1.34583144e-02, 1.38183450e-02, 8.48883763e-03,
       1.48067193e-03, 3.13492212e-03, -6.81157224e-03, -2.57014646e-03,
       -5.81145845e-03, -1.18969316e-02, -1.06388121e-03, 5.41454088e-03,
       7.62434257e-03, 5.22390753e-03, -1.49743434e-03, -4.84347489e-04,
       -3.03322263e-03, 1.62911034e-04, 4.30187414e-04, 2.64258287e-03,
       4.63214284e-03, 1.01959975e-02, 1.32169034e-02, 6.32917834e-03,
       7.25251739e-04, -5.95631963e-03, -2.63586384e-03, 8.87981895e-03,
       3.39524588e-03, 9.17687267e-03, 7.93725811e-03, 1.07764099e-02,
       7.90620036e-03, 1.31047843e-03, 2.25212294e-04, -6.21239655e-03,
       -1.61816925e-02, -1.06335478e-03, 9.38472711e-03, 9.65208467e-03,
       6.15023822e-03, -3.63759999e-03, 8.26805946e-04, -1.65305508e-03,
       -4.49775392e-03, -6.53480086e-03, -1.23904354e-03, 7.69217219e-03,
       -3.36888223e-03, -5.32715907e-03, -2.34359200e-03,
       -9.21126513e-04, 1.14347451e-04, -4.09584912e-03, 1.86946453e-03,
       4.35145991e-03, 2.65205954e-03, -4.40538488e-03, -2.28614849e-03,
       -4.51579021e-04, 8.59836489e-03, 1.50346744e-03, -6.07808912e-03,
       -8.75227852e-05, 1.06737334e-02, 6.57093897e-03, 4.46858467e-04,
       -6.39609876e-04, 8.63257330e-03, -4.75474820e-03, -3.68866650e-03,
       -9.13878903e-03, -4.36998345e-03, -2.40712077e-03,
       -5.01766615e-03, -4.29487228e-03, -9.31236427e-03,
       -3.51426983e-03, 8.09455756e-03, 5.08080795e-03, -1.34197557e-02,
       -1.98580651e-03, 6.61004474e-03, 8.62015691e-03, 4.36213287e-03,
       2.14126823e-03, 1.03159901e-02, 8.96277558e-03, -1.85063703e-03,
       -1.05936760e-02, -2.94831954e-03, 1.30384378e-02, 7.93428160e-03,
       -2.51788413e-03, 4.24965605e-04, 2.74245255e-03, 9.58180148e-03,
       -6.36499003e-03, -1.88542046e-02, -4.80031874e-03, 7.19493069e-03,
       2.56511383e-03, -1.37219951e-02, -6.04266068e-03, -1.05902995e-03,
       1.40891504e-02, 9.49836336e-03, -9.90912039e-03, 6.58071460e-03,
       8.56921170e-03, 9.22411960e-03, 2.48948927e-03, 7.63417734e-03,
       9.33872629e-03, 1.18937651e-02, 5.22991549e-03, -1.53156789e-03,
       1.05141811e-02, 2.89349973e-05, -5.68466447e-03, -1.58359092e-02,
       -1.46106828e-03, 1.14070792e-02, 1.48846582e-02, -7.26634078e-03,
       -1.88423023e-02, -1.75133103e-03, 5.62782912e-03, 4.26580431e-03,
       -1.07888179e-02, -2.79195048e-03, 8.23067036e-03, 2.39404547e-03,
       -3.52870487e-03, -1.04315439e-02, 6.33142283e-03, 1.41902883e-02,
       2.68003866e-02, -5.35532134e-03, -6.14697766e-03, 3.21116438e-03,
       2.38233106e-03, -3.79109755e-03, -5.31469379e-03, 5.35025867e-03,
       9.44316015e-03, 7.97789730e-03, -1.96420643e-02, -8.83408636e-03,
       1.34990062e-03, 1.81491999e-03, -5.13773691e-03, -5.63644338e-03,
       7.28976727e-03, 1.23527339e-02, 1.93550996e-02, -8.04647617e-03,
       -1.18232146e-02, -4.70895926e-03, 3.45496554e-03, -2.29754858e-03,
       -3.26584931e-03, 5.89067256e-03, 1.67852156e-02, 1.38952704e-02,
       -8.07869423e-04, -4.02054563e-03, 2.00718082e-03, -1.33476441e-03,
       5.58750944e-05, 4.01190203e-03, 1.41080620e-03, 2.69402051e-03,
       -2.74351938e-03, -4.72110882e-03, -3.53959505e-03,
       -3.38613230e-04, -4.83342999e-04, -1.83487730e-03,
       -2.93591619e-03, 1.21116806e-02, 1.44483950e-02, 7.33256945e-03,
       -3.11464840e-03, -1.24613307e-02, -4.64246795e-03,
       -2.66320514e-03, -4.90987580e-03, -8.14340357e-03, 1.92260300e-03,
       3.38542042e-03, -6.60457695e-03, -1.55882873e-02, -9.84654203e-03,
       -2.86558503e-03, -2.97828438e-03, -4.51091211e-03,
       -4.81498381e-03, 8.85315414e-04, 1.19616175e-02, 8.97639059e-03,
       -1.54544867e-03, -9.28583206e-04, 2.04376876e-03, -4.91068326e-03,
       -1.15629034e-02, -1.76437106e-02, -1.28373923e-02, 4.75536985e-03,
       8.28114618e-03, 3.09062842e-03, -7.88868172e-04, 5.50398603e-03,
       -6.54176390e-03, -5.79384109e-03, -8.69640801e-03,
       -3.03527038e-03, 1.19031854e-02, 1.94969669e-03, -9.01537575e-03,
       -7.40486989e-03, -3.59847653e-03, -1.15002589e-02,
       -1.22190639e-02, -1.93231758e-02, -1.03740031e-02, 6.63595926e-03,
       7.89183378e-03, -3.02182161e-04, 1.99111737e-03, -3.20146466e-03,
       -4.34104213e-03, -1.15922755e-02, -1.14592891e-02,
       -8.10514204e-03, 1.74207184e-02, 2.38543563e-02, 6.28843391e-03,
       -5.99726336e-04, 1.06702317e-02, -2.02623140e-02, -1.79844089e-02,
       -1.73669457e-02, -1.56626794e-02, 1.01289228e-02, 7.91149493e-03,
       4.14055586e-03, -4.81307460e-03, -1.07995169e-02, -7.99789745e-03,
       -4.34189802e-03, -1.08074481e-02, -6.04376290e-03, 1.55632049e-02,
       2.25905497e-02, 3.82731133e-03, 1.21103972e-03, -2.95359548e-03,
       -1.90340225e-02, -9.08644684e-03, -1.50459548e-02,
       -1.08899875e-02, 6.87008817e-03, 1.79683585e-02, 7.49883428e-03,
       1.75232970e-04, -1.38286073e-02, 2.56906962e-04, -5.15782041e-03,
       -4.00638644e-04, -3.76251712e-03, 6.55432697e-03, -4.09932900e-03,
       -8.80688149e-03, -9.73331463e-03, -9.58225876e-03, 3.68972542e-03,
       8.59752018e-03, 1.41179049e-02, 8.75103101e-03, 8.53233226e-03,
       -1.37248654e-02, -1.23109929e-02, -6.84943888e-03,
       -5.91828953e-03, -2.43880809e-03, -5.89084928e-04, 1.36965159e-02,
       2.57069618e-03, 1.00434618e-02, 8.05444724e-04, -8.16371571e-03,
       -1.04644150e-02, -2.97515909e-03, 1.50155285e-02, 5.86302951e-03,
       1.36579713e-02, 9.59970430e-03, 1.38684418e-02, -2.44695111e-03,
       -1.18717793e-02, -8.80425517e-03, 4.70484188e-03, -3.21826176e-03,
       6.55700266e-03, 1.23143680e-02, 3.49020702e-03, 3.34549788e-03,
       -5.98456943e-03, 3.13583855e-03, -3.19185480e-03, -6.86818082e-03,
       -4.21284605e-03, 6.01616083e-03, 7.02481717e-03, -1.33171091e-02,
       -2.08562259e-02, -2.26280112e-02, -8.62691831e-03,
       -6.59609400e-03, -1.99813419e-03, 1.07123898e-02, 7.64112221e-03,
       7.62060657e-03, 1.18268859e-02, 1.08586466e-02, -4.02323855e-03,
       9.51487687e-04, 6.24502730e-03, 7.44375540e-03, 1.60046332e-02,
       1.52216246e-02, 7.21342349e-03, -5.04715834e-03, -5.93154784e-03,
       -1.14330882e-02, 2.13229749e-03, 5.57920523e-03, 1.43294949e-02,
       1.04620829e-02, 1.64786894e-02, 1.49605703e-02, -6.66108308e-03,
       -1.44721894e-02, -2.25239452e-02, -5.18710632e-03,
       -4.91314393e-04, 7.59293372e-03, -1.21118804e-03, 6.98590558e-03,
       8.52254312e-03, -1.17402822e-04, -5.07487450e-03, -2.04344448e-02,
       -1.24230876e-03, -1.32862467e-03, -2.07614875e-03, 1.44641772e-02,
       1.20598115e-02, 5.66059025e-03, 1.91229209e-03, -9.24556889e-03,
       -9.08863824e-03, -1.40681898e-03, 4.77332715e-03, 9.19113588e-03,
       -5.86646842e-04, 1.74594659e-03, -5.19403198e-04, 3.18193389e-03,
       -7.84313679e-03, -2.17686817e-02, -4.59991721e-03, 3.97620117e-03,
       -4.32453956e-03, -7.14352529e-04, 5.93917724e-03, -4.15967515e-04,
       -4.82419087e-03, -1.08577469e-02, -1.81161035e-02, 4.65719216e-03,
       2.06292397e-03, -4.76970105e-03, 6.03303406e-03, 5.84473042e-03,
       -9.89050604e-05, -1.10690929e-02, 5.16117364e-03, -9.47210658e-03,
       7.29787955e-03, 4.80729248e-03, 4.58370429e-03, -3.41729814e-04,
       7.19454465e-03, -3.11353384e-03, -4.23924020e-03, -1.01573877e-02,
       -2.22478490e-02, -7.57639762e-03, -4.55361046e-03,
       -8.33860319e-03, 6.27393369e-03, 5.06894605e-04, -1.06390892e-02,
       -8.13979469e-03, 1.54930935e-03, -1.61253591e-03, 6.49495609e-03,
       7.38043431e-03, 7.49297673e-04, -1.45492807e-03, -1.14511931e-03,
       -7.07861641e-03, -8.21048114e-03, -7.09888758e-04,
       -6.87011937e-03, 6.62512565e-03, 7.88025465e-03, 9.22702777e-04,
       -6.67073810e-03, -2.57213204e-03, -9.93946940e-03, 4.61525144e-03,
       1.17365643e-02, -2.16699741e-03, -1.86578394e-03, 7.17824278e-03,
       -2.26769620e-03, 2.96202535e-03, -1.30054774e-03, -1.42512359e-02,
       -4.36221436e-03, 7.17383483e-03, 6.21875748e-03, 1.23875644e-02,
       1.05583519e-02, -3.94188380e-03, 5.57091506e-03, 7.94239808e-03,
       -5.90390945e-03, 1.12547046e-02, 2.09126621e-02, 1.26907192e-02,
       8.18004366e-03, 6.03506283e-04, -5.23636537e-03, -1.01456838e-02,
       4.96513385e-04, -5.70747675e-03, 6.99118571e-03, -4.21106815e-03,
       -1.30333204e-03, -6.66429813e-04, -1.49974730e-04,
       -8.66098050e-03, 2.49317731e-03, 1.24327478e-03, -3.24770599e-03,
       1.61120016e-02, 1.17673837e-02, 9.88686178e-03, 7.91334454e-03,
       1.04427356e-02, 8.47074017e-03, -1.00069905e-04, 6.51456509e-03,
       -4.22493927e-03, 8.86357762e-03, 3.76224378e-03, 6.36447687e-03,
       -2.38949805e-03, -4.91638342e-03, -6.73576724e-03, 4.38873004e-03,
       1.43046083e-03, -2.40016775e-03, 1.82003938e-02, 6.55124197e-03,
       8.52182880e-03, 6.31218450e-03, 8.29650462e-03, 1.56937004e-03,
       5.70202805e-03, 1.14428008e-03, -4.22644801e-03, 1.71625521e-02,
       3.51117388e-03, 1.19520966e-02, 6.65744161e-03, 3.36266309e-03,
       9.11974814e-03, 1.90427050e-03, 4.82744246e-04, -7.22585304e-04,
       8.10321071e-04, 1.39555265e-03, 1.24523276e-02, 4.36876109e-03,
       -3.29550821e-03, 2.36015985e-04, 1.65492878e-03, 1.16350665e-03,
       -3.76388989e-03, 7.21956417e-03, 9.22444684e-04, 2.56350171e-03,
       -3.18745268e-03, 3.91213177e-03, 5.44982590e-03, 4.94627981e-03,
       6.36930857e-03, 8.47949646e-04, 2.78078928e-03, -5.99848619e-03,
       2.22763233e-03, -6.63637125e-04, 4.25565289e-03, 2.10118643e-03,
       6.57149311e-03, 8.00061692e-03, 8.72353930e-03, 3.10588069e-03,
       7.35600013e-03, 2.16734502e-02, 1.21357059e-02, 5.93668036e-03,
       4.54471726e-03, 4.84275492e-03, -3.11865238e-03, -7.01914541e-03,
       -1.45536400e-02, -1.87896146e-03, 1.62917897e-02, 1.75479781e-02,
       1.69708598e-02, 5.51233999e-03, 8.98792641e-04, 4.77135926e-03,
       9.42102983e-04, 8.35981686e-03, 2.15718825e-03, 1.13523444e-02,
       6.15996076e-03, 5.26941195e-03, -7.82851130e-03, 8.43683199e-04,
       -4.13510157e-03, -7.47094490e-03, -1.63568817e-02,
       -3.85350222e-03, 7.81387649e-03, 8.44606757e-03, 6.75355317e-03,
       -2.57876352e-03, -1.74149685e-03, 1.03909685e-03, -6.84304768e-03,
       -2.21515447e-02, -7.12282257e-04, 1.26324557e-02, 1.52185196e-02,
       1.23437038e-02, -7.16797356e-03, 1.08850736e-03, 2.05268990e-03,
       -7.87738618e-03, -1.41072804e-02, -3.34291661e-04, 6.13819482e-03,
       7.16719730e-03, -3.77758825e-03, -8.58063251e-03, 4.20527579e-03,
       -2.61423178e-03, -6.45824848e-03, -1.70308035e-02, 1.11566612e-03,
       1.26676438e-02, 1.26318270e-02, 1.25883175e-02, 3.50861973e-03,
       6.17303606e-03, 1.95766590e-03, -8.97619314e-03, 4.53223987e-03,
       1.13420514e-02, 1.54977618e-02, 2.10502259e-02, 1.03652775e-02,
       -2.83309200e-04, 2.97254790e-03, 9.24494758e-04, -8.78401101e-03,
       -8.95834528e-03, 3.40542546e-03, -3.66235571e-03, -6.35198085e-04,
       -1.14379998e-03, 2.01088167e-03, 5.46237966e-03, 4.25412739e-03,
       -7.58765824e-03, -9.06243641e-03, 7.01059029e-03, 6.44621765e-03,
       5.77876298e-03, 6.88931067e-03, 2.61754519e-03, 4.86032525e-03,
       3.67881381e-04, -1.34243285e-02, -5.86382300e-03, 7.58045213e-03,
       2.20677862e-03, 4.46112221e-03, 4.84466692e-03, -2.39106989e-03,
       2.79033254e-03, 3.91833630e-04, -7.72691844e-03, -1.41309621e-02,
       -4.28458164e-03, 9.66017600e-04, -1.84311648e-04, -1.30770146e-03,
       -1.93125772e-04, 7.94763956e-03, 9.47938394e-03, 3.66681081e-04,
       1.25986699e-03, 3.37877567e-03, 6.48118090e-03, 2.04512291e-03,
       5.68783842e-03, 3.64312460e-03, 8.07710178e-03, 7.58767826e-03,
       2.58557638e-03, -8.87923932e-04, -4.75044688e-03, 2.40490213e-03,
       -8.77188332e-03, 2.35257740e-03, 6.84603537e-03, 3.66645888e-03,
       8.48699547e-03, 4.54360107e-03, 2.82311492e-04, 1.51941646e-03,
       1.54462992e-03, -1.85994885e-03, -7.55413857e-05, -3.62218637e-03,
       1.22537902e-02, 3.47696152e-03, -9.80045064e-04, -3.66093614e-03,
       -8.32266826e-03, 5.31720323e-03, -3.67313763e-03, -3.30539676e-03,
       1.04620419e-02, 3.11868684e-03, 5.80059597e-03, -1.04770786e-03,
       -1.78458868e-03, 8.89315084e-03, -9.81268458e-05, -1.34028401e-02,
       -8.52085371e-03, -1.74639747e-03, 4.78163734e-03, 3.67506547e-03,
       5.51658508e-04, 3.86945857e-03, 8.55696760e-03, 1.32754408e-02,
       -7.69833755e-03, -1.39569184e-02, -1.11057721e-02, 1.25126196e-02,
       8.65693204e-03, 1.76825945e-03, -1.82854629e-03, 7.30636669e-03,
       1.07764825e-02, -5.16194012e-03, -4.85768775e-03, 8.97918176e-03,
       1.36931073e-02, 7.11964210e-03, -1.07470842e-03, 1.10099660e-02,
       2.05379864e-03, 1.52550498e-02, -9.30681732e-03, -7.96113349e-03,
       3.71458870e-03, 1.89981202e-03, -4.21889732e-03, -1.03575550e-03,
       1.32437451e-02, 1.64093394e-02, 1.25937732e-02, -8.99105333e-03,
       -1.27338748e-02, -4.17790143e-03, -6.99708704e-03,
       -1.03007108e-02, -8.92780069e-03, 1.38616166e-03, 8.83263908e-03,
       -8.85100383e-03, -1.31610828e-02, -1.12418300e-02,
       -7.87025038e-03, 1.09304180e-02, 4.00944147e-03, -5.87904546e-03,
       1.78902801e-02, 1.29047940e-02, 2.10912228e-02, -6.32596109e-03,
       -6.37727510e-03, 9.10012610e-03, 1.70964468e-03, -5.33708511e-03,
       -4.70008515e-03, 6.01546280e-03, 9.16747376e-03, 1.35133363e-04,
       -1.34992972e-02, -7.07220333e-03, 1.46563281e-03, -5.14343986e-03,
       -2.40017171e-03, -6.54676557e-03, 3.86352791e-03, 2.81177871e-02,
       7.36735063e-03, -9.17395670e-03, -8.24265182e-03, -1.00117382e-02,
       -1.02806762e-02, -3.66154360e-04, -1.06109418e-02,
       -6.56234380e-03, 1.61542948e-02, 5.14599122e-03, -4.16271482e-03,
       1.86669989e-04, -1.01707177e-02, 8.59545486e-04, -2.76791165e-03,
       -1.17655972e-03, 3.45279602e-03, 2.29780618e-02, 5.33745112e-03,
       -9.07659438e-03, -6.52967021e-03, -2.97093205e-03,
       -3.96069232e-03, 4.73455322e-04, -8.70979484e-03, -3.69921653e-03,
       9.36993863e-03, 1.08210184e-03, -6.84697647e-03, -1.03714690e-02,
       -9.95711330e-03, -1.00010717e-02, -3.34659754e-03,
       -1.22139445e-02, -6.25125598e-03, 2.54206546e-02, 1.35697778e-02,
       -1.85823452e-03, 7.74102751e-04, -1.14254421e-02, -1.72556955e-02,
       -1.65122352e-03, -1.37096746e-02, -9.92469676e-03, 1.37491301e-02,
       1.79039668e-02, 5.57120750e-03, -1.59822681e-04, -1.58647411e-02,
       -4.73559229e-03, -1.57533877e-03, -1.31001845e-02, 1.51671935e-03,
       2.00594887e-02, 6.62274892e-03, -1.19787641e-02, -6.82865921e-03,
       -1.00598102e-02, -8.62373039e-03, -4.69961064e-03,
       -6.84762420e-03, 3.41300061e-03, 1.67858396e-02, 1.75923035e-02,
       -1.31833348e-02, -1.07022235e-02, -1.12676350e-02,
       -7.92061165e-03, -6.35376014e-03, 9.95756593e-03, 9.61295795e-03,
       2.34888345e-02, 2.85733747e-03, -1.41658252e-02, -1.45084113e-02,
       -9.11451783e-03, -6.20282767e-03, -4.27696202e-03, 1.03499880e-02,
       1.23092392e-02, 2.01570988e-02, -9.92666581e-04, -1.86564270e-02,
       -2.01516468e-02, -1.23493429e-02, -1.03676319e-02,
       -8.93067755e-03, 2.29077460e-03, 7.29358196e-03, 2.78591122e-02,
       7.53174117e-03, -1.68485604e-02, -1.70546398e-02, -1.23472800e-02,
       -1.89006086e-02, -1.56783108e-02, 2.47974228e-03, 7.68962083e-04,
       1.50275864e-02, 2.92601599e-03, -2.20166147e-02, -2.38731056e-02,
       -2.43097804e-02, 3.44449771e-03, 3.96918785e-03, 5.90528594e-03,
       1.40582612e-02, 2.19446924e-02, 1.34055561e-03, -1.07815526e-02,
       -3.46284895e-03, 4.10541520e-03, 6.60134945e-03, 1.02891782e-02,
       5.15407231e-03, 5.08688856e-03, 5.28827775e-03, -9.83792730e-03,
       -2.12985091e-03, 6.99725188e-03, 9.71211959e-03, -1.03293583e-02,
       -1.40683120e-02, -5.22312999e-04, 5.74872771e-04, 1.17559573e-02,
       4.94813314e-03, -1.75307225e-02, -1.32524753e-02, -1.32913515e-02,
       -8.51626741e-04, -5.46489656e-03, -4.48903069e-04,
       -4.55227867e-03, -1.37866742e-03, -8.20208900e-03,
       -2.36593187e-03, 1.01304731e-05, 1.67733955e-03, 6.23191847e-03,
       3.53154819e-03, -1.88250258e-03, 1.16504636e-02, 3.30037787e-03,
       -4.59286338e-03, 5.54397760e-04, 3.30085191e-03, 3.80569650e-03,
       -8.16144515e-03, 1.43907894e-03, -4.51481249e-03, 1.06337983e-02,
       -1.94579631e-03, -1.53998211e-02, -8.79458711e-03,
       -3.32203950e-03, -4.67115361e-03, -2.44340277e-03,
       -3.13096261e-03, 4.07017628e-03, 8.26686341e-03, 4.25971858e-03,
       -3.65433469e-03, 3.11378692e-03, 5.25619788e-03, 6.44505862e-03,
       -1.93543779e-03, -2.70583713e-03, -6.57830387e-03, 2.50983983e-03,
       1.14521987e-04, -1.27949100e-02, -6.54321071e-03, -5.04282070e-03,
       -5.17860800e-03, -8.43595888e-04, 1.71326485e-03, -5.31433834e-05,
       7.37689377e-04, -8.12340342e-03, -9.65611544e-03, -2.51265569e-03,
       -4.90539894e-03, -2.52045505e-03, 8.96283367e-04, -3.94498184e-03,
       -4.92713274e-03, -4.09249961e-03, 2.20786245e-03, 9.48751811e-03,
       3.55124241e-03, -1.20164594e-03, -1.00898847e-03, 3.13274562e-03,
       3.63939698e-03, 2.93688849e-03, 4.82757518e-04, 4.53239743e-04,
       -4.48988890e-03, -2.69803754e-03, -4.71802754e-03, 1.19801832e-03,
       -2.19956652e-04, -2.41039670e-03, -8.07582680e-03,
       -6.04362367e-03, 1.29718892e-03, 4.23590653e-03, -1.40642114e-05,
       -8.60569067e-03, 3.57376179e-03, -3.14558879e-03, -5.59664890e-03,
       -1.38403466e-02, -8.44211876e-03, 1.21288663e-02, 6.56425441e-03,
       4.77292389e-03, 5.30404737e-03, -4.41668509e-03, -3.20203207e-03,
       -5.21220209e-05, -8.25605169e-03, 1.85498304e-03, 2.81886421e-02,
       8.57701711e-03, 4.78622410e-03, -3.36299301e-03, -6.42950181e-03,
       -3.39608145e-04, -2.61552026e-03, -1.25523414e-02,
       -5.16764121e-03, 5.28101809e-03, -6.00696541e-04, 1.05597108e-04,
       -1.97861879e-03, 1.91265903e-03, -4.81983507e-03, -8.36734660e-03,
       -1.62081548e-03, 1.02049652e-02, 1.57222096e-02, -5.84139163e-03,
       -5.19510591e-03, -3.95686686e-04, -2.97279377e-03, 2.66496814e-03,
       7.84617662e-03, -1.15766109e-03, 1.92181359e-03, 1.31577831e-02,
       6.34467788e-03, -3.10494006e-03, -8.10522866e-03, -1.97371491e-03,
       7.79908337e-03, 5.82747487e-03, -4.79561888e-04, 1.40522774e-02,
       3.92099051e-03, 5.03426604e-03, 1.15624163e-03, -1.00049702e-03,
       4.03080788e-03, -3.23435554e-04, -3.21808294e-03, -2.14014412e-03,
       -3.93993827e-03, 8.94255564e-03, -6.55915681e-03, -4.63874778e-03,
       -3.21725709e-03, 3.82052222e-03, 5.46813523e-03, 2.14521377e-03,
       -2.62037478e-03, 1.57542352e-03, -3.56167322e-03, 3.87770473e-03,
       -3.18339537e-03, -1.03981060e-03, 9.37500782e-03, -1.25307695e-03,
       8.25731177e-03, -1.73871103e-03, 1.11453114e-02, 8.17184150e-03,
       -6.42461644e-04, -3.25160509e-04, 1.31316704e-03, -1.90851523e-03,
       2.15167738e-03, 1.10892262e-02, 3.81864747e-03, 4.83161537e-03,
       6.23069704e-03, 5.92362555e-03, -6.26432057e-03, 8.12447397e-04,
       -5.64581191e-04, -2.47207843e-03, 4.38679534e-04, 3.03133042e-03,
       9.85797495e-03, 5.81329921e-03, 7.67086516e-04, -7.30122440e-03,
       -2.18846416e-03, -2.57463311e-03, -5.02224406e-03,
       -2.12606392e-03, 1.48090243e-04, 4.50855913e-03, -2.29956047e-03,
       7.77038746e-03, -1.28400922e-02, -7.66107487e-03, -7.64168892e-03,
       7.81408884e-03, 7.92970229e-03, 3.77537333e-03, 1.45947589e-02,
       1.35369739e-02, 1.32989017e-02, 5.12811542e-03, 3.27881984e-03,
       -5.38136344e-03, 2.40787026e-03, 6.45309966e-03, -1.60356739e-03,
       -3.01626814e-03, -2.92720064e-03, 1.10130012e-03, -1.16490619e-03,
       -1.31515122e-03, -2.87421048e-03, 5.81764989e-03, 3.74840945e-03,
       6.17573643e-03, 1.25061637e-02, 9.36043635e-03, 1.57622825e-02,
       -1.14987104e-03, 1.85131584e-03, 4.80882544e-03, -3.93636245e-03,
       1.49080402e-03, 1.61785295e-03, 8.83977860e-03, -5.20811882e-04,
       2.04385631e-03, -4.72718850e-03, -1.94728491e-03, -6.54353714e-03,
       -4.21988545e-03, 4.55641840e-03, -5.07488090e-04, -3.80738848e-03,
       8.35872628e-03, 5.83348796e-03, 1.44131598e-03, -1.57139002e-04,
       -4.98308940e-03, -9.50381625e-03, 8.95253906e-04, -7.31725805e-03,
       9.03206039e-03, 1.54556977e-02, 2.15688050e-02, 1.11398883e-02,
       2.78864685e-03, -1.08378399e-02, -1.46993790e-02, -1.10516022e-03,
       -3.71819874e-03, 2.92514521e-03, 7.14767864e-03, 3.73169244e-03,
       1.75591919e-03, 4.22124693e-04, -1.19964611e-02, -1.76559296e-02,
       -3.54430615e-03, -6.82179863e-03, 3.55180632e-03, 9.51493904e-03,
       1.36305783e-02, 3.57025396e-03, 2.85729067e-03, -1.09784100e-02,
       1.51648454e-03, 8.44778214e-03, -6.87958393e-03, -6.99303299e-03,
       -3.97814263e-04, 4.61153220e-03, 6.85582915e-03, 4.62943176e-03,
       5.60559332e-04, -1.57365995e-03, 3.58159374e-03, -7.03052664e-03,
       -8.93578585e-03, -5.23807900e-03, 9.09112673e-03, -4.79966355e-03,
       -4.20023967e-03, -3.83405277e-04, 2.18223533e-04, 8.05519521e-03,
       1.73797074e-03, -6.58135302e-03, 1.20271354e-04, 6.58880174e-03,
       -2.29619583e-03, -3.80736092e-05, -1.15192216e-03,
       -1.97059847e-03, 3.86092812e-03, -9.98620759e-04, 8.97638150e-04,
       -3.32834548e-03, 8.16126540e-03, -1.98179623e-03, -2.13438296e-03,
       -2.19037407e-03, -2.39842950e-04, 1.21352146e-03, -3.18715349e-03,
       -1.68159418e-03, 1.07864784e-02, 3.18446476e-03, -7.08566373e-03,
       -3.76246078e-03, -6.81546563e-03, 1.29141109e-02, 5.69360377e-03,
       -5.37939882e-03, -1.20342616e-02, 6.54910551e-03, -3.17161757e-04,
       -9.35114827e-03, -9.83861368e-03, 6.62429491e-03, -4.45720926e-03,
       2.51958403e-03, 2.62142392e-03, 3.20454617e-03, 9.32488404e-03,
       6.96160924e-03, -3.30954930e-03, -1.10088731e-04, -4.00442211e-03,
       1.39218923e-02, 9.50871129e-03, -1.21558725e-03, -4.63530049e-03,
       5.70105109e-03, 2.13142158e-03, -5.97825740e-03, -4.61492781e-03,
       7.63088511e-03, 1.31971594e-02, -2.81664743e-05, -5.49722230e-03,
       -8.51112138e-03, 1.07334545e-02, 5.55123575e-03, -6.48384215e-03,
       -7.71507248e-03, 1.13234948e-02, 1.28920404e-02, 3.72524443e-03,
       -4.55498323e-03, 5.40688587e-03, 1.21091364e-03, 9.48674884e-03,
       -1.26658874e-02, -8.80026608e-04, 9.15761199e-03, 7.72952614e-03,
       4.85071167e-03, -6.14364492e-03, -2.39986042e-03, 7.12613948e-03,
       2.61400710e-03, -8.15190654e-03, -5.35006635e-03, 6.53321343e-03,
       1.43487221e-02, 7.53696682e-03, 6.28949143e-03, 7.37703312e-03,
       -3.19205392e-05, 6.11521397e-03, -8.70880578e-03, 6.76694908e-04,
       9.29629803e-03, 8.19166657e-03, 7.34164845e-03, -3.73881240e-03,
       1.63972955e-02, 1.82020031e-02, 8.72184243e-03, -1.02834050e-02,
       -3.18047986e-03, 2.89376639e-03, 3.95533815e-03, -1.91887288e-04,
       -4.63056006e-03, 1.57231779e-03, 5.30992541e-03, -8.14365502e-03,
       -1.54940113e-02, -4.31067683e-03, 1.95368240e-03, 1.15302578e-02,
       1.65542886e-02, 1.19680297e-02, 1.55110843e-02, 1.74231846e-02,
       -3.12140357e-04, -2.03303657e-02, -7.37240911e-03, 9.23513260e-04,
       3.71478684e-03, 8.10575206e-03, -3.89385293e-03, 4.51539294e-04,
       3.80112976e-03, -6.06277026e-03, -1.84730906e-02, -7.69256614e-03,
       -2.00822120e-04, 3.35045997e-03, 3.96072725e-03, 3.99362808e-03,
       -3.76493577e-03, 8.78182054e-03, 6.70726644e-04, -4.16772300e-03,
       -2.85887392e-03, 6.93521136e-03, 3.71381268e-03, 1.02293836e-02,
       1.57657923e-04, -5.21133980e-03, 2.26978189e-03, -2.38692365e-03,
       -7.07540661e-03, -6.94660097e-03, -5.17533394e-03,
       -1.53430749e-03, 9.01019014e-03, 5.99650154e-03, -1.33429503e-03,
       8.63713585e-03, 6.44568680e-03, -2.51524430e-03, 1.98376784e-03,
       3.76789510e-04, 4.00955556e-04, 9.00119543e-03, 4.76320321e-03,
       2.57843174e-03, -4.62820753e-03, -2.18708278e-03, -8.61912221e-03,
       -5.08865109e-03, -6.67618774e-03, 4.95798653e-03, 9.02208127e-03,
       -4.79205558e-03, -2.37616152e-03, 1.88474953e-02, 6.55683782e-03,
       -5.23840170e-03, 2.87680508e-04, -5.51369600e-03, -7.63167441e-03,
       7.92397768e-04, -3.67208081e-03, 3.23205465e-03, 2.04790793e-02,
       8.48675612e-03, -1.17714778e-02, -1.13247046e-02, -1.13426307e-02,
       -4.45994735e-03, 6.98699243e-03, -3.62613099e-03, -3.82156635e-04,
       5.83026744e-03, 5.67740994e-03, -7.89630692e-03, -5.21515077e-03,
       -1.25219561e-02, -1.71110276e-02, -9.60623380e-03,
       -1.35403499e-02, -1.30087100e-02, 1.57790687e-02, 5.27964393e-03,
       -8.18693358e-03, -8.55154730e-03, -2.08093766e-02,
       -1.31919971e-02, -9.60097276e-03, -6.29572989e-03, 4.21859510e-03,
       3.11317481e-02, 1.05561595e-02, -1.00455601e-02, -5.48828673e-03,
       -1.36108631e-02, -1.42524289e-02, -1.53434807e-02,
       -8.32653791e-03, -1.56430956e-02, 7.10146688e-03, 2.97923759e-03,
       -1.81893129e-02, -1.18435929e-02, -1.75428782e-02,
       -1.46223698e-02, -1.56509094e-02, -6.97436091e-03, 6.09283010e-03,
       4.00684774e-02, 1.51199885e-02, -4.32485435e-03, -5.49733220e-03,
       -1.39269652e-02, -9.33073740e-03, -1.60491932e-02,
       -1.12301977e-02, -6.74383342e-03, 1.13532478e-02, 9.35731176e-03,
       -1.15761543e-02, -2.51325173e-03, -5.18952170e-03,
       -7.93744903e-03, -1.12144528e-02, -6.93317503e-03,
       -7.74822198e-03, 1.60255879e-02, 7.37710577e-03, -1.11360010e-02,
       -3.99314333e-03, -8.52294452e-03, -7.68356118e-03,
       -4.00113640e-03, -7.97760114e-03, -3.99060035e-03, 9.66207311e-03,
       -5.33789443e-03, -5.15217020e-04, 3.42798121e-05, -9.99080483e-04,
       -1.17825698e-02, -1.09091066e-02, -1.10757593e-02,
       -2.04696204e-03, 2.33272240e-02, 1.40826637e-02, -5.83601370e-03,
       5.23133250e-03, -2.65751383e-03, -1.32683795e-02, -3.05904285e-03,
       -5.02384559e-04, 3.72647401e-03, 9.41730011e-03, -1.73016661e-03,
       -3.07224924e-03, -4.21416713e-03, -8.12233891e-04,
       -1.76276232e-03, -3.05772759e-03, -3.37173534e-03,
       -1.17360309e-04, 7.68069504e-03, -2.03613681e-03, 5.16535062e-03,
       2.98649538e-03, -1.37191833e-04, -5.50131639e-03, -7.07920780e-03,
       -1.04122004e-02, 7.35395413e-04, 6.68508140e-03, -9.96152684e-03,
       -7.63663324e-03, -9.58666112e-03, -9.48480237e-03,
       -8.76645744e-03, -7.32222199e-03, -1.52367516e-03, 9.77731962e-03,
       1.43324323e-02, 6.18903525e-03, 3.56288510e-03, -2.14622216e-03,
       -7.64379324e-03, -5.34624001e-03, -1.55187352e-02,
       -6.28767442e-03, 1.41930142e-02, 1.30681004e-02, -1.77242223e-03,
       -1.10152578e-02, -9.96765587e-03, -9.21793934e-03,
       -7.14911002e-05, 5.75379119e-04, -2.33304827e-03, 4.24479507e-03,
       1.31342364e-02, -3.75215244e-03, -9.77327023e-03, -5.29332971e-03,
       -7.73016014e-04, 2.97163171e-03, 3.40537122e-03, -1.11089544e-02,
       -1.06068747e-02, 1.26932543e-02, 2.05252040e-03, -6.00747764e-03,
       -4.04256908e-03, 9.40570259e-04, -1.82939775e-03, -2.85257469e-03,
       -3.85468057e-03, 6.65067416e-03, 1.17359608e-02, 5.86785050e-03,
       -8.72358773e-03, -6.84443535e-03, -4.38449252e-03, 1.93523825e-03,
       9.84641723e-03, -7.09312642e-03, -1.00553874e-02, 3.10311979e-03,
       8.86053685e-03, 4.39684698e-03, 3.36835627e-04, -2.58262130e-03,
       1.69914367e-03, 1.96167897e-03, -1.12864273e-02, -5.85871330e-03,
       1.02002285e-02, -1.30723941e-03, 6.49010981e-05, 7.67262187e-04,
       -3.11994285e-04, 2.29462935e-03, -4.05840436e-03, 2.03845347e-03,
       5.76117542e-03, 9.52095538e-03, -6.88120676e-03, -5.34952478e-03,
       2.60182377e-03, 4.36574593e-03, -6.84876833e-03, -1.66351197e-03,
       -1.43473931e-02, -1.11696804e-02, -3.50102317e-03, 1.54400046e-03,
       7.22499215e-04, 9.01088212e-03, -4.27332520e-03, 2.09700549e-03,
       -9.81156714e-04, -1.52691733e-03, 8.05881154e-03, 8.45347717e-03,
       6.76440177e-05, -1.17956037e-02, 3.70965805e-03, 4.40806942e-03,
       3.60215781e-03, -4.28137416e-03, -1.07594754e-03, -1.79300725e-04,
       6.67863758e-03, -2.53126654e-03, -7.56619638e-03, 3.92114525e-05,
       6.44904561e-03, 4.08143271e-03, 1.37819164e-03, -1.38566515e-03,
       1.01979333e-03, 6.89183269e-03, 3.06169037e-03, -2.16790452e-03,
       2.01343163e-03, 4.82238550e-03, 3.10082710e-03, 2.42168410e-03,
       -8.61786213e-03, 1.21263806e-02, 2.02017650e-03, 7.53708358e-04,
       -1.04787173e-02, -5.29188151e-03, 1.04185031e-03, 1.35935741e-04,
       5.76929748e-03, -6.19148044e-03, 1.04652857e-02, 2.57555768e-03,
       1.14383840e-03, -5.17462008e-03, -5.49066905e-03, -6.53981464e-03,
       -8.61387409e-04, 3.51253984e-04, 3.45007936e-03, 9.61978547e-03,
       8.10270570e-03, 1.97273679e-03, 8.48100288e-04, 2.15318589e-03,
       7.81274575e-04, -6.23873482e-03, -1.17195980e-03, 1.71489443e-03,
       4.09132196e-03, 3.81341088e-04, 1.22902580e-02, 1.30491657e-03,
       -5.38462913e-03, 8.74359743e-04, -7.87353516e-03, 2.86041782e-03,
       -3.52926203e-03, 9.30112414e-03, 1.96775468e-03, 2.72342935e-03,
       -1.37694937e-03, -1.23714749e-02, -7.32249115e-03,
       -6.31006341e-03, -6.04769308e-03, -1.41004287e-03, 1.63733459e-03,
       -2.33703213e-05, 9.71226860e-03, 7.52105261e-04, -9.46405064e-03,
       -3.59735638e-03, 5.23215567e-04, -3.09280003e-03, -8.65188707e-03,
       -3.74060031e-03, 4.09980118e-03, 9.15439986e-03, -1.04465173e-03,
       -5.16414037e-03, 5.35374926e-03, -7.46469293e-03, -6.77631935e-03,
       -1.16857849e-02, 2.09940760e-03, -1.21604768e-03, -8.77093582e-04,
       -8.23483150e-03, -2.65643955e-03, -7.22113950e-03, 2.32101604e-03,
       -7.14750681e-03, -3.18027101e-03, -2.41355435e-03, 9.04442277e-03,
       9.56065394e-03, -3.30592832e-03, 2.14063795e-03, 5.00106812e-03,
       -4.50273015e-04, -8.14418960e-03, -6.61265245e-03, 2.18711863e-03,
       -2.68827705e-03, 4.77868691e-03, 5.01124072e-04, 5.37586818e-03,
       -1.96221075e-03, -1.42315309e-02, -1.51284342e-03,
       -1.27616078e-02, -4.69785510e-03, 5.87427197e-03, -1.63429871e-03,
       -4.33764793e-03, -6.03495492e-03, -1.20635619e-02,
       -1.07986750e-02, 1.26624014e-03, -8.96054041e-03, -4.99446131e-03,
       8.76120385e-03, 1.00205289e-02, -1.92117167e-03, -4.30323416e-03,
       -3.29069607e-03, -3.94757790e-03, 2.26053828e-03, -7.42316525e-03,
       2.91350856e-03, 3.48357717e-03, 6.81433920e-03, -2.32964219e-03,
       1.58003604e-04, -6.02603378e-03, 5.64791355e-03, 7.67785776e-03,
       -5.34047186e-03, 6.85340678e-03, 1.91765055e-02, 1.49771236e-02,
       -8.50277953e-04, -1.13096321e-03, -6.51960378e-04, 4.94476117e-04,
       6.43670675e-04, -2.50786170e-03, -4.27722745e-03, 9.65006184e-03,
       1.07117482e-02, -6.37075724e-03, -9.30575933e-03, -6.03819150e-04,
       2.73343734e-03, -2.01848871e-03, -4.30864329e-03, 6.39659259e-03,
       -2.34333726e-04, 2.99023418e-03, -5.44474227e-03, -6.59733918e-03,
       -4.97904280e-03, 5.87999728e-03, 1.66269694e-03, -5.80725167e-03,
       1.24539874e-04, 1.28012849e-02, 1.45000694e-02, -2.93753715e-03,
       -1.63356506e-03, -7.04174221e-04, -1.54915499e-03,
       -8.79382156e-03, -8.49502068e-03, 3.50354635e-03, 7.23017240e-03,
       1.71962176e-02, -6.89302338e-03, -4.91583953e-04, -3.65156983e-03,
       -5.84696652e-03, -3.47804907e-03, 2.61395797e-03, 5.69241913e-03,
       1.10689681e-02, -2.12406716e-03, -8.06290947e-04, -8.98496713e-04,
       -5.08016814e-03, 2.21580573e-04, -2.32408545e-03, -3.71661410e-03,
       -4.25625406e-03, 1.12228785e-02, -7.61231699e-04, -4.08692798e-03,
       -2.09780992e-03, 2.22540530e-03, -3.33525793e-04, -1.87733409e-03,
       -7.78582529e-04, 3.27474874e-04, 1.10797556e-02, 2.69686035e-03,
       -3.60836275e-03, -1.17009412e-03, -3.69904540e-03, 8.60954542e-03,
       4.11643926e-03, -4.76712827e-03, 1.08368730e-03, 1.43977627e-02,
       2.08162746e-04, -8.00459005e-04, 6.69027504e-04, 4.12403839e-03,
       2.62799929e-03, 4.61463910e-03, -2.76912306e-03, 7.22929894e-04,
       1.46828704e-02, 7.06910715e-03, -5.73900575e-03, -4.86398675e-03,
       1.09801337e-03, -3.46439541e-04, 4.14131815e-03, 7.39048584e-04,
       -3.93779541e-04, 1.13527095e-02, 9.35947988e-03, -9.58337390e-04,
       -5.37834642e-03, -1.44913595e-03, 4.29527322e-03, 6.65193843e-03,
       -4.76550218e-03, -1.53401273e-03, 9.75073595e-03, 5.45292813e-03,
       -3.68942716e-03, 2.10400060e-04, 1.55358168e-03, -6.39622007e-03,
       4.41361032e-03, -5.84277231e-03, -9.18618683e-03, 1.20768705e-02,
       1.57789756e-02, 2.17804988e-03, 4.65857709e-04, -5.01793670e-03,
       3.49293603e-03, 1.11608692e-02, 9.54029430e-03, 1.32152215e-02,
       2.33671032e-02, 4.09050658e-03, -6.56162668e-03, -6.35777554e-03,
       -6.55663433e-03, -6.34321058e-03, 4.38822014e-03, -7.08737550e-03,
       1.30653870e-03, 5.88326249e-03, -1.64269493e-03, -1.09980879e-02,
       1.13777479e-03, -1.10578984e-02, -1.90091948e-03, 1.07513936e-02,
       -1.15486677e-03, 6.87865540e-03, 1.92306731e-02, 1.76164936e-02,
       5.08421659e-03, -5.41223446e-03, -2.26325192e-03, -8.45153723e-03,
       1.08261425e-02, -3.89863364e-03, 1.06246397e-02, 8.50173365e-03,
       6.00829627e-03, -2.79891049e-03, -3.87885631e-03, -1.49459792e-02,
       -8.05816799e-03, 7.15464819e-03, 2.54378095e-03, -6.86642365e-04,
       1.38134314e-02, 2.52792076e-03, -1.01578543e-02, 1.71952846e-03,
       -8.19827430e-03, -5.90067450e-03, 7.20553054e-03, 4.87667974e-03,
       -1.21716686e-04, 1.53695035e-03, -1.28653543e-02, -1.10123400e-02,
       -1.55060599e-03, -1.44325159e-02, -4.07341722e-04, 1.41243460e-02,
       6.79802906e-04, 1.27255246e-02, 1.98121704e-02, 7.50942156e-03,
       -2.03796919e-03, 1.81432394e-03, -6.67946506e-03, -1.44752674e-03,
       7.33757950e-03, -2.03736752e-04, -3.60267330e-03, 3.92292673e-03,
       -9.43473913e-03, -1.31056169e-02, -4.61361464e-03,
       -7.11854873e-03, -7.48553779e-03, 6.75148517e-03, -2.45020073e-03,
       -1.79223565e-03, 7.89977517e-03, -1.67452928e-03, -2.17704568e-03,
       1.97107205e-03, -1.42709017e-02, -1.58624612e-02, -7.03503005e-03,
       -1.01961112e-02, -6.62657246e-03, 1.68784503e-02, 6.59198314e-03,
       -6.46389462e-03, -2.97894818e-03, -1.69416890e-02,
       -9.74022597e-03, 3.81059223e-03, -2.63016229e-03, -2.93914159e-03,
       8.60135257e-03, 4.20052698e-03, -4.80097532e-03, -9.90869594e-04,
       -1.04834791e-02, -1.87394321e-02, -6.64699357e-03,
       -1.23390397e-02, -5.26328478e-03, 1.50154000e-02, 7.38983694e-03,
       -2.94649042e-03, -7.98323471e-03, -1.28051918e-02,
       -1.76516473e-02, -1.47050284e-02, -5.74063417e-03, 3.73615464e-03,
       4.07012887e-02, 9.07669403e-03, -6.29261602e-03, -1.29890814e-02,
       -1.56187499e-02, -8.61774478e-03, -1.28434859e-02,
       -6.75443467e-03, -8.09700415e-03, 1.36432340e-02, 1.36976363e-03,
       -1.53075801e-02, -9.57378186e-03, -1.07495934e-02,
       -1.55191543e-02, -4.05984093e-03, 2.58271088e-04, 1.48330629e-03,
       2.93447264e-02, -5.40937181e-04, -3.49720079e-03, -9.11618304e-03,
       -1.15772253e-02, -3.54055571e-03, -5.29592065e-03,
       -4.79758484e-03, -4.80855536e-03, 8.38746969e-03, 5.40740462e-03,
       -1.70277804e-02, -1.32802883e-02, -1.26519212e-02,
       -2.57804920e-03, -6.99813617e-03, -5.46003878e-03,
       -9.64515191e-03, 2.24386640e-02, -1.69447926e-03, -1.41065009e-02,
       -3.59080266e-03, -2.31615710e-03, -9.21012834e-03,
       -9.61083174e-03, -2.43213377e-03, -4.46467660e-03, 5.35190431e-03,
       -1.79799981e-02, -1.48896547e-02, -1.42332623e-02,
       -7.40949344e-03, 6.19570678e-03, 2.86469725e-03, 4.50070947e-03,
       -8.86822771e-03, 2.03264616e-02, 2.82717356e-03, -2.39474718e-02,
       -1.17627122e-02, -2.05662148e-03, -2.87503004e-03,
       -2.78612482e-04, 4.99974191e-03, -4.81406599e-03, 9.46358219e-03,
       -7.42105767e-03, -2.12686639e-02, -1.60103608e-02,
       -6.28314773e-03, -1.48293851e-02, -1.27444575e-02,
       -1.94381911e-03, 5.24033047e-03, 1.42314620e-02, -5.87566197e-03,
       1.62525463e-03, -2.84301280e-03, -1.07241031e-02, -1.24893906e-02,
       -1.78679079e-02, -1.00072986e-02, 7.64712365e-03, 1.07593089e-02,
       -3.47782671e-03, -4.15943330e-03, -5.04670432e-03,
       -5.98323485e-03, -6.89705415e-03, -4.26419405e-03, 9.00260056e-04,
       7.35839736e-03, 1.50474384e-02, 8.42192024e-03, -5.78443799e-03,
       -9.06462222e-03, -7.14749470e-03, -8.58589914e-03,
       -5.95186837e-03, -8.36608000e-03, 5.41642262e-03, 1.32069569e-02,
       -1.60206098e-03, -5.88009739e-03, -3.73346778e-03,
       -4.79321042e-03, -3.51500348e-04, -4.96537797e-03,
       -9.58119705e-03, -5.60751883e-04, 4.53520473e-03, 2.38929628e-04,
       -6.97641866e-03, -8.30078404e-03, -7.45339668e-04,
       -2.87989853e-03, 2.11142749e-03, -7.59213325e-03, -1.38095552e-02,
       -8.43869243e-03, 7.17377698e-04, 4.89253202e-04, -2.28003319e-03,
       1.40001287e-03, 5.76737663e-03, 1.84425013e-03, -2.62515014e-03,
       1.38523144e-04, 6.45699259e-03, -3.09664337e-03, -7.05511216e-03,
       -5.10110927e-04, 6.40735356e-03, 5.28501021e-03, 5.91575960e-03,
       1.46023312e-03, -7.65617145e-03, 2.45472183e-03, -6.47825561e-03,
       -3.28760874e-03, 7.81132467e-03, 1.25967069e-02, -7.14441575e-03,
       1.05584564e-04, -8.67242552e-03, -1.01365885e-02, -1.05206808e-02,
       -8.03709496e-03, -1.26155152e-03, 6.66642701e-03, -1.85674790e-03,
       -1.69880735e-03, 5.70378918e-03, -6.12162659e-03, 7.64718512e-03,
       8.86515807e-03, -4.08899132e-03, -1.00916885e-02, 4.40928340e-03,
       2.40547326e-03, 7.79237505e-03, 7.45610683e-04, -2.05231644e-03,
       -4.59952652e-03, -3.64806247e-03, -7.35184411e-03,
       -3.06027522e-03, 9.31079127e-03, 9.25976038e-03, 8.65023676e-03,
       6.23923400e-03, -1.80336752e-03, 1.27984537e-02, 4.45256755e-03,
       6.56746270e-05, -1.53090269e-03, -1.00994681e-03, 8.26676749e-03,
       9.67306958e-04, -1.04189233e-03, -1.15272095e-02, 1.16780624e-02,
       3.44727212e-03, 7.31919543e-04, -8.45232327e-03, -3.98205826e-03,
       2.37605971e-04, -3.62796988e-03, 1.99179607e-03, -1.13145895e-02,
       3.12199933e-03, 4.09287773e-03, 1.05666567e-03, -5.08035300e-03,
       -4.09302069e-03, -5.69286151e-03, 7.48628937e-03, 7.05809286e-03,
       -5.96729247e-03, 8.62415880e-03, 3.41872242e-03, 6.74090069e-03,
       -3.67032597e-03, -7.33549416e-04, 5.51775796e-03, 4.42078197e-03,
       8.95762630e-03, -9.31186602e-03, 8.62379209e-04, 7.66691240e-03,
       3.76461539e-03, -9.68912442e-04, 2.16383720e-03, 9.88570228e-03,
       2.57878914e-04, 6.76388666e-03, -6.93765888e-03, 2.87516438e-03,
       7.48866610e-03, 4.86986246e-03, -5.17778518e-03, -9.04181786e-03,
       -1.94006879e-03, -3.03338445e-03, -4.84345946e-03,
       -5.81635488e-03, -4.83009266e-03, 4.78801870e-04, 1.43777505e-02,
       -2.57927319e-03, -6.22171722e-03, -5.21461247e-03,
       -1.49817928e-03, 4.42475639e-03, -6.05185749e-03, 3.79759376e-03,
       1.50250085e-02, 6.36803918e-03, -2.56497692e-03, -9.24288295e-03,
       -5.88361523e-04, -3.34307225e-03, -4.79189167e-03,
       -2.28154240e-03, -1.64942828e-03, 5.35985781e-03, 1.61177777e-02,
       -3.50956572e-04, -1.02562970e-02, -3.97120509e-03,
       -4.88246931e-03, -1.64986104e-02, -8.96051805e-03,
       -1.19976057e-02, 6.04670960e-03, 7.78756803e-03, -3.31366388e-03,
       2.24873517e-03, -3.51014873e-03, -4.54637967e-03, -1.46354605e-02,
       -1.26208765e-02, 3.24813911e-04, -2.42371904e-03, 2.87105981e-03,
       1.50651904e-03, 3.82985570e-03, 2.07454502e-03, -6.78427937e-03,
       -1.23853218e-02, -8.25724378e-03, -6.77746534e-03, 1.32594109e-02,
       9.63833928e-03, -6.28557464e-04, -2.22426234e-03, -4.09511151e-03,
       -8.07148777e-03, -6.08560722e-03, -8.00588052e-04, 2.94853561e-03,
       -1.05306564e-03, 1.46508997e-03, 4.74937493e-03, -3.07491003e-03,
       -1.27899693e-03, -1.92958442e-03, -7.39069143e-03,
       -1.07207317e-02, 1.33326370e-03, -1.48446532e-03, 5.53724123e-03,
       -4.11368208e-03, -6.99551729e-03, 5.80742839e-04, 3.90377641e-03,
       -1.98272802e-03, -1.04545034e-03, 8.55874922e-03, 1.23330681e-02,
       5.25290333e-03, -7.89027102e-03, -2.99743121e-03, 2.16874760e-03,
       -3.20366374e-03, -7.20290421e-03, -8.93970486e-03, 5.55630657e-04,
       -5.72119700e-03, -4.28163446e-03, -8.58335476e-03,
       -6.50427863e-03, -7.60851777e-04, -2.77863792e-03,
       -5.16273128e-03, -6.28245063e-03, -2.09514343e-04, 5.75572997e-03,
       -2.30962527e-03, -6.87087514e-03, -2.77995807e-03,
       -2.66249897e-03, 8.69979057e-03, 3.53867258e-03, 5.15374681e-03,
       1.42820915e-02, 2.08111722e-02, 6.32524071e-03, -9.83922556e-03,
       -5.22044627e-03, -1.94216700e-04, -4.75508487e-03,
       -1.14294123e-02, -1.08730458e-02, 5.42014977e-03, 9.19538271e-03,
       1.65015366e-02, -9.02945921e-03, -9.19469353e-03, -8.99381936e-03,
       3.21557054e-05, -1.60382397e-03, -3.19649233e-03, -4.82138852e-03,
       1.20749380e-02, -1.83097343e-03, -8.64229631e-03, -5.54918312e-03,
       -3.35438736e-03, -4.08183923e-03, -8.97751749e-03,
       -5.97478356e-03, 1.12814531e-02, 6.52575167e-03, 1.51792159e-02,
       -4.02005762e-03, -9.68307909e-03, -9.40842740e-03,
       -3.63561418e-03, -5.55531494e-03, -4.34980867e-03,
       -2.35991366e-03, 5.81805129e-03, 5.14932442e-03, -2.26627290e-03,
       -7.10735563e-03, -5.65910665e-03, 6.35073520e-03, -3.91175179e-03,
       -1.23174842e-02, 1.52327633e-03, 1.34620061e-02, 3.88702680e-03,
       -2.10402743e-03, 1.56254589e-03, 3.52380122e-03, -7.76004326e-03,
       -3.49918427e-03, -6.34486554e-03, 7.43260002e-03, 6.80923136e-03,
       6.46316446e-03, -3.66107980e-03, -1.26502570e-02, -8.97546858e-03,
       -2.10891804e-03, -7.99659640e-03, -1.74009390e-02, 2.29672669e-03,
       9.57561750e-03, 4.30624513e-03, -2.09820038e-03, 3.32194893e-03,
       5.96774463e-03, 1.05281139e-03, -1.93298107e-03, -1.12670045e-02,
       4.83865105e-03, 1.87134917e-03, 5.93038555e-03, -5.09681925e-03,
       3.58394627e-03, 3.80334002e-03, 9.06173780e-04, 3.86616564e-03,
       -4.62978147e-03, -6.50296081e-03, 8.45627021e-03, 1.72492415e-02,
       -3.62086023e-04, 6.82122493e-03, 3.19874473e-03, 3.96693416e-04,
       3.03558656e-03, -6.73841685e-03, 7.90158939e-03, 5.63140213e-03,
       4.06688312e-03, -8.24837759e-03, -1.53312052e-03, 6.74196705e-03,
       6.45723473e-03, 1.57417767e-02, 5.29671321e-03, 5.26535371e-03,
       -7.11029395e-04, 1.68285985e-02, -6.44509075e-03, 4.21567401e-03,
       3.72831454e-03, 2.45474232e-03, 8.83344002e-03, -1.93179713e-03,
       -7.00910605e-05, 1.44936759e-02, 1.38831446e-02, 1.83342246e-03,
       -3.05596483e-03, 3.50809866e-03, -5.03534125e-03, 1.12439245e-02,
       4.01590311e-04, -4.27075149e-03, 6.14266144e-03, 3.83523945e-03,
       1.02030789e-03, -1.01127150e-02, -8.04232620e-03, 1.07800812e-02,
       1.11193648e-02, 1.21464962e-02, 7.55760260e-03, 5.47762169e-03,
       1.01203527e-02, -2.01705983e-03, 1.41234696e-03, 1.01341885e-02,
       8.01070500e-03, 2.99251336e-03, -7.44764809e-04, -2.17503682e-03,
       -5.47466427e-03, -3.03102192e-03, -9.87963844e-03,
       -7.68490788e-03, 2.25195871e-03, -2.69048428e-03, 9.52174608e-03,
       -2.17802357e-03, 3.37474910e-03, 1.62089635e-02, 4.00942750e-03,
       -2.81372864e-04, -9.26728128e-04, -5.33872424e-03,
       -1.05135527e-03, 2.66051223e-03, -8.14630743e-03, -8.46754480e-03,
       3.86565668e-03, -1.60968527e-02, -1.80097334e-02, -5.91731118e-03,
       -7.89146777e-03, 1.21307233e-02, 4.41267621e-03, -4.09364887e-03,
       -5.45590930e-03, 1.26349013e-02, 9.58537566e-04, -7.72743206e-03,
       8.94568209e-03, 1.23190666e-02, 3.38441227e-03, -2.89517222e-03,
       -1.10466499e-02, -2.68918406e-02, 2.54596630e-03, -1.11570004e-02,
       -8.79517943e-03, 8.94943441e-05, 2.03150499e-04, -7.28268130e-03,
       -6.61925878e-03, -6.28773682e-03, -8.47432110e-03, 1.98924616e-02,
       -6.42217754e-04, -1.52046401e-02, -7.46558746e-03,
       -9.74123366e-03, -2.11608224e-02, -1.10110808e-02,
       -8.47435929e-03, -1.67504966e-03, 2.57701930e-02, 7.27922423e-03,
       -6.62756013e-03, -1.23146521e-02, -7.22311158e-03,
       -8.66678730e-03, -1.02668311e-02, -8.95334966e-03,
       -8.33179243e-03, 1.99942142e-02, 8.87683965e-03, -1.26469266e-02,
       -8.12927261e-03, -1.32772177e-02, -1.70383435e-02,
       -1.14732180e-02, -6.02538371e-03, 1.28182452e-02, 2.85653677e-02,
       1.20139681e-02, -1.46342143e-02, -1.88511256e-02, -1.52492374e-02,
       -1.06811374e-02, -2.08533509e-03, 1.55665597e-03, -6.71628979e-04,
       2.42307186e-02, 4.45629051e-03, 3.25937610e-04, -6.22353237e-03,
       -1.53034199e-02, -5.78521425e-03, -3.45836999e-03,
       -6.55248528e-03, -1.43812522e-02, 4.51682881e-03, 2.22463487e-03,
       -9.82957706e-03, -1.11634666e-02, -9.41273384e-03,
       -9.61443875e-03, 3.28320637e-03, 6.11644331e-03, -1.69532420e-03,
       2.03106310e-02, 1.65144894e-02, -2.97455536e-03, -8.46545584e-03,
       -1.13993194e-02, -4.52096108e-03, -2.64909025e-03,
       -5.87299932e-03, -2.17380580e-02, 1.91304542e-04, -1.54269219e-03,
       -6.74597546e-03, -5.13610756e-03, -3.91200930e-03, 5.91015304e-03,
       4.58526565e-03, 3.58738890e-03, -4.69810003e-03, 1.02326758e-02,
       2.34778877e-03, -1.20854657e-02, -9.25959274e-03, -1.30875944e-03,
       5.50331955e-04, 4.24317643e-03, 4.68436768e-03, -6.87872665e-03,
       2.41261232e-03, -3.49316699e-03, -1.03929974e-02, -7.01791700e-03,
       -1.40646100e-03, -3.57666728e-03, 1.81975774e-03, -1.64085635e-04,
       -1.34392651e-02, 5.17020095e-03, 3.40735400e-03, -7.00700935e-03,
       -3.42738628e-03, -4.84490441e-03, 6.89419248e-05, 1.34140602e-04,
       -4.11047507e-03, -8.72365385e-03, -3.97224817e-03,
       -1.99168758e-03, -8.96672718e-03, -3.38921137e-03, 4.62369248e-03,
       3.69294919e-03, 1.18222623e-03, 3.03676438e-06, 4.19882918e-03,
       1.04065044e-02, -4.12858790e-04, -9.89316683e-03, -3.44210863e-03,
       -2.69298581e-03, 1.44152809e-03, -2.64422689e-03, -8.73769540e-03,
       -2.37876945e-03, 7.27466866e-03, -4.53107152e-03, -1.39353573e-02,
       -4.79307072e-03, -7.52658257e-03, 7.12992251e-03, 4.55410313e-03,
       2.29731202e-04, 1.49549978e-05, 7.66202668e-03, -5.77020133e-03,
       -7.75035517e-03, 1.30597895e-04, 1.13574881e-02, -2.13501020e-03,
       -2.18841084e-03, -1.01735992e-02, -7.94890523e-03, 5.40894317e-03,
       -3.12442239e-03, -5.53061394e-03, -8.19825451e-04,
       -1.53855525e-03, 5.87828411e-03, 5.42469136e-03, -3.05298390e-03,
       -2.31698016e-03, 6.58849580e-03, -1.87734514e-03, -6.28846977e-03,
       -1.16191013e-03, 2.08036625e-03, 7.59435073e-03, 2.76111602e-03,
       2.65496387e-03, -8.19979794e-03, 1.25362352e-03, -4.07832069e-03,
       -1.43356505e-03, 7.34803220e-03, 1.56638660e-02, -7.42968312e-03,
       -1.17208471e-03, -9.93527845e-03, -1.00309495e-02, 6.51537953e-03,
       1.32134289e-03, -1.43675972e-03, 1.59151468e-03, -1.08150416e-03,
       -9.42050479e-03, -1.00408448e-02, -4.17264644e-03,
       -6.71720738e-03, 4.92156297e-03, 4.94715897e-03, -2.90935975e-03,
       -6.30126335e-04, -1.23666087e-03, 6.13363693e-03, 2.46829446e-03,
       3.68052884e-03, -2.71136197e-03, 9.90286702e-04, -1.25447009e-03,
       -4.26254654e-03, 4.77753347e-03, 8.85402411e-03, 5.75636141e-03,
       1.00199354e-03, 4.86471225e-03, 8.75512231e-03, 5.29672857e-03,
       3.51698138e-03, -1.10338943e-03, -6.85300864e-03, -2.19481392e-03,
       -1.12102162e-02, -3.59109347e-03, 3.09132319e-03, -1.16890203e-03,
       9.83855780e-03, 1.37592014e-02, 2.66330712e-03, 2.55960762e-03,
       -4.74764453e-03, -1.67715140e-02, -5.68371033e-03,
       -6.38646865e-03, -1.11699861e-03, 1.36345122e-02, 1.48232635e-02,
       7.60667678e-03, 2.13012774e-03, -1.24529246e-02, 6.49923971e-03,
       7.83585943e-03, -3.36463447e-04, 5.79422573e-03, 1.05075641e-02,
       7.30593456e-03, -4.88307211e-04, -3.46609275e-03, 5.06196078e-03,
       1.32680009e-03, 6.09759195e-03, -3.75992432e-03, 3.13516869e-03,
       5.68031333e-03, 6.99187629e-03, 1.08023861e-03, -3.78983933e-03,
       4.42216964e-03, -1.08070765e-02, -4.61716857e-03, -8.19682144e-03,
       5.15406206e-03, 1.18646827e-02, 1.38607435e-02, 6.53300900e-04,
       -2.13219924e-03, -6.26121880e-03, -1.05365226e-02,
       -9.08363983e-03, 3.04709282e-03, 9.37743764e-03, -9.28181282e-04,
       6.75844913e-03, -3.08624096e-03, -1.13315014e-02, -1.36651676e-02,
       -1.38568715e-03, 1.73633464e-03, -5.90138510e-03, 5.03895385e-03,
       1.07318852e-02, 9.70211532e-03, 1.22545136e-03, -5.10110473e-03,
       1.16032257e-03, -1.07952663e-04, -4.18768264e-03, -6.07141154e-03,
       2.83491286e-03, 1.33887427e-02, 1.74057204e-02, 2.73856753e-03,
       -9.11982451e-03, -6.84340252e-04, -4.00599046e-03,
       -3.46481707e-03, -4.71155858e-03, 1.11045940e-02, 2.52683554e-03,
       1.11490758e-02, 8.63842608e-04, 1.37622075e-04, -4.72657755e-03,
       -3.66166816e-03, -9.81703121e-03, -8.76471959e-03, 3.57236434e-03,
       -6.22270629e-03, 1.30588356e-02, 1.64383533e-03, -6.49527181e-03,
       -5.98247489e-03, -7.88930990e-03, -4.01498191e-03,
       -3.05263698e-03, -3.14973760e-03, 1.97164491e-02, 6.53345603e-03,
       2.87188333e-03, -5.27384691e-03, -2.86900578e-03, -4.30759043e-03,
       2.07473291e-03, 8.75620637e-03, 5.34474384e-03, 7.41987024e-03,
       -4.27070400e-03, 3.46957473e-03, 3.29419854e-03, -1.21645317e-04,
       -1.22239180e-02, -8.23155977e-03, -1.43737707e-03,
       -5.69388620e-04, 1.30001428e-02, 3.68081871e-03, -2.34132376e-03,
       -1.04766414e-02, -1.11610768e-02, -9.62486956e-03,
       -3.80625046e-04, -5.72729064e-03, -3.57451895e-03, 1.40527254e-02,
       5.72731998e-03, -3.29272752e-03, -8.13176390e-03, -1.30851679e-02,
       -2.84726894e-03, 2.55664112e-03, 6.99040073e-04, 1.00685246e-02,
       9.53065231e-03, -4.88200272e-03, -5.48647763e-03, 4.21611127e-03,
       -3.37741245e-03, 4.35056211e-03, -7.29861495e-04, -6.39799098e-03,
       2.01910967e-03, 8.01419932e-03, -4.80502844e-03, -2.38446309e-03,
       5.37455839e-04, 2.88467086e-03, -6.35825563e-03, 2.90915905e-03,
       -7.03298766e-03, 4.28823102e-03, 9.88536887e-03, -3.68794776e-04,
       -8.71967152e-03, -6.50305860e-03, -1.33294314e-02,
       -6.23776391e-03, -1.21637518e-02, -1.32096289e-02, 3.79876327e-03,
       2.04072031e-03, -1.10466243e-03, -5.53150941e-03, -6.54318929e-03,
       -1.39745045e-02, 2.94122682e-03, 3.86585272e-03, -3.06825573e-03,
       -6.15417026e-03, 4.80543263e-03, -3.80371255e-03, 2.69181561e-03,
       5.26390411e-03, 5.72080771e-03, 2.66794628e-03, 1.98883493e-03,
       3.51165014e-04, 1.31875267e-02, 7.80469365e-03, 1.29817724e-02,
       3.00189294e-03, 4.94862720e-03, 6.58334605e-03, -4.49494040e-03,
       -9.41930246e-03, -1.42506612e-02, -4.12803935e-03, 1.80958526e-03,
       8.52576050e-04, 1.43999653e-03, -8.55877413e-04, -4.80534229e-03,
       4.05907631e-03, 1.49282895e-03, -1.61383045e-03, 6.84358226e-03,
       -1.84696657e-03, -2.04532011e-03, -4.03503049e-03, 5.20983012e-03,
       2.68025696e-03, -4.92413063e-04, -1.08734868e-03, 1.10112320e-04,
       1.01693431e-02, 9.66637768e-03, 5.30485669e-03, -5.44651970e-03,
       -5.86577551e-03, -1.46201800e-03, 7.30914762e-03, -4.58098191e-04,
       -3.73875198e-04, 3.76117998e-03, 1.48049379e-02, -5.60276676e-05,
       -1.08499844e-02, 5.51659730e-04, 1.61680989e-02, -1.34211048e-04,
       2.30434048e-03, 3.27059557e-03, -9.05847701e-04, 4.18781582e-03,
       -1.12031186e-02, -1.68004837e-02, -2.93028867e-03, 1.04686432e-03,
       4.83604148e-03, 4.43131337e-03, -4.43664566e-03, 1.70246139e-03,
       3.08827660e-03, -1.39824217e-02, -1.74665321e-02, -6.61246292e-03,
       6.29919488e-03, 6.27496513e-03, 4.26326133e-03, 4.22506966e-03,
       6.78646378e-03, 7.26404274e-03, -2.93018366e-03, -5.53841051e-03,
       -1.37504435e-03, 9.41966847e-03, 8.15742090e-03, 1.31722940e-02,
       4.19898564e-03, 5.73610188e-03, 3.02944775e-03, 9.42883920e-03,
       3.17043206e-03, 5.80392871e-03, 4.46481723e-03, 3.29043996e-03,
       6.49622176e-03, 7.16803697e-05, 5.60602825e-03, 6.08740898e-04,
       -1.33156227e-02, -8.98532942e-03, -4.94164973e-03, 6.16231642e-04,
       -3.85670341e-03, 3.55954817e-03, -2.66703893e-03, 8.00641533e-03,
       5.66511229e-03, -1.54110079e-03, 8.25929921e-04, -4.96157585e-03,
       -3.32378782e-03, 1.25734955e-02, 1.11891162e-02, 7.92070478e-03,
       4.27234499e-03, 1.63128972e-02, 1.11266756e-02, 1.43403292e-03,
       5.04969433e-03, 1.03230830e-02, 1.22999614e-02, 2.39501102e-03,
       -5.14127687e-03, -8.56068917e-04, 8.79815780e-03, -3.83084058e-03,
       -1.21804345e-02, -5.88691048e-03, 5.29151736e-03, 2.80470331e-03,
       4.30269167e-03, -1.09100586e-03, -1.33443659e-03, 1.62920952e-02,
       1.04751661e-02, 2.98221037e-03, -5.38910832e-03, -1.31287577e-03,
       1.97575730e-03, -6.98576728e-03, -1.91721898e-02, -8.35211575e-03,
       8.80652200e-03, -7.63534568e-04, -5.98115195e-03, -1.46411238e-02,
       -2.08492274e-03, 1.03743384e-02, 1.73326884e-03, -4.46184492e-03,
       -8.01370572e-03, 1.46308402e-02, -3.70394019e-03, -8.45620874e-03,
       -2.29084585e-03, 1.08657023e-02, -3.30992299e-03, -4.32512676e-03,
       -1.00087794e-02, -2.09502410e-02, 9.07704514e-03, -7.85332453e-03,
       -1.11430129e-02, -8.09158199e-03, -4.35846997e-03,
       -1.68681989e-04, -3.67296021e-03, -1.44807221e-02,
       -4.73279459e-03, 1.83934942e-02, 1.02116270e-02, -3.76406009e-03,
       -1.06984377e-02, -1.63311302e-03, -4.71490202e-03,
       -3.70441307e-03, -1.46357752e-02, -6.47248048e-03, 1.77866612e-02,
       7.85341579e-03, -1.08256694e-02, -1.21432701e-02, -4.29124711e-03,
       -1.71494838e-02, -1.16758989e-02, -1.20612169e-02,
       -6.91670785e-03, 1.91968959e-02, 4.84605134e-03, -1.47864670e-02,
       -1.38347866e-02, -1.61432140e-02, -1.83567125e-02,
       -1.32425101e-02, -7.60988705e-03, 1.08637968e-02, 2.50885151e-02,
       4.21453826e-03, -1.95437856e-02, -1.83971766e-02, -1.94947273e-02,
       -1.14415148e-02, -5.95156942e-03, -1.03582507e-02, 5.43642743e-03,
       2.17999965e-02, 1.35734566e-02, -1.58606675e-02, -1.17052961e-02,
       -1.37015553e-02, -1.53418528e-02, -1.49932066e-02,
       -4.80353599e-03, 1.25246178e-02, 1.99699681e-02, 6.28200499e-03,
       -1.01109510e-02, -9.83241573e-03, -1.06535899e-02,
       -2.42232461e-03, 1.14106387e-02, 1.15072727e-03, -1.90959065e-04,
       2.85967700e-02, 2.25875750e-02, 9.19353403e-03, 2.79087387e-03,
       -4.94611263e-03, -3.41291423e-03, 7.83031993e-03, -3.42503283e-03,
       -1.22109214e-02, 4.84063337e-03, 1.21247349e-02, 6.85499096e-03,
       2.30913237e-03, 7.26510712e-04, -1.65859051e-02, -1.30099328e-02,
       -1.74400974e-02, -9.68386978e-03, 1.64537374e-02, 1.19275469e-02,
       7.01533398e-03, -4.96658729e-03, -1.30113382e-02, -1.17070992e-02,
       -1.30308885e-02, -1.80256180e-02, -1.23255877e-02, 2.21421220e-03,
       -7.12731667e-03, -5.25981421e-03, -9.21213254e-03,
       -8.63357354e-03, -1.81779917e-03, 4.57675150e-03, -1.04963500e-03,
       -9.17445496e-03, 9.88937356e-03, 1.40601341e-02, 3.06145195e-03,
       -1.07336840e-04, -3.60976020e-03, 1.18463654e-02, 1.50103830e-02,
       4.16809600e-03, 8.30133431e-05, 4.52558231e-03, 3.76586081e-03,
       3.36853624e-03, 1.82338955e-03, 1.10648815e-02, -6.82409666e-03,
       -5.14359260e-03, -5.86055731e-03, -1.07644154e-02, 4.19238349e-03,
       7.87977502e-03, -4.72104596e-03, -6.52179960e-03, -4.45678318e-03,
       5.36112953e-03, 2.25781160e-03, -6.89427368e-03, -5.45538776e-03,
       4.34444705e-03, 5.06177545e-03, 4.62650694e-03, 8.25774204e-03,
       4.85149818e-03, 3.49994097e-03, 1.07893664e-02, 1.89112208e-03,
       4.36996529e-03, 5.74661838e-03, -2.22432567e-03, -1.18540530e-03,
       2.87239789e-03, 7.39770150e-03, -3.49366176e-03, -3.04034958e-03,
       -1.04111386e-02, -9.60598979e-03, 3.07667558e-03, 2.98614823e-03,
       -5.13031555e-04, 4.90029110e-03, 9.86972824e-04, 6.33004447e-03,
       6.93897950e-04, -5.17868623e-03, -1.25174678e-03, 5.36005944e-03,
       -1.95482397e-03, 2.00267811e-03, 6.69313734e-03, 3.18438862e-03,
       -3.32440296e-03, -6.36294577e-03, -8.30533542e-03,
       -8.70222040e-03, -1.03621902e-02, 2.19517387e-03, 1.57491863e-03,
       2.47329124e-03, -1.66177098e-03, -4.28237813e-03, -4.27174056e-03,
       -1.12558557e-02, -1.09577086e-02, 1.15855625e-02, 8.18438735e-03,
       -1.16022956e-03, 6.33163098e-03, 5.12439106e-03, -9.01151728e-03,
       -7.78025715e-03, -1.88301597e-03, 7.02053891e-04, 2.32860558e-02,
       1.20791588e-02, -7.32531492e-03, -4.33767261e-03, -6.00369321e-03,
       -4.81732204e-05, -2.30528088e-03, -1.20949727e-02,
       -1.38511164e-02, 5.69193251e-03, 2.44033150e-03, -3.26660718e-03,
       4.57899924e-03, 3.60237574e-03, -2.32840097e-03, -1.52639824e-03,
       -8.00276361e-03, 1.10590216e-02, 1.75386705e-02, 9.66235250e-03,
       -9.02156811e-03, -3.90050700e-03, -5.64840809e-03,
       -2.25273073e-02, -1.28035769e-02, 3.51522979e-03, 4.32301173e-03,
       2.37153918e-02, 9.26736649e-03, -7.55159324e-03, -7.73156201e-03,
       -1.65032651e-02, -1.89004894e-02, -1.26207331e-02,
       -8.45196098e-03, 3.51039576e-04, 2.60273889e-02, 1.59210078e-02,
       3.50693939e-03, -5.14970161e-03, -1.06729409e-02, -1.79648045e-02,
       -1.13490578e-02, -4.36520437e-03, 8.51835590e-03, 1.66847147e-02,
       1.12855770e-02, -1.09226080e-02, -9.92832147e-03, -1.47638246e-02,
       -8.53438489e-03, -1.64985564e-02, -6.95638312e-03, 8.14403221e-03,
       2.33669784e-02, 1.81735735e-02, -1.75503548e-03, -8.39455519e-03,
       -6.65266206e-03, -1.64953936e-02, -1.08354343e-02,
       -1.21602835e-02, 9.64286458e-03, 2.18269639e-02, 1.01168314e-02,
       -1.90538948e-03, -9.91055649e-03, -9.49189719e-03,
       -1.20619992e-02, -5.41568175e-03, 4.05446300e-03, 1.24457758e-02,
       5.77369705e-03, 2.04020762e-03, -1.24635091e-02, -1.34497201e-02,
       -1.55204302e-02, 2.05479539e-03, -6.97029801e-03, -4.30505956e-03,
       1.26667852e-02, 1.72250587e-02, 1.28586991e-02, 1.40886509e-03,
       -5.73465694e-03, 8.68060743e-04, -4.02232306e-03, 5.72015904e-03,
       3.04564531e-03, 9.01385490e-03, 1.10763172e-02, 4.79795272e-03,
       -1.04908179e-02, -1.25771537e-02, -5.90889389e-03,
       -2.34176381e-03, 2.18761110e-04, 3.25859850e-03, 1.14246542e-02,
       1.10057951e-03, -2.43240909e-04, -1.03547880e-02, -3.70253902e-03,
       -6.54579047e-03, -1.08650548e-03, -6.60561956e-03,
       -2.23435694e-04, -1.57014537e-03, -1.30054904e-02, 1.35484443e-03,
       -4.20053722e-03, 1.60299544e-03, -3.69040971e-03, -4.72204032e-04,
       4.90040192e-03, 3.29572638e-03, 1.08715585e-02, 5.92898624e-03,
       -9.35120741e-04, -1.31182251e-02, -7.80058652e-03,
       -1.66365621e-03, 1.03532095e-02, 4.63746674e-03, 1.07348629e-03,
       1.36454811e-03, -2.16768542e-03, -2.21812981e-03, -7.25952676e-03,
       -2.11654999e-03, 2.61449162e-03, -7.09027424e-03, -9.90658719e-03,
       -3.10936524e-03, -4.37097950e-03, 8.00108071e-03, 1.45474076e-03,
       2.70382012e-03, 3.14954715e-03, -7.09687825e-03, -1.50715308e-02,
       -1.01540731e-02, -5.36511559e-03, -3.04642902e-03, 8.83527845e-03,
       3.67935561e-03, -7.21395845e-05, -4.00384422e-03, -1.37714148e-02,
       5.65773621e-03, -1.36460207e-04, 5.38492389e-03, 2.07259599e-03,
       8.71005654e-03, 5.13357902e-03, -2.98692449e-03, 1.63759963e-04,
       -2.06516148e-03, -2.30393303e-03, 1.63680641e-03, 8.03159550e-03,
       5.58473868e-03, 3.30368523e-03, 3.02536692e-03, 5.92705561e-03,
       5.90722961e-03, -4.98380791e-03, -1.85550598e-03, 6.44553686e-03,
       -1.92744087e-03, 7.42895016e-03, 1.06088631e-02, 7.97386188e-03,
       -2.15138483e-04, 1.29356293e-03, -1.17699457e-02, -4.17198939e-03,
       -2.78466847e-03, -9.63799004e-03, -3.64053180e-03, 9.24282242e-03,
       5.47100976e-03, -3.25484201e-04, -4.25691297e-03, -1.55581320e-02,
       -4.64671012e-03, 2.13986589e-03, -2.79217144e-04, 6.32533431e-03,
       1.18195117e-02, 7.85698090e-03, 6.04472915e-03, 7.34976213e-03,
       -7.25115230e-03, -9.69307125e-03, -1.37515468e-04,
       -8.76546744e-03, -2.17438187e-03, 8.58256035e-03, 3.84155917e-03,
       7.07853644e-04, 1.07912952e-03, -6.41580578e-03, -6.68568909e-03,
       -1.17025552e-02, -1.82225816e-02, -1.10653993e-02,
       -3.00394255e-04, -7.20271794e-03, -2.67668115e-03,
       -1.16163874e-02, -1.12178475e-02, 5.82077540e-03, -2.34586676e-03,
       -1.89500337e-03, -7.06058869e-04, 2.76051927e-04, -3.67304240e-03,
       -4.60194796e-03, -7.03455694e-03, -3.28589021e-03,
       -8.21763929e-03, -1.01000015e-02, -1.37084620e-02,
       -4.25268430e-03, 6.76659960e-03, -6.27647241e-05, -3.21349362e-03,
       -7.99602084e-03, -1.33115496e-03, 2.83473218e-03, -8.49771837e-04,
       -5.95955458e-03, 5.17042307e-03, 5.67894615e-03, 6.23242417e-03,
       3.69863678e-03, 3.61508853e-03, 9.05905385e-03, 6.94598863e-03,
       -1.48948492e-03, -6.31175295e-04, -5.62805682e-03, 1.36964908e-02,
       -9.05134063e-03, -6.70314394e-03, -5.27256215e-03, 3.71354143e-03,
       6.49128994e-03, -7.54423556e-04, -1.02309482e-02, -1.20536070e-02,
       2.19972269e-03, -1.79313682e-02, -1.56948771e-02, -7.49366032e-03,
       8.75839032e-03, 3.14173196e-03, -5.71643049e-03, -1.29629746e-02,
       -6.58979407e-03, 1.28774103e-02, 2.36334046e-03, -1.14839850e-03,
       2.11588666e-03, 6.22415729e-03, 7.68454047e-03, -6.52527530e-03,
       -1.72256250e-02, -1.06019462e-02, 8.02880898e-03, -4.98884451e-03,
       1.68082956e-03, -1.51032140e-03, 7.27254013e-03, 5.95258083e-03,
       5.03759319e-03, -2.60831090e-03, 3.35397269e-03, 3.51017900e-03,
       -1.40401134e-02, -1.83464459e-03, -3.42051056e-03, 5.11574373e-03,
       -2.17571016e-03, -1.34766486e-03, -7.45756726e-04, 1.13346353e-02,
       1.34178940e-02, -2.41921237e-03, -2.33132998e-03, -4.69601620e-03,
       2.60825641e-03, 1.07828632e-03, -6.17989386e-03, -1.29447179e-02,
       -7.34848203e-04, 1.69291429e-03, -9.07240156e-03, -4.15411964e-03,
       1.74020999e-04, 2.14188918e-03, 2.31281482e-03, -8.18716071e-04,
       -6.10587280e-03, 3.15041747e-03, 8.04499537e-03, -4.48528538e-03,
       -7.50754448e-03, 2.90224096e-03, 1.01098279e-02, 4.05343657e-04,
       -4.80068475e-03, -6.15104986e-03, -3.55787808e-03, 1.03245368e-02,
       3.65414214e-03, -1.71464717e-03, -1.01982523e-02, -1.35980183e-04,
       -1.36380177e-03, -7.88461324e-03, -9.57703125e-03,
       -1.15699628e-02, 1.20776109e-02, 4.35982714e-04, -5.66401100e-03,
       -1.52190123e-02, -5.19240275e-03, 5.70201548e-03, 2.13711895e-03,
       -6.03224791e-04, -5.79781178e-03, 5.58703020e-03, 6.57926034e-03,
       -8.00392416e-04, 1.29497238e-03, 9.28687956e-03, -1.13380165e-03,
       -4.38541127e-03, -7.65050296e-04, -9.40915570e-03, 8.42965767e-03,
       5.02426783e-03, 2.66422029e-03, -2.98760226e-03, 2.86508282e-03,
       -3.57016549e-03, -8.26153811e-03, -1.10991467e-02,
       -4.49118949e-03, 1.89567581e-02, 5.23251249e-03, 3.84600181e-03,
       -6.71443064e-03, -2.55127484e-03, -2.05001095e-03,
       -8.70602392e-03, -1.15633691e-02, -1.47843605e-03, 1.71944294e-02,
       4.37172130e-03, -3.70908738e-03, -7.47095933e-03, -1.55705679e-03,
       -1.33278430e-03, -9.67879407e-03, -7.14809215e-03,
       -5.18884743e-03, 1.31827239e-02, 3.28656053e-03, 5.29191410e-03,
       2.79663457e-03, 2.28464440e-03, 1.07882824e-03, -1.62534928e-03,
       1.20829721e-03, 7.66779762e-04, 1.21570714e-02, -7.33620208e-03,
       -1.10497826e-03, -7.14313146e-03, 3.20452265e-03, -5.41124400e-03,
       -4.83387662e-03, -3.88095737e-03, 7.10734632e-03, 1.49994688e-02,
       4.27821092e-03, -1.27374306e-02, -5.66062750e-03, -1.12560084e-02,
       -1.61830522e-02, -1.70798972e-02, -5.42681338e-03, 1.13631366e-02,
       1.04429517e-02, -1.69343175e-03, -4.72525461e-03, -4.41560941e-03,
       -1.07078003e-02, -4.05294867e-03, -3.61096486e-03, 7.50074256e-03,
       7.60326395e-03, 1.12980660e-02, 6.93464698e-03, -9.05806012e-03,
       -7.25871557e-03, -3.66131682e-03, -1.20064113e-02,
       -1.68051925e-02, -5.23837516e-03, 7.78428884e-03, 9.44455154e-03,
       -1.77442143e-03, -1.00061027e-02, -5.34773711e-03,
       -1.45718725e-02, -1.45638781e-02, -1.43693639e-02,
       -1.21218907e-02, -4.38910909e-03, 1.32568441e-02, 9.13649146e-03,
       9.13440995e-03, 6.48361631e-04, -3.70311295e-03, -4.94326185e-03,
       -2.16492787e-02, -1.46940183e-02, -5.89088490e-03, 5.34960115e-03,
       -1.13480864e-02, -3.84651823e-03, -5.50087309e-03,
       -1.76622660e-03, -1.63414627e-02, -1.76665224e-02,
       -7.79726962e-03, -6.30289828e-03, 1.70377120e-02, 1.96574423e-02,
       1.31884161e-02, 6.84311939e-03, -4.97024390e-04, -8.03788006e-03,
       -2.11247820e-02, -1.50339035e-02, -6.36182865e-03, 1.19894566e-02,
       -4.07867413e-03, 8.53498466e-03, 6.32065861e-03, -3.23962606e-03,
       5.86534617e-04, -1.06817419e-02, -6.98284432e-03, -8.53730924e-03,
       1.30933532e-02, 2.16682325e-03, -1.82708900e-03, -7.50277017e-04,
